[[[-0.09838812053203583, 0.10511217266321182, -0.05181242525577545, 0.06238783895969391, -0.09076634794473648, -0.05750909075140953, 0.15058568120002747, 0.06194358691573143, 0.07977083325386047, 0.261894166469574, -0.3939574658870697, 0.20403318107128143, 0.2609000504016876, -0.13770607113838196, 0.02966129779815674, 0.07824543118476868, 0.10309409350156784, 0.11798563599586487, 0.34291011095046997, 0.1236950159072876, -0.5824314951896667, -0.253591924905777, -0.11601246148347855, -0.19771708548069, -0.020064018666744232, 0.09735776484012604, 0.09918045997619629, 0.041093938052654266, -0.4075303077697754, 0.0036053997464478016, 0.19727124273777008, 0.24040986597537994]], [[0.0318819023668766, 0.13232339918613434, -0.32805466651916504, 0.10286244004964828, 0.07525623589754105, 0.23818647861480713, 0.05134935304522514, -0.15029165148735046, 0.16516926884651184, 0.19979053735733032, -0.09739163517951965, 0.2802651524543762, 0.3005295991897583, -0.27368876338005066, 0.03524376451969147, -0.13390105962753296, 0.17908430099487305, -0.020368527621030807, 0.21795204281806946, -0.19209060072898865, -0.3459816873073578, -0.25056278705596924, -0.03227115049958229, -0.34981679916381836, -0.172650545835495, -0.03950127959251404, 0.08664017915725708, 0.1649090051651001, -0.2713850736618042, -0.3730122148990631, 0.23067374527454376, 0.3122522830963135]], [[0.07778578996658325, 0.013248948380351067, -0.3164176940917969, -0.38810884952545166, 0.23868869245052338, -0.08022687584161758, -0.15863792598247528, -0.004551100078970194, -0.0573975071310997, -0.3210519254207611, 0.07743245363235474, 0.10577405989170074, 0.3024936020374298, -0.34130600094795227, -0.03214218467473984, -0.006795954890549183, 0.07148317247629166, -0.14794063568115234, 0.33826079964637756, -0.2569201588630676, -0.2930929362773895, -0.004889301955699921, 0.009793189354240894, -0.3171875476837158, -0.18524092435836792, -0.3971766233444214, -0.0655631422996521, 0.06504001468420029, 0.06845726817846298, -0.2708752155303955, -0.32258671522140503, 0.08003596216440201]]]
[[[-0.006762506905943155, 0.21056655049324036, 0.2300524115562439, 0.2074689269065857, 0.23999446630477905, -0.11531732976436615, 0.1914505511522293, 0.10772831737995148, 0.004242521710693836, 0.13054558634757996, -0.13292866945266724, -0.3020244836807251, 0.16366897523403168, 0.1776934713125229, 0.07026519626379013, -0.006438543554395437, 0.2150036245584488, 0.0894421637058258, 0.10729527473449707, -0.0765257328748703, 0.09373141080141068, 0.04054347425699234, -0.16298185288906097, 0.07010414451360703, 0.02604713663458824, 0.09480303525924683, 0.08390858769416809, -0.047817304730415344, -0.0904269590973854, 0.4060061573982239, 0.30373093485832214, -0.053598467260599136]], [[0.18820546567440033, -0.006570109166204929, 0.01100065279752016, 0.18549641966819763, 0.25575339794158936, 0.1373043954372406, 0.10531198978424072, -0.11517404019832611, 0.17558546364307404, 0.01306300237774849, 0.07547806948423386, -0.028298774734139442, 0.013673723675310612, 0.03192419931292534, 0.1757126897573471, 0.11576978117227554, 0.21928943693637848, -0.12609247863292694, 0.12069792300462723, -0.12929540872573853, -0.03069342114031315, -0.1300230771303177, 0.09331614524126053, 0.1264035552740097, -0.16933265328407288, -0.5833573937416077, 0.11571620404720306, 0.02076627127826214, 0.05143465846776962, 0.06525027751922607, -0.14122290909290314, -0.12676866352558136]], [[-0.030436845496296883, -0.2855023741722107, 0.03250128775835037, -0.4032447636127472, -0.14138664305210114, 0.2958728075027466, -0.41798949241638184, 0.05464562401175499, 0.07382623851299286, -0.4015056788921356, 0.17582584917545319, 0.1167515441775322, -0.1369965374469757, -0.02771056443452835, -0.20799241960048676, -0.005566790699958801, 0.09893711656332016, 0.030662421137094498, -0.0477287694811821, -0.15649574995040894, -0.40348514914512634, 0.08925420045852661, -0.06836142390966415, 0.11949801445007324, -0.18216553330421448, 0.025554858148097992, 0.025364769622683525, 0.13643886148929596, 0.16083882749080658, -0.2598239481449127, -0.27582526206970215, -0.1648615002632141]]]
[[[0.20621581375598907, 0.06932326406240463, 0.10456576198339462, 0.07477190345525742, 0.14181450009346008, -0.4351305365562439, 0.3466876447200775, 0.10651515424251556, 0.13674120604991913, 0.2780960500240326, 0.13752421736717224, -0.22044384479522705, -0.24418635666370392, 0.0679556354880333, 0.17963773012161255, -0.05540953576564789, -0.15227872133255005, 0.003545766929164529, -0.4421520233154297, 0.13811366260051727, 0.3410648703575134, 0.3135406970977783, -0.15958108007907867, 0.19132977724075317, 0.3117988407611847, -0.3669581115245819, -0.1471906453371048, -0.22923453152179718, 0.21245378255844116, 0.12562359869480133, 0.20543888211250305, -0.39043882489204407]], [[-0.0003242795937694609, 0.2563892602920532, 0.2465215027332306, 0.3156502842903137, -0.13381505012512207, -0.2349262684583664, -0.1881350725889206, 0.1203140914440155, 0.09661154448986053, 0.004850524011999369, 0.04941954463720322, -0.15209171175956726, -0.4052013158798218, 0.11402606219053268, 0.2038968801498413, 0.08789727836847305, -0.1723668873310089, -0.06390414386987686, -0.40807580947875977, 0.29816699028015137, 0.15292160212993622, 0.17930346727371216, 0.14313574135303497, 0.15822474658489227, 0.21772617101669312, -0.1690722405910492, 0.17443053424358368, 0.07335269451141357, 0.31603237986564636, 0.27018892765045166, -0.24882031977176666, 5.444526323117316e-05]], [[0.015188170596957207, -0.046921391040086746, 0.11416921019554138, -0.09285542368888855, -0.27973154187202454, 0.2317015826702118, -0.22584117949008942, -0.0287097729742527, 0.07962355017662048, -0.12107891589403152, 0.1679902970790863, -0.026078565046191216, -0.27127283811569214, 0.32549142837524414, -0.050412990152835846, -0.008857612498104572, -0.040637604892253876, 0.17684873938560486, -0.3000175356864929, 0.3393835127353668, 0.006703766994178295, -0.13280856609344482, 0.21942150592803955, 0.17710274457931519, 0.15431509912014008, 0.20347537100315094, 0.0341181643307209, 0.15479032695293427, -0.050924334675073624, 0.024859078228473663, 0.04587666690349579, 0.05566064640879631]]]
