[[[-0.07080607116222382, 0.02218863181769848, -0.03219711780548096, -0.14775152504444122, -0.0939946174621582, 0.03666631504893303, 0.13262395560741425, -0.06619103252887726, -0.25032028555870056, -0.22509264945983887, -0.11903318017721176, -0.020149990916252136, 0.11504019051790237, -0.07061880081892014, -0.12404367327690125, 0.12575770914554596, 0.002101022284477949, 0.1651976853609085, 0.05733250826597214, 0.04058336094021797, 0.0849631279706955, -0.08162606507539749, -0.1725165843963623, -0.0643441304564476, 0.025666631758213043, 0.12916754186153412, 0.07193037122488022, 0.04327839985489845, 0.04725917428731918, 0.0378163605928421, 0.01935792900621891, 0.07406556606292725, 0.027252456173300743, -0.02045760117471218, -0.05390884727239609, -0.05939209461212158, 0.08360887318849564, -0.00556845311075449, 0.08158402144908905, -0.13221099972724915, 0.05707613006234169, -0.06907663494348526, 0.06661499291658401, -0.1511772722005844, 0.07307244092226028, 0.03214569762349129, -0.055774036794900894, 0.13042671978473663, -0.17308922111988068, -0.09926611185073853, -0.07235322892665863, -0.12336546182632446, -0.032415762543678284, 0.06189558655023575, 0.030547285452485085, -0.030529115349054337, 0.018845880404114723, 0.06894348561763763, -0.06040029972791672, 0.008625291287899017, 0.08064258098602295, -0.10479786247015, -0.20576874911785126, 0.11303427815437317], [0.031718697398900986, -0.03893236815929413, -0.06571026891469955, -0.09878651797771454, 0.05492736026644707, -0.044820066541433334, 0.10803444683551788, -0.07965318113565445, -0.20376846194267273, -0.2731488347053528, -0.11066123843193054, -0.1907404512166977, 0.1223955899477005, -0.00820926669985056, -0.05556362122297287, 0.04315699636936188, -0.0675782635807991, 0.04135267436504364, 0.10778899490833282, -0.049752622842788696, 0.07981400936841965, -0.02353247068822384, -0.08825568854808807, 0.015477246604859829, -0.14303044974803925, 0.11890875548124313, 0.03274986147880554, 0.006991402246057987, 0.07254331558942795, 0.01489169243723154, -0.08192501217126846, 0.11689232289791107, 0.061244215816259384, -0.023496709764003754, -0.017148729413747787, -0.11280985921621323, 0.12915705144405365, 0.189768984913826, 0.11307886987924576, -0.17725490033626556, 0.14462678134441376, -0.002748058410361409, 0.013636068440973759, -0.17686891555786133, -0.09199190139770508, -0.00956251285970211, -0.17433561384677887, 0.1134423315525055, -0.26671141386032104, 0.09293495863676071, -0.016802100464701653, -0.03957532346248627, 0.035537537187337875, -0.005633082706481218, -0.017165934666991234, -0.09463302046060562, 0.0544547438621521, 0.02800757996737957, -0.0050985622219741344, 0.06220623850822449, 0.040576718747615814, -0.22139132022857666, -0.08624725043773651, 0.13920599222183228], [-0.010858393274247646, 0.026699068024754524, 0.014738836325705051, 0.012122397311031818, 0.1593843400478363, -0.015207348391413689, -0.01451869960874319, 0.03855108097195625, -0.11504929512739182, -0.3225611448287964, -0.029950832948088646, -0.07360854744911194, -0.13713665306568146, -0.22505228221416473, 0.015474007464945316, 0.04373851418495178, -0.05311303213238716, -0.10737261921167374, 0.17387156188488007, 0.1454874724149704, -0.07370206713676453, 0.20947958528995514, -0.09218229353427887, 0.022265514358878136, 0.04846600070595741, -0.044189296662807465, 0.044430721551179886, 0.23433266580104828, 0.1564609855413437, -0.0565970353782177, -0.06589164584875107, -0.0386921726167202, 0.019825633615255356, -0.35738223791122437, -0.02986096777021885, -0.03865192458033562, -0.0015999074093997478, -0.03735882043838501, -0.006133542861789465, -0.060587283223867416, -0.041783981025218964, 0.13860327005386353, 0.1327507346868515, 0.017559435218572617, -0.19428354501724243, -0.03126825392246246, -0.08443517982959747, 0.046282730996608734, -0.23541122674942017, 0.02254253812134266, -0.22306032478809357, -0.12485206872224808, 0.003962764050811529, 0.07078592479228973, 0.009860715828835964, -0.28297194838523865, -0.07590512931346893, 0.026405878365039825, -0.060873229056596756, 0.06456998735666275, 0.0440291129052639, -0.23002582788467407, -0.034595757722854614, 0.12991705536842346], [0.029436176642775536, -0.01383200939744711, 0.0533343181014061, -0.007165799383074045, -0.008516957052052021, -0.01581914909183979, 0.12635259330272675, -0.23024891316890717, -0.14173230528831482, -0.2315724492073059, -0.08334816992282867, -0.023130429908633232, 0.06473408639431, -0.026531687006354332, 0.03449004143476486, 0.12028457969427109, -0.20213457942008972, 0.1606559157371521, 0.011946837417781353, 0.13221846520900726, -0.04424850270152092, 0.03175172954797745, -0.0657714456319809, 0.005421448964625597, -0.1238039955496788, -0.05350533872842789, -0.03772410750389099, -0.005787531845271587, 0.20161621272563934, -0.09513438493013382, 0.04957886412739754, 0.022617658600211143, 0.055030494928359985, -0.23884843289852142, 0.028705580160021782, -0.12377004325389862, 0.0844908207654953, 0.14884254336357117, 0.2037457823753357, 0.2053820788860321, -0.15120521187782288, 0.1991838812828064, -0.020506154745817184, -0.15902802348136902, -0.01634136587381363, -0.10292001068592072, -0.29859402775764465, -0.007401813752949238, -0.3077574372291565, 0.32400572299957275, -0.03545509651303291, -0.16082656383514404, -0.06562428176403046, 0.1364520788192749, -0.10571174323558807, -0.18090003728866577, 0.05090321600437164, 0.049378570169210434, -0.06925462186336517, 0.19587713479995728, 0.022177767008543015, -0.1297854483127594, -0.09394324570894241, 0.10239588469266891], [-0.004407921805977821, -0.020896876230835915, -0.035185981541872025, -0.10727767646312714, -0.11430995911359787, -0.03494618833065033, -0.0420536994934082, 0.07269265502691269, -0.17955927550792694, -0.18305368721485138, -0.1960466504096985, -0.1250864863395691, 0.04220570623874664, -0.01837780885398388, -0.13125014305114746, 0.11402560025453568, -0.1060054823756218, 0.08061079680919647, 0.017564577981829643, 0.05245254933834076, 0.09524499624967575, 0.008296280167996883, -0.2050589919090271, -0.1382043957710266, -0.05498630553483963, 0.097063347697258, 0.10528401285409927, -0.03741573914885521, -0.05992698296904564, 0.07711468636989594, -0.012021192349493504, 0.0490688681602478, 0.07025966793298721, -0.1429758220911026, 0.09722231328487396, 0.04790939390659332, 0.0507158599793911, 0.02081088349223137, 0.08813048899173737, -0.10478600114583969, 0.1415529102087021, -0.02644876018166542, 0.06812332570552826, 0.08050887286663055, -0.010838421061635017, -0.026052294299006462, -0.22585730254650116, 0.07630608975887299, -0.17745722830295563, -0.017050273716449738, -0.0871284082531929, -0.11908654868602753, 0.104580357670784, 0.012641933746635914, 0.05034812539815903, 0.05257605388760567, 0.03991394490003586, -0.059159792959690094, -0.023399047553539276, 0.03748943284153938, -0.004252870101481676, -0.21523547172546387, -0.020660147070884705, 0.07937326282262802], [0.01822577230632305, 0.10339254885911942, 0.14102423191070557, -0.05845322832465172, -0.2026604861021042, -0.30513936281204224, 0.03734971210360527, -0.18182507157325745, -0.034757521003484726, -0.004744666162878275, -0.09041126817464828, -0.06730686128139496, -0.07508659362792969, 0.23490801453590393, -0.04779960960149765, -0.05418854206800461, -0.10207175463438034, 0.1997978836297989, -0.11765934526920319, 0.1055087298154831, 0.1567917913198471, -0.18811610341072083, -0.129116952419281, -0.016215361654758453, 0.10096660256385803, 0.055307403206825256, -0.126736581325531, 0.01963295042514801, -0.07306196540594101, 0.04779783636331558, 0.013259902596473694, 0.05743218585848808, -0.11576039344072342, 0.17057321965694427, -0.04237043485045433, -0.10720530152320862, 0.0818602591753006, 0.19972772896289825, 0.16906321048736572, -0.0469171367585659, 0.04589886590838432, -0.08880998194217682, -0.025485046207904816, 0.05834450200200081, -0.017961036413908005, -0.11585372686386108, 0.134347602725029, -0.03684418648481369, 0.13886095583438873, -0.0220956988632679, 0.02562941610813141, 0.035883720964193344, -0.05642257258296013, -0.13921700417995453, -0.12193424999713898, 0.18553206324577332, 0.030087994411587715, -0.0415756031870842, 0.021866407245397568, -0.09569282084703445, 0.11337403953075409, -0.03484112024307251, -0.02457471378147602, -0.13233155012130737], [-0.03307047486305237, 0.024153482168912888, 0.055394481867551804, 0.03359297662973404, -0.08746334165334702, 0.0924435630440712, -0.05094137787818909, -0.1796424835920334, -0.14475129544734955, -0.33255720138549805, -0.11533637344837189, -0.1705522984266281, 0.07394085824489594, 0.17500677704811096, 0.02010003849864006, 0.06803237646818161, -0.22013601660728455, 0.07094533741474152, 0.03854948654770851, -0.0045332578010857105, -0.05813763290643692, 0.037246301770210266, -0.10505250841379166, -0.020408540964126587, 0.029930567368865013, 0.032512180507183075, 0.04899408668279648, 0.009794812649488449, 0.14800606667995453, -0.0262847188860178, 0.06790027767419815, 0.026254793629050255, 0.196345254778862, -0.40303897857666016, 0.19953709840774536, -0.027249079197645187, 0.008452743291854858, 0.13516351580619812, 0.2730151414871216, 0.15032996237277985, 0.0036022199783474207, 0.007114022970199585, -0.16901566088199615, -0.12614111602306366, -0.165862575173378, -0.17077027261257172, -0.15496888756752014, 0.007632216438651085, -0.310468465089798, 0.313249796628952, -0.14128315448760986, -0.04432332143187523, 0.10777320712804794, -0.0006682705716229975, 0.019215337932109833, -0.09508514404296875, 0.023988185450434685, 0.10679266601800919, -0.035356517881155014, 0.20726725459098816, -0.20409591495990753, -0.23348388075828552, -0.022832615301012993, 0.03472334146499634], [0.050829820334911346, -0.06134437769651413, 0.06249762326478958, -0.09960545599460602, -0.05123985931277275, -0.03799903020262718, 0.07222650945186615, -0.0037186634726822376, -0.08600179105997086, -0.3704923391342163, -0.11384537070989609, -0.03558505326509476, -0.04712868481874466, -0.0851297453045845, 0.005234862677752972, 0.012235143221914768, 0.1046377494931221, 0.008729078806936741, 0.07625847309827805, 0.012857235036790371, 0.0222772303968668, 0.10843774676322937, -0.1102333515882492, 0.07543212175369263, -0.04486779868602753, 0.08000684529542923, 0.0657472237944603, 0.04678259417414665, 0.10256051272153854, 0.061134543269872665, -0.04803285002708435, 0.022087935358285904, -0.021605027839541435, -0.0973144918680191, 0.004999828524887562, -0.028607681393623352, 0.06737926602363586, 0.10345587134361267, 0.07766909152269363, -0.062361519783735275, -0.00062143849208951, 0.10040172189474106, -0.058052919805049896, -0.05564708262681961, -0.04141489043831825, -0.0181256253272295, -0.002477644942700863, 0.04615206643939018, -0.09482306241989136, -0.12248629331588745, -0.12136748433113098, 0.031437844038009644, 0.013878029771149158, -0.01742498017847538, -0.009999299421906471, -0.1273735910654068, -0.01693403534591198, 0.016081886366009712, -0.15996159613132477, 0.05627632141113281, 0.05922815203666687, -0.14135070145130157, -0.0010604620911180973, 0.059228748083114624], [1.7226810086867772e-05, 0.030245313420891762, -0.03544623777270317, -0.0343436524271965, 0.0006389546906575561, 0.027908682823181152, 0.035450514405965805, -0.03891924023628235, -0.19021359086036682, -0.23082837462425232, -0.054264191538095474, -0.12575742602348328, 0.09342217445373535, -0.04733836650848389, -0.08738213032484055, 0.0789431482553482, 0.0966881662607193, 0.15662673115730286, -0.02388453111052513, 0.04370821267366409, 0.10801154375076294, -0.07941541820764542, -0.11282216012477875, 0.01133501622825861, -0.1244226023554802, -0.02429950051009655, 0.050820350646972656, 0.0026969483587890863, 0.04162634164094925, 0.016958089545369148, -0.05790288373827934, 0.10681400448083878, 0.031958553940057755, -0.06273273378610611, 0.008468019776046276, -0.03294948861002922, 0.0869234949350357, 0.1720752865076065, 0.014536133036017418, -0.18543358147144318, 0.11992766708135605, -0.007164002861827612, 0.024071048945188522, -0.15141929686069489, -0.04943136125802994, -0.07348403334617615, -0.07978983223438263, -0.042993851006031036, -0.17428669333457947, -0.04030608385801315, 0.03218771517276764, -0.0051592676900327206, 0.005623289383947849, -0.03136179968714714, -0.07329719513654709, -0.031560659408569336, 0.04305305704474449, 0.09906698763370514, -0.12622496485710144, 0.07486380636692047, 0.0691964402794838, -0.22170719504356384, -0.11534431576728821, 0.07089454680681229], [-0.04138096421957016, 0.044061604887247086, 0.022042635828256607, 0.0008232850814238191, 0.02886234223842621, 0.08415019512176514, -0.003816043958067894, -0.16742272675037384, -0.16715939342975616, -0.21928267180919647, -0.23912890255451202, -0.036082811653614044, 0.004605717491358519, 0.14869463443756104, 0.07442834973335266, 0.05735163763165474, -0.1808812916278839, 0.03564805909991264, 0.11232753098011017, -0.07378759235143661, -0.012149455025792122, 0.0064740534871816635, -0.07589169591665268, 0.16784851253032684, -0.08457232266664505, 0.10753744840621948, -0.05881554260849953, 0.001381683279760182, 0.14943911135196686, 0.10801007598638535, -0.024881144985556602, -0.014080376364290714, 0.054561395198106766, -0.22303356230258942, 0.1707341969013214, -0.037075549364089966, 0.19632922112941742, 0.15389564633369446, 0.19677843153476715, 0.1395556777715683, -0.033138010650873184, 0.10481233149766922, -0.06260083615779877, -0.09733252972364426, -0.16709910333156586, -0.11555535346269608, -0.2841119170188904, 0.14361508190631866, -0.2634742856025696, 0.14541324973106384, -0.1049790233373642, -0.033029574900865555, 0.06206104904413223, 0.1282946616411209, 0.0865800529718399, 0.005885506048798561, -0.018765205517411232, 0.04125247895717621, -0.010228689759969711, 0.14254815876483917, -0.10517048090696335, -0.1796470731496811, -0.016194485127925873, 0.052473846822977066], [-0.04499606415629387, 0.03621893376111984, 0.11419865489006042, -0.1516065150499344, 0.06377717852592468, 0.0002387092390563339, 0.0019525740062817931, 0.09469889849424362, -0.06982970237731934, -0.36858129501342773, -0.0387539304792881, -0.08341069519519806, 0.07346024364233017, -0.039331089705228806, -0.08422431349754333, 0.050092488527297974, 0.1305503249168396, -0.04586401581764221, -0.07264817506074905, -0.0012346722651273012, -0.0254970695823431, -0.12020736187696457, -0.1600867360830307, 0.007703504990786314, 0.08192954957485199, 0.07780139893293381, 0.11655484884977341, 0.060148339718580246, -0.17851640284061432, 0.03322821110486984, -0.058828845620155334, -0.12826862931251526, -0.06561959534883499, -0.15778768062591553, -0.028767185285687447, 0.053369008004665375, 0.04291965439915657, -0.04140768572688103, 0.01642976701259613, -0.0487118698656559, -0.09730023145675659, -0.07261670380830765, 0.02469814568758011, -0.007350740488618612, 0.0790824219584465, 0.027653874829411507, 0.08945759385824203, 0.0651450827717781, -0.03298508748412132, -0.13278703391551971, 0.046392861753702164, 0.0030090538784861565, 0.10789430141448975, -0.05608242005109787, 0.07877535372972488, 0.02969548851251602, 0.0019722357392311096, 0.018188895657658577, -0.12160511314868927, -0.0407223179936409, -0.09041585773229599, -0.21210798621177673, 0.03333793953061104, -0.048197802156209946], [0.02203608676791191, 0.0954684242606163, -0.08518622815608978, -0.23978200554847717, -0.11760088056325912, -0.011850016191601753, -0.09576962143182755, -0.16988512873649597, 0.052700407803058624, 0.10887502878904343, -0.08153834193944931, -0.1493842899799347, -0.12530870735645294, 0.051695916801691055, -0.04374120011925697, -0.030918356031179428, -0.13495208323001862, 0.16764536499977112, 0.08516988158226013, 0.06871150434017181, 0.05194470286369324, -0.21968811750411987, -0.08343762904405594, -0.019087720662355423, 0.07854937762022018, 0.13169613480567932, -0.07733044028282166, 0.04114725813269615, -0.0558166466653347, 0.14229774475097656, -0.09865086525678635, 0.18889516592025757, -0.043801020830869675, 0.11268235743045807, -0.10819439589977264, -0.005440803244709969, 0.07627428323030472, 0.0562698170542717, -0.033536236733198166, -0.14353035390377045, 0.07398612052202225, -0.1705554723739624, 9.649826097302139e-05, -0.04843153432011604, -0.04013532027602196, -0.14735789597034454, 0.12538394331932068, 0.006399359554052353, 0.050430603325366974, -0.17172187566757202, 0.11625652015209198, 0.10706472396850586, -0.2937844693660736, -0.19416752457618713, -0.25447389483451843, 0.138070747256279, -0.002912924624979496, -0.034442052245140076, 0.1528276950120926, -0.16881175339221954, 0.05254596099257469, -0.14384020864963531, -0.006768858525902033, -0.058117520064115524], [-0.056516509503126144, -0.026076791808009148, -0.19999396800994873, -0.24118752777576447, -0.18328937888145447, 0.08916079998016357, -0.05754386633634567, -0.23295268416404724, -0.18659767508506775, 0.07450246065855026, -0.15886159241199493, -0.2119051218032837, -0.06897176057100296, 0.04440325126051903, -0.011548841372132301, 0.015581438317894936, -0.35935690999031067, 0.01650986447930336, 0.02966015599668026, 0.05428037419915199, -0.03790890425443649, -0.23058205842971802, -0.19465410709381104, -0.10439065843820572, -0.10329234600067139, -0.016024034470319748, -0.006754986941814423, -0.041178423911333084, -0.08894500136375427, 0.023007933050394058, 0.03153479844331741, 0.2410784363746643, -0.007292246446013451, 0.017487166449427605, 0.0485227145254612, 0.024538367986679077, -0.13262908160686493, 0.006924602203071117, 0.07361164689064026, -0.1473919153213501, 0.22791601717472076, -0.15262922644615173, 0.02285456843674183, 0.05627134442329407, -0.3374875783920288, -0.2758637070655823, -0.09341045469045639, -0.08912410587072372, -0.10570251196622849, -0.23323002457618713, -0.08401647955179214, -0.05956706404685974, -0.046566192060709, -0.2577090859413147, -0.08896660059690475, 0.04242081567645073, -0.05174721032381058, -0.14118103682994843, 0.10117988288402557, -0.10852394998073578, -0.03557855263352394, -0.10868224501609802, 0.10770996659994125, 0.019132627174258232], [0.008146487176418304, 0.04277469962835312, 0.07960859686136246, 0.09300919622182846, 0.08923830091953278, -0.03143543750047684, -0.04624661058187485, 0.024433709681034088, -0.007044256664812565, -0.2704677879810333, 0.041651349514722824, -0.07454682886600494, -0.10746882855892181, -0.11264112591743469, 0.11960389465093613, -0.07709209620952606, 0.0884743183851242, -0.22772474586963654, -0.04422839730978012, 0.004578805062919855, -0.1712292581796646, 0.1544826179742813, -0.03860228508710861, 0.012056844308972359, 0.09208916127681732, -0.09816619008779526, -0.10474718362092972, 0.06820788979530334, -0.08847388625144958, -0.11087250709533691, 0.05695158615708351, -0.21005992591381073, -0.02017282508313656, -0.27631786465644836, -0.16870000958442688, 0.0729881078004837, -0.14226065576076508, -0.02036314271390438, -0.08397945761680603, 0.05325297638773918, -0.12116391211748123, -0.009562825784087181, 0.07653218507766724, 0.032004017382860184, -0.21665629744529724, 0.13174518942832947, -0.14070837199687958, 0.024046573787927628, -0.21447338163852692, -0.13830174505710602, -0.15144187211990356, -0.07067232578992844, 0.09150101989507675, -0.04335238039493561, -0.022694094106554985, -0.34992513060569763, -0.02174387499690056, -0.09534955769777298, 0.14099104702472687, -0.04084571823477745, -0.0078300004824996, -0.2749605178833008, 0.046766508370637894, 0.1490950882434845], [-0.05075204372406006, 0.05738334357738495, -0.06738588213920593, -0.006987660191953182, 0.05295654013752937, 0.08083309978246689, 0.06699112802743912, -0.08014801144599915, -0.0884007140994072, -0.2751404643058777, -0.04177520424127579, -0.04631378874182701, 0.08615338057279587, -0.01592489331960678, -0.07625871896743774, 0.03618750348687172, 0.017472678795456886, 0.040630042552948, 0.0681276023387909, 0.008816191926598549, 0.0234458576887846, 0.05970803275704384, -0.07641003280878067, -0.03933727741241455, 0.03053487278521061, 0.08079720288515091, -0.054418761283159256, 0.05133563280105591, 0.10499831289052963, -0.07624755799770355, -0.05223160237073898, -0.05134802684187889, 0.06836822628974915, -0.1518564522266388, 0.09405497461557388, 0.011416146531701088, 0.11853697150945663, 0.10458513349294662, 0.03178396448493004, -0.12404531240463257, -0.051906175911426544, 0.10042911767959595, 0.03959154710173607, -0.14725013077259064, -0.007485042326152325, 0.0010946866823360324, -0.24333329498767853, 0.12992370128631592, -0.2657739222049713, -0.017378799617290497, -0.05672742798924446, -0.09815223515033722, 0.020727725699543953, 0.029835497960448265, -0.02207280695438385, -0.015579622238874435, -0.06648141890764236, 0.03771025687456131, -0.1281086504459381, 0.05039495974779129, -0.06949330121278763, -0.1842692792415619, -0.11875848472118378, 0.040814358741045], [0.01676332950592041, 0.030234970152378082, -0.009988912381231785, -0.12714357674121857, -0.06949103623628616, -0.02591709978878498, 0.03587599843740463, -0.059370316565036774, -0.13310131430625916, -0.11433707922697067, -0.09372349083423615, -0.1324586123228073, -0.03167923912405968, -0.13969850540161133, -0.12554168701171875, 0.13235628604888916, 0.022723522037267685, 0.14007806777954102, -0.01860777661204338, 0.046098776161670685, 0.10493212193250656, 0.023442409932613373, -0.07178670167922974, -0.037799108773469925, 0.025675460696220398, 0.043765369802713394, 0.06009722873568535, 0.006066742818802595, 0.1054174080491066, -0.016248922795057297, 0.023328879848122597, 0.11077627539634705, -0.06316886097192764, -0.08426514267921448, -0.018248669803142548, -0.04330402612686157, 0.033735956996679306, 0.03822607919573784, 0.09817999601364136, -0.15301422774791718, 0.09815631061792374, -0.03668578341603279, 0.04690024256706238, -0.12177197635173798, -0.09400317072868347, 0.08350834250450134, -0.037642113864421844, 0.09405858814716339, -0.08672542124986649, -0.07727094739675522, 0.038874417543411255, 0.04668011888861656, -0.09376353770494461, 0.020659927278757095, 0.0431293360888958, -0.09733078628778458, -0.13341759145259857, 0.06006184220314026, -0.12206295877695084, -0.036524344235658646, 0.08432240039110184, -0.07507012784481049, -0.16639120876789093, 0.10038890689611435], [-0.016294466331601143, -0.028990548104047775, -0.06114955618977547, -0.17674541473388672, -0.18037904798984528, -0.057026635855436325, 0.07633409649133682, -0.14140400290489197, -0.2494339495897293, -0.07499117404222488, -0.178975448012352, -0.1492694616317749, -0.02209988608956337, 0.07407629489898682, -0.18478327989578247, 0.07100161164999008, -0.11105126887559891, 0.11666249483823776, 0.0037495195865631104, 0.08595407009124756, 0.04338422417640686, 0.01351330429315567, -0.20971548557281494, -0.1227455660700798, -0.018726440146565437, -0.016434425488114357, -0.059099361300468445, -0.011180677451193333, 0.021122420206665993, 0.06076420471072197, -0.008106508292257786, 0.17911064624786377, 0.08263055235147476, -0.033139199018478394, 0.06693073362112045, 0.038780439645051956, 0.06540357321500778, 0.16760161519050598, 0.005348749924451113, -0.2671903073787689, 0.19158108532428741, -0.08404972404241562, -0.043244216591119766, -0.06350216269493103, -0.0505618080496788, -0.09383139759302139, -0.07565265148878098, 0.019458092749118805, -0.17853130400180817, -0.03774378448724747, -0.08078734576702118, 0.012292568571865559, -0.15643282234668732, -0.0157685074955225, 0.025024212896823883, 0.1408960074186325, -0.11540601402521133, -0.02945699170231819, 0.06575148552656174, -0.1282551884651184, 0.06387514621019363, -0.13900892436504364, -0.07971526682376862, 0.006080831866711378], [-0.043046824634075165, 0.03396505117416382, 0.0886264219880104, -0.019757326692342758, -0.09248869121074677, 0.023915890604257584, 0.1227620467543602, -0.0002756832691375166, -0.18833161890506744, -0.19640226662158966, -0.04566982388496399, 0.018908202648162842, -0.05467979609966278, 0.017683904618024826, -0.0023691775277256966, 0.10145154595375061, -0.08039280772209167, 0.10379928350448608, 0.16902779042720795, 0.0329446904361248, 0.027021683752536774, 0.07706576585769653, -0.16081126034259796, 0.05426624417304993, -0.07695614546537399, 0.048431653529405594, 0.03202785924077034, 0.1074911504983902, 0.07115248590707779, 0.023392828181385994, -0.07336965948343277, -0.031530410051345825, 0.045269448310136795, 0.028936682268977165, 0.014515083283185959, -0.05143062770366669, 0.04324277490377426, 0.056406419724226, 0.058213602751493454, -0.035558659583330154, 0.013142373412847519, 0.0066425995901227, 0.04324228689074516, -0.0110201146453619, -0.04590250924229622, 0.0015939552104100585, -0.10476061701774597, 0.06473308056592941, -0.17509044706821442, -0.07806430011987686, -0.07836540788412094, 0.07526838034391403, 0.03397289663553238, 0.021895643323659897, 0.05036819726228714, -0.05497495457530022, -0.014021597802639008, 0.03393995016813278, -0.08783799409866333, -0.12484309822320938, 0.03285402059555054, -0.16409988701343536, -0.0739360898733139, 0.10766074061393738], [-0.04404802992939949, -0.05669175088405609, -0.2894163131713867, -0.24181754887104034, -0.23268793523311615, 0.24022069573402405, -0.18760767579078674, -0.4125915467739105, -0.10145829617977142, 0.2095099836587906, -0.016057994216680527, -0.1646186113357544, -0.07611742615699768, -0.009686924517154694, -0.007612797897309065, 0.002832248341292143, -0.47454842925071716, 0.012624097988009453, 0.03092711791396141, 0.032775625586509705, -0.040814634412527084, -0.22244270145893097, -0.17441171407699585, -0.05680016800761223, -0.04929234832525253, 0.11041924357414246, -0.006191247142851353, -0.11740478873252869, -0.15328049659729004, -0.006864245980978012, 0.027412116527557373, 0.13855832815170288, -0.018288007006049156, 0.10846837610006332, -0.1035366952419281, 0.14359666407108307, -0.13526824116706848, 0.06552615016698837, 0.010474592447280884, -0.19598892331123352, 0.13762059807777405, -0.06144174188375473, 0.14590375125408173, 0.20218704640865326, -0.33720919489860535, -0.4036557674407959, -0.06010696291923523, -0.15903501212596893, -0.009254577569663525, -0.34705859422683716, -0.15948447585105896, -0.009254001080989838, -0.18132802844047546, -0.2653553783893585, -0.16421401500701904, 0.1657482087612152, -0.017415225505828857, -0.21320509910583496, 0.22688238322734833, -0.11198893189430237, 0.10015453398227692, -0.0041320109739899635, 0.15292896330356598, 0.04163486137986183], [-0.07710390537977219, 0.0692959651350975, -0.02067909948527813, 0.07834472507238388, 0.09553254395723343, -0.019507694989442825, 0.0755661278963089, 0.11796850711107254, -0.053724080324172974, -0.029162179678678513, 0.03111167438328266, -0.029422683641314507, -0.15522244572639465, -0.26799774169921875, 0.02361532673239708, 0.013989605009555817, 0.028067689388990402, -0.059943512082099915, 0.09174951165914536, 0.18733182549476624, -0.0872337743639946, 0.10074301809072495, -0.1682979315519333, 0.13986292481422424, 0.050591982901096344, 0.012618030421435833, 0.04197421297430992, 0.1944032460451126, 0.057697828859090805, -0.04613282158970833, -0.03132175654172897, -0.27790531516075134, 0.09125763177871704, -0.29835379123687744, -0.08172480016946793, 0.03616296872496605, -0.17324139177799225, 0.10557686537504196, -0.32988494634628296, 0.0376882441341877, -0.13887102901935577, 0.2092825323343277, 0.09876962006092072, 0.1806381791830063, -0.1984153538942337, 0.11794090270996094, -0.1831332892179489, 0.0019109986023977399, -0.29519206285476685, -0.16202318668365479, -0.32571303844451904, -0.1444975584745407, 0.013270163908600807, 0.03880205377936363, 0.12795762717723846, -0.2966560125350952, -0.0735463798046112, -0.1126098781824112, 0.11884249001741409, -0.020687563344836235, -0.01960405893623829, -0.1089465469121933, 0.003639949718490243, 0.1253529042005539], [-0.08874214440584183, -0.13699661195278168, -0.10257238894701004, -0.0946638435125351, 0.069752998650074, -0.11096595227718353, 0.10531418770551682, -0.2124844193458557, 0.2575615644454956, -0.0036647364031523466, -0.02541954070329666, -0.11330202221870422, -0.14675849676132202, -0.13167966902256012, -0.06953749805688858, 0.03342656046152115, -0.18012124300003052, -0.12311958521604538, -0.06311554461717606, 0.046412836760282516, -0.27034175395965576, 0.28642383217811584, -0.059287745505571365, -0.13746915757656097, 0.1017034575343132, -0.25062867999076843, -0.13800586760044098, -0.017396733164787292, 0.15089713037014008, -0.3754182755947113, 0.018535025417804718, -0.1364825963973999, -0.09985034167766571, -0.05259593203663826, -0.3186436593532562, 0.040380049496889114, 0.11569399386644363, 0.13642187416553497, -0.02790886163711548, 0.1535986363887787, -0.3218511641025543, 0.12443855404853821, -0.023462794721126556, -0.13168273866176605, -0.32964855432510376, -0.24349872767925262, 0.1382298618555069, -0.182400643825531, -0.03546788915991783, -0.07275111973285675, -0.14738215506076813, -0.033282939344644547, 0.015590566210448742, 0.010247467085719109, -0.12501785159111023, -0.13478334248065948, -0.12375610321760178, 0.03711802512407303, -0.09223894774913788, 0.08051002025604248, -0.026084430515766144, 0.0117335868999362, -0.002085498534142971, 0.07615131139755249], [-0.06944610178470612, -0.08711531013250351, 0.02372996136546135, -0.038350533694028854, -0.016335569322109222, -0.042052362114191055, -0.0667770504951477, 0.15986941754817963, 0.12571194767951965, -0.14423613250255585, -0.10282006114721298, 0.024900885298848152, -0.09463253617286682, -0.1231469213962555, 0.03635994344949722, 0.06093066930770874, -0.01653212308883667, -0.1184583231806755, 0.049897000193595886, 0.06169271841645241, -0.07029957324266434, 0.2799418568611145, -0.1913897544145584, -0.06304860860109329, 0.11147445440292358, 0.041607651859521866, 0.0634649470448494, 0.3053349554538727, 0.1659296602010727, -0.09291337430477142, 0.009328826330602169, -0.10000494122505188, -0.03853023797273636, -0.2557843327522278, 0.006183289922773838, 0.057896677404642105, -0.022411160171031952, 0.04855448752641678, -0.1783292293548584, 0.020599812269210815, -0.21854227781295776, 0.09348063170909882, 0.18382973968982697, -0.06919380277395248, -0.1510825753211975, -0.018501359969377518, -0.11469437927007675, 0.001295008696615696, -0.2689567506313324, -0.04402928426861763, -0.37580135464668274, -0.013821079395711422, 0.18623729050159454, 0.1001521572470665, 0.16016936302185059, -0.23721927404403687, -0.05685118958353996, 0.07042475044727325, -0.06873680651187897, 0.07891762256622314, -0.17606061697006226, -0.2648046016693115, 0.10099219530820847, 0.03141385316848755], [0.04998353496193886, 0.148453950881958, 0.08169327676296234, -0.0606316514313221, -0.007416730280965567, -0.033787671476602554, 0.02168675698339939, 0.09395834058523178, -0.21497520804405212, -0.4090152680873871, 0.08654718101024628, -0.08062844723463058, -0.06011988967657089, -0.036685727536678314, 0.011144114658236504, 0.003126071533188224, 0.002662983722984791, 0.050858110189437866, 0.05404272302985191, 0.032785430550575256, -0.04375295713543892, -0.10576870292425156, -0.1835031658411026, 0.042945608496665955, -0.0841837003827095, -0.008678202517330647, 0.11313242465257645, 0.022719934582710266, -0.002191679086536169, 0.06628426909446716, 0.02637074701488018, -0.06441736221313477, -0.06279633939266205, -0.03523070365190506, -0.0730612725019455, -0.07714568078517914, 0.08054022490978241, 0.055066030472517014, 0.05282822623848915, -0.10257820785045624, 0.03331686556339264, -0.01359238289296627, 0.009791041724383831, 0.04111137241125107, -0.03817770630121231, 0.03325306624174118, -0.027061622589826584, 0.07338444143533707, -0.10024787485599518, -0.055021338164806366, 0.04325772821903229, -0.01998833194375038, -0.04336251690983772, 0.0944664478302002, 0.03625022619962692, 0.0064920890145003796, 0.034221578389406204, 0.055751342326402664, -0.037737470120191574, -0.022677497938275337, -0.0191811490803957, -0.2149471491575241, -0.11922264844179153, 0.010485909879207611], [-0.08104477822780609, 0.06274965405464172, 0.01429036259651184, 0.024578236043453217, 0.07532646507024765, 0.01220322959125042, 0.08273845911026001, 0.03260728344321251, -0.04860100522637367, -0.33676549792289734, -0.020815515890717506, -0.010398410260677338, -0.07131177186965942, -0.19334207475185394, 0.026484455913305283, 0.018760131672024727, -0.031822703778743744, -0.1882539540529251, 0.10356026887893677, 0.09510679543018341, -0.13488247990608215, 0.17505674064159393, -0.1364826261997223, 0.03188975155353546, 0.14161662757396698, 0.04906695708632469, 0.012170014902949333, 0.23055873811244965, -0.00422870647162199, 0.0030755174811929464, 0.03560096025466919, -0.0704071894288063, -0.029289375990629196, -0.298613041639328, 0.04607304558157921, -0.09679026901721954, -0.015316893346607685, -0.06534987688064575, -0.06343671679496765, -0.02613246999680996, -0.1309303492307663, 0.04899964481592178, 0.06742296367883682, 0.1374528557062149, -0.19339405000209808, 0.09918493032455444, -0.17625966668128967, 0.037210408598184586, -0.2813585698604584, -0.14258506894111633, -0.26544615626335144, 0.025868432596325874, 0.1599903702735901, 0.054597992449998856, 0.0751701220870018, -0.3518432378768921, -0.010930705815553665, -0.017412077635526657, -0.059151094406843185, -0.005477636121213436, -0.08322770893573761, -0.23686416447162628, 0.03757375478744507, 0.13559681177139282], [-0.015952927991747856, -0.03659859672188759, 0.06864722073078156, 0.001564901089295745, 0.1447930485010147, -0.042246755212545395, 0.13887351751327515, 0.003284311154857278, 0.0822499617934227, -0.18107791244983673, -0.00813760980963707, 0.003140827873721719, -0.07852858304977417, -0.23650410771369934, 0.0774960145354271, 0.09596367925405502, -0.0665278211236, -0.19015035033226013, 0.11926258355379105, 0.053222957998514175, -0.17530260980129242, 0.24355953931808472, -0.15023067593574524, 0.05192314833402634, 0.08705313503742218, 0.04123402386903763, -0.0860978290438652, 0.16853658854961395, 0.19208966195583344, 0.00771197397261858, 0.014985762536525726, -0.14653711020946503, 0.014998908154666424, -0.26668432354927063, -0.1129036545753479, 0.0037427498027682304, 0.01460171863436699, 0.02045302279293537, -0.18981923162937164, 0.09977240115404129, -0.22795379161834717, 0.12100387364625931, 0.10645472258329391, -0.03722628951072693, -0.27641552686691284, 0.021521154791116714, -0.14977245032787323, 0.010073671117424965, -0.15344484150409698, -0.00759576540440321, -0.33189472556114197, -0.09531242400407791, 0.09311763197183609, 0.12366798520088196, -0.026242360472679138, -0.23006699979305267, 0.017852727323770523, -0.01530077587813139, 0.02344774641096592, 0.13137641549110413, 0.013897710479795933, -0.17085041105747223, 0.0003099684545304626, 0.22926495969295502], [-0.04337276145815849, 0.030608901754021645, -0.08769892901182175, -0.06182897835969925, -0.012976347468793392, 0.049971021711826324, -0.10544298589229584, -0.0003996693412773311, 0.1483229100704193, 0.06437193602323532, 0.02595493197441101, -0.0381665974855423, 0.0347222238779068, -0.08610711246728897, 0.017757760360836983, -0.05746939778327942, -0.08274474740028381, -0.3617199957370758, -0.2607487738132477, -0.2722899317741394, -0.10928747057914734, -0.11384749412536621, 0.05511884391307831, -0.02335180528461933, -0.14788582921028137, -0.1719113439321518, -0.030059514567255974, -0.07713537663221359, -0.15418678522109985, -0.13698947429656982, -0.07472359389066696, -0.13307222723960876, -0.08539251238107681, -0.03868141770362854, -0.07196711003780365, 0.0997885912656784, -0.09793593734502792, -0.03973962366580963, 0.007746129296720028, 0.1498088240623474, -0.018431145697832108, -0.1606222540140152, -0.08627908676862717, 0.02645702287554741, -0.059039197862148285, 0.08134518563747406, 0.125914067029953, -0.11879811435937881, 0.02673475444316864, -0.11109839379787445, -0.15836592018604279, -0.08965159207582474, -0.12482809275388718, -0.03701893612742424, -0.08216592669487, -0.02120991423726082, 0.04589031636714935, -0.08309223502874374, -0.2289193570613861, -0.08204399794340134, -0.12012818455696106, 0.04287577420473099, -0.036544088274240494, -0.16585491597652435], [0.03802691772580147, -0.0568314790725708, -0.08618982881307602, -0.06675868481397629, -0.06829407811164856, 0.014153172262012959, 0.0022263764403760433, -0.0715850368142128, -0.20243515074253082, -0.11728919297456741, -0.04765569791197777, -0.11976664513349533, 0.036858655512332916, 0.016766833141446114, -0.05830969661474228, 0.06966448575258255, 0.05473136901855469, 0.1565399169921875, 0.03029572404921055, 0.11771243065595627, 0.15195277333259583, 0.03127380460500717, -0.13352163136005402, -0.08408773690462112, -0.01402980461716652, -0.0037945937365293503, -0.04192953184247017, -0.09594117850065231, 0.12473145127296448, -0.05167268589138985, -0.03527345880866051, 0.02890179120004177, 0.01909199170768261, 0.057529810816049576, 0.009052233770489693, -0.10733922570943832, 0.1527141034603119, 0.169071227312088, 0.0986994132399559, -0.195592001080513, 0.12355120480060577, -0.11761640757322311, 0.03463698551058769, -0.1339847296476364, 0.034137528389692307, -0.11857440322637558, -0.010473543778061867, 0.10385768860578537, -0.07175940275192261, -0.004937594290822744, 0.007885914295911789, -0.03766629099845886, -0.19578807055950165, 0.00036339039797894657, -0.006409000139683485, 0.001538823707960546, -0.1139422059059143, 0.03694603592157364, -0.07367710024118423, -0.03345959633588791, 0.08004362136125565, -0.09061914682388306, -0.1656377911567688, 0.11148488521575928], [0.030306391417980194, 0.06511806696653366, 0.008148372173309326, -0.08537767082452774, -0.2259785681962967, -0.12766318023204803, -0.029525864869356155, -0.0210361760109663, -0.20522859692573547, 0.0036568045616149902, -0.12173046171665192, -0.08433795720338821, 0.0545346736907959, -0.032355014234781265, -0.14227356016635895, 0.030818184837698936, -0.00011625056504271924, 0.1831425577402115, -0.05241265520453453, 0.026145176962018013, 0.1892804652452469, -0.09099946916103363, -0.1775044947862625, -0.002046889392659068, -0.033927757292985916, -0.0018875962123274803, 0.04184197634458542, -0.0967586413025856, -0.06580769270658493, -0.0043309535831213, -0.05129542201757431, 0.10193334519863129, -0.11801105737686157, 0.11471312493085861, -0.034605689346790314, 0.03133700415492058, 0.08247128129005432, 0.0763104185461998, 0.17880196869373322, -0.16327634453773499, 0.06593283265829086, 0.0011003130348399282, -0.08499033749103546, -0.023207060992717743, 0.0370950885117054, -0.03960689157247543, -0.050309911370277405, 0.014173220843076706, -0.03840426728129387, -0.12018239498138428, -0.013790725730359554, 0.039591968059539795, -0.01628357544541359, -0.07080236077308655, -0.15261681377887726, 0.05650152638554573, 0.021564146503806114, 0.09758950769901276, -0.06006017327308655, -0.09160375595092773, 0.10116995126008987, -0.17927920818328857, -0.11953920871019363, 0.004562977701425552], [-0.060855068266391754, -0.10552329570055008, 0.08252877742052078, -0.10100444406270981, 0.024818433448672295, 0.06578736752271652, 0.07892617583274841, 0.18232034146785736, -0.0335724800825119, -0.2903837561607361, 0.04246402531862259, 0.010779156349599361, 0.03549860790371895, -0.12170126289129257, -0.09810646623373032, 0.033033814281225204, 0.1568109393119812, -0.06966987252235413, -0.0975542664527893, -0.045862503349781036, -0.1629815399646759, 0.032654352486133575, -0.01830771006643772, -0.04223757982254028, 0.1129264235496521, 0.039236173033714294, 0.2342248558998108, 0.10393666476011276, -0.09550715237855911, -0.005411106627434492, -0.11176414787769318, -0.16656982898712158, -0.005826897919178009, -0.32295453548431396, 0.22419673204421997, -0.01975652202963829, 0.008202476426959038, -0.08001188933849335, -0.01091000996530056, 0.034984659403562546, -0.11126823723316193, 0.05983316898345947, 0.09143300354480743, 0.047794874757528305, -0.005657649599015713, 0.20359815657138824, 0.029279034584760666, 0.03929674252867699, -0.20229463279247284, -0.16741225123405457, -0.10096805542707443, 0.010004289448261261, 0.12839962542057037, 0.031126486137509346, 0.20372982323169708, -0.10845150798559189, -0.06281720101833344, 0.005360684357583523, -0.14172203838825226, -0.06131284311413765, -0.14496028423309326, -0.23116010427474976, 0.0557103231549263, -0.0638444721698761], [0.0447915643453598, -0.0012715932680293918, -0.05624622851610184, 0.039475489407777786, 0.03214077651500702, -0.07547471672296524, 0.06974349170923233, -0.26886671781539917, -0.10351341962814331, -0.10361519455909729, -0.14957478642463684, -0.02748788520693779, -0.06736826151609421, -0.07297193259000778, -0.08503466099500656, 0.026869414374232292, -0.10068909078836441, -0.07160987704992294, 0.07808911800384521, 0.12383903563022614, -0.19565004110336304, 0.17899419367313385, -0.1055273562669754, -0.043404869735240936, 0.14359496533870697, -0.0674721747636795, -0.1759195178747177, 0.10312972962856293, 0.2793497145175934, -0.1949831247329712, 0.0977369025349617, 0.0553663969039917, -0.02217705361545086, -0.10279081016778946, -0.12425050139427185, 0.0901901125907898, 0.08761464059352875, 0.1561359465122223, 0.1661331206560135, 0.15267422795295715, -0.17619623243808746, 0.1986009180545807, 0.09203379601240158, -0.1132832020521164, -0.4003131091594696, -0.35893163084983826, -0.02271600440144539, 0.0003178479091729969, -0.15727369487285614, 0.24896392226219177, -0.27280670404434204, -0.16829663515090942, -0.043270934373140335, 0.04849964752793312, -0.09870537370443344, -0.27341172099113464, -0.033283334225416183, 0.10157547891139984, -0.04648740589618683, 0.15144573152065277, 0.015088762156665325, -0.08979383111000061, 0.014520109631121159, 0.11992938071489334], [0.09191234409809113, 0.020480230450630188, 0.04606625810265541, -0.09663905203342438, -0.15350569784641266, -0.00824726466089487, 0.11379079520702362, -0.2054155021905899, -0.19888746738433838, -0.31139320135116577, -0.15675468742847443, -0.15667352080345154, 0.13651902973651886, 0.22263795137405396, 0.021194199100136757, 0.12175008654594421, -0.28903716802597046, 0.03536631539463997, 0.1249355897307396, -0.08866383135318756, 0.029753901064395905, -0.03125665709376335, 0.026436274871230125, 0.18090908229351044, -0.023729445412755013, 0.23300625383853912, 0.08648128807544708, 0.042638711631298065, 0.09304431825876236, 0.1652439534664154, 0.06813833862543106, 0.07640255242586136, 0.1490873545408249, -0.34228628873825073, 0.10003834962844849, -0.10507260262966156, 0.040972236543893814, 0.12475480139255524, 0.16967499256134033, 0.12261319160461426, 0.05366899445652962, -0.04634536802768707, -0.02865011990070343, -0.11321589350700378, -0.026217544451355934, -0.04207737743854523, -0.1469464898109436, 0.03493700176477432, -0.29946523904800415, 0.18108047544956207, -0.12697188556194305, 0.04782110080122948, 0.12215330451726913, 0.0627472773194313, 0.02645065262913704, -0.08121100068092346, 0.0832814946770668, 0.04696514457464218, 0.01892859674990177, 0.1465836763381958, -0.1508832424879074, -0.1914076805114746, 0.054660625755786896, -0.05875527858734131], [0.01661490648984909, 0.0708831176161766, -0.19566461443901062, -0.116191565990448, -0.18111255764961243, 0.03972994163632393, -0.19123388826847076, -0.20220939815044403, -0.08851461857557297, 0.09099844843149185, -0.17699885368347168, -0.23293974995613098, -0.095006063580513, -0.06699790805578232, 0.12617267668247223, 0.0173542108386755, -0.17068596184253693, 0.11869865655899048, 0.21583160758018494, 0.15818892419338226, 0.12006880342960358, -0.23616966605186462, -0.0590420626103878, 0.03894023597240448, 0.09636779874563217, 0.14195702970027924, 0.039547648280858994, -0.11292113363742828, 0.03201797604560852, 0.1269160807132721, 0.0005580826546065509, 0.11673463881015778, -0.1596234142780304, 0.035178106278181076, -0.053427547216415405, -0.04389471188187599, -0.10391849279403687, -0.02285240963101387, -0.1239757314324379, -0.2140101194381714, 0.0507911741733551, -0.1902020424604416, -0.024717489257454872, 0.1191323921084404, 0.055935341864824295, -0.029753610491752625, -0.002438907278701663, -0.0763431191444397, -0.12031282484531403, -0.3345363736152649, -0.08744387328624725, 0.13755619525909424, -0.20312269032001495, -0.130782350897789, -0.19359643757343292, 0.08965417742729187, -0.029022520408034325, -0.08228664845228195, 0.17440848052501678, -0.0861520990729332, -0.018271872773766518, -0.18807931244373322, 0.06762191653251648, 0.023826755583286285]], [[-0.04325013607740402, -0.03678733482956886, 0.017446694895625114, -0.11979760229587555, -0.0951298400759697, -0.02567252889275551, 0.04318739473819733, 0.0029284805059432983, -0.24949520826339722, -0.0838158056139946, 0.0032829472329467535, 0.10017012804746628, -0.08517374098300934, -0.12280783802270889, -0.050212010741233826, -0.008251427672803402, 0.004176566377282143, -0.01800256408751011, -0.09430041164159775, 0.01821323111653328, -0.01357650849968195, -0.130354106426239, -0.11236897855997086, 0.11614419519901276, -0.04931526258587837, 0.0661093145608902, -0.005631062667816877, 0.06580228358507156, -0.17814289033412933, -0.0721912607550621, -0.04098033532500267, 0.009352829307317734, 0.030841706320643425, 0.12707142531871796, -0.0762711763381958, -0.12647107243537903, -0.0480402335524559, 0.03734976053237915, 0.16317030787467957, 0.02052273042500019, 0.012464313767850399, 0.06898588687181473, -0.07279811054468155, -0.03838268294930458, 0.02127309888601303, 0.12774783372879028, -0.03739285096526146, -0.04214702919125557, -0.01911691389977932, -0.049428194761276245, -0.06447678059339523, 0.013174551539123058, 0.05429147183895111, -0.07521291822195053, 0.015363434329628944, 0.11005625128746033, -0.0868852511048317, -0.007910003885626793, 0.012077603489160538, -0.15410710871219635, 0.08204344660043716, -0.042412981390953064, -0.057012517005205154, -0.10179610550403595], [-0.08610019832849503, 0.11012011766433716, 0.1257651299238205, -0.06468460708856583, -0.037420470267534256, -0.08234935998916626, 0.1305050104856491, -0.005003314930945635, -0.21354132890701294, -0.15178579092025757, 0.02695215493440628, -0.0256242286413908, 0.07106534391641617, 0.05018099397420883, -0.13136905431747437, 0.0712442696094513, 0.06994014978408813, 0.052677951753139496, -0.050376731902360916, -0.002332956064492464, 0.18445655703544617, -0.08616158366203308, -0.10239651799201965, 0.0919298529624939, -0.004679747857153416, 0.0862419605255127, -0.03601204603910446, -0.07902010530233383, -0.049038518220186234, 0.14318355917930603, -0.07150034606456757, 0.11255164444446564, -0.06251144409179688, 0.1764897108078003, -0.0488436259329319, -0.021116992458701134, 0.10492479056119919, 0.07077981531620026, 0.17975696921348572, -0.1496659219264984, 0.0571584589779377, -0.03394876420497894, -0.0371486134827137, -0.11152670532464981, 0.1530410796403885, 0.07475074380636215, 0.048084937036037445, 0.0649816244840622, 0.13430090248584747, -0.15414099395275116, 0.07032519578933716, 0.15471993386745453, 0.021064884960651398, -0.017507335171103477, 0.08183789998292923, 0.06480389833450317, -0.13383139669895172, 0.06609688699245453, -0.031107109040021896, -0.08408122509717941, -0.00962141528725624, -0.050120774656534195, -0.02294503152370453, -0.08687885105609894], [-0.032846372574567795, 0.04845234751701355, -0.012552784755825996, 0.0888809785246849, 0.025697818025946617, -0.10610557347536087, 0.00693104974925518, -0.14321337640285492, -0.21421974897384644, -0.1968398243188858, 0.036115650087594986, -0.0312717966735363, 0.01207873597741127, -0.026970311999320984, 0.11667211353778839, 0.02124125324189663, 0.0920320525765419, 0.11828005313873291, 0.12082193791866302, 0.24113474786281586, -0.022559570148587227, -0.016000522300601006, 0.006192668341100216, -0.04294179007411003, -0.07045644521713257, -0.03132680803537369, -0.1212427094578743, 0.0310037974268198, 0.024393552914261818, -0.02133757621049881, 0.04596878960728645, -0.04441184550523758, 0.04876625910401344, 0.00592653127387166, -0.04579459875822067, -0.2549501657485962, 0.012051060795783997, -0.2999962866306305, -0.1196393296122551, 0.014216023497283459, 0.018849508836865425, 0.04071302339434624, 0.025100678205490112, 0.07912221550941467, 0.03435530513525009, -0.07897073030471802, 0.03978259116411209, -0.06420451402664185, -0.20282582938671112, -0.01302607823163271, 0.062460120767354965, 0.09491576254367828, -0.14862993359565735, 3.248229040764272e-05, -0.20351988077163696, -0.10212010890245438, 0.007920492440462112, 0.007541315630078316, 0.007769904099404812, -0.22610950469970703, 0.13189026713371277, -0.23794759809970856, -0.15788054466247559, 0.11232750862836838], [-0.06054549291729927, 0.12313061207532883, 0.015192846767604351, 0.000908669491764158, -0.04675609618425369, -0.13482004404067993, 0.09183578938245773, -0.0924290269613266, -0.32204321026802063, -0.28777965903282166, -0.0020258231088519096, -0.039539847522974014, 0.04143828898668289, 0.33592015504837036, 0.00937708280980587, 0.06871075928211212, -0.006700731813907623, 0.11763559281826019, 0.01047741062939167, 0.03835996612906456, 0.13106727600097656, 0.11044714599847794, -0.2503334581851959, -0.01310111302882433, -0.22264724969863892, 0.18863819539546967, -0.21478091180324554, -0.11411096155643463, -0.07731175422668457, 0.17546916007995605, 0.02368825674057007, -0.008447501808404922, 0.05185803025960922, 0.03650877997279167, 0.08293082565069199, -0.21444228291511536, 0.2962839603424072, 0.012198776938021183, 0.0745563730597496, -0.15603597462177277, -0.29269227385520935, -0.018395256251096725, -0.10409184545278549, -0.2602483630180359, 0.14925077557563782, 0.03936076909303665, -0.0610707551240921, 0.03600939363241196, 0.151626318693161, -0.08062610030174255, 0.2210538387298584, -0.04594957083463669, -0.1255827397108078, 0.04566614702343941, -0.08846268802881241, 0.02008577436208725, -0.31092920899391174, 0.03228743374347687, -0.19539417326450348, -0.12833011150360107, -0.1995704025030136, -0.3593328595161438, -0.007617991417646408, 0.0427677147090435], [-0.03401012718677521, 0.16200216114521027, 0.19193677604198456, -0.1701413244009018, -0.11450638622045517, -0.1509724259376526, -0.008348274044692516, 0.04525013640522957, -0.13180716335773468, -0.039221834391355515, -0.09051467478275299, -0.0007407673401758075, 0.03915902227163315, -0.18915604054927826, -0.12466605752706528, 0.13926172256469727, 0.020433958619832993, 0.14163653552532196, -0.15224045515060425, 0.07939837872982025, -0.0010603186674416065, -0.24112042784690857, -0.16784898936748505, 0.0127567732706666, -0.03727865591645241, 0.035635579377412796, 0.06274852901697159, 0.05540347844362259, -0.11894194036722183, 0.0456668958067894, -0.11721081286668777, -0.0011418566573411226, -0.05941730737686157, 0.13788524270057678, 0.09967488795518875, -0.053515344858169556, 0.02673841267824173, 0.060934554785490036, 0.16910119354724884, -0.07177674025297165, 0.02971336431801319, -0.07970617711544037, -0.05099312216043472, -0.10053019970655441, 0.1572331190109253, 0.16915106773376465, -0.07029970735311508, 0.04816311597824097, -0.026864949613809586, -0.1494617611169815, 0.04636794701218605, 0.2135496735572815, 0.026674238964915276, 0.10797742009162903, 0.06363973766565323, 0.11161920428276062, -0.01435437798500061, 0.04540856555104256, -0.019885968416929245, -0.062366679310798645, -0.004115681163966656, -0.04610913619399071, -0.024370916187763214, -0.17063432931900024], [0.010907507501542568, -0.019301606342196465, 0.001304463017731905, -0.03444823995232582, -0.3055962026119232, -0.11562491953372955, 0.06199900433421135, -0.05131930112838745, 0.03581354022026062, 0.07459784299135208, -0.1856713742017746, 0.11725403368473053, 0.007592668756842613, 0.13687527179718018, -0.0363767147064209, -0.10621233284473419, -0.03746476769447327, 0.09968101978302002, -0.28347012400627136, -0.03589687496423721, -0.005351204425096512, -0.2694803476333618, -0.23779606819152832, -0.06495389342308044, -0.009430883452296257, 0.08303836733102798, 0.02034967951476574, -0.0742727741599083, -0.02064250037074089, 0.0015382053097710013, -0.01858532987535, 0.05475414916872978, -0.06505273282527924, 0.03281885012984276, 0.07572779804468155, -0.0749194547533989, 0.05648767948150635, -0.14913657307624817, 0.12817823886871338, 0.11679181456565857, -0.002289325464516878, -0.0896473154425621, 0.037044670432806015, 0.05795206129550934, 0.033038023859262466, -0.018919747322797775, 0.03913863003253937, -0.13953536748886108, 0.13332435488700867, -0.053218740969896317, 0.07517744600772858, -0.10655588656663895, -0.09716828912496567, -0.17087288200855255, -0.019142504781484604, 0.17385868728160858, -0.03199862316250801, -0.13813969492912292, 0.008755049668252468, -0.1871374398469925, -0.04893473908305168, -0.025143366307020187, 0.07697131484746933, -0.14790675044059753], [-0.001300883712247014, 0.010834314860403538, 0.1494847536087036, -0.05942999944090843, -0.020909272134304047, -0.14282691478729248, 0.020623834803700447, 0.08644739538431168, -0.30017080903053284, -0.18486078083515167, -0.11177148669958115, 0.024943485856056213, -0.0017778818728402257, 0.011208055540919304, -0.005951429717242718, 0.15390647947788239, -0.08650774508714676, 0.08234638720750809, 0.038944341242313385, 0.08859268575906754, 0.002692978363484144, -0.1421777456998825, -0.0711221694946289, -0.1438639760017395, -0.07393378764390945, 0.13275618851184845, -0.08409817516803741, -0.048325732350349426, 0.013736112974584103, 0.01444179192185402, -0.09181827306747437, 0.1341090202331543, -0.037277985364198685, -0.19515085220336914, 0.08473054319620132, -0.16750065982341766, 0.2761589586734772, 0.1436951607465744, 0.0929591953754425, -0.145572692155838, -0.19830259680747986, 0.02507045678794384, -0.2682933807373047, -0.3624189794063568, 0.06407816708087921, 0.1607801467180252, -0.04216313734650612, -0.0059354109689593315, -0.03647443279623985, 0.1000690758228302, 0.12726888060569763, 0.04286707937717438, -0.09618468582630157, 0.1008245125412941, 0.10918313264846802, -0.06055285781621933, -0.09852531552314758, 0.1346038430929184, -0.022995805367827415, 0.02355564758181572, -0.24323156476020813, -0.2418629676103592, -0.05593087524175644, 0.0445195771753788], [0.00666842982172966, 0.10038985311985016, -0.0732860118150711, 0.004660988226532936, -0.0664185956120491, -0.03125803917646408, 0.01820909045636654, -0.06887923181056976, -0.15941083431243896, -0.11819848418235779, -0.03678097203373909, 0.11555562168359756, -0.10415395349264145, 0.0828959122300148, -0.032789211720228195, 0.05956176295876503, 0.004804176278412342, 0.03275462985038757, -0.0472743883728981, 0.15457160770893097, -0.010222497396171093, -0.03530126065015793, -0.057132311165332794, 0.014842629432678223, 0.0374201238155365, -0.004056225530803204, 0.009774692356586456, 0.06267409771680832, -0.05337551608681679, 0.01433087233453989, -0.016579067334532738, 0.05293155834078789, -0.02944132871925831, 0.12101814895868301, -0.009020043537020683, -0.02494577132165432, 0.07442919164896011, -0.06856189668178558, 0.14204853773117065, 0.04942401871085167, -0.00766763836145401, 0.04749537259340286, -0.014925406314432621, 0.0494895875453949, 0.06575573980808258, -0.0177504513412714, 0.03305674344301224, 0.02811545506119728, 0.03187232092022896, -0.06204734370112419, 0.03332064300775528, -0.010739187709987164, -0.14244039356708527, -0.032820925116539, -0.15525516867637634, 0.03556708246469498, -0.04391287639737129, 0.07707805186510086, 0.04701289162039757, -0.14347489178180695, 0.08323091268539429, -0.1622539609670639, -0.07873407006263733, 0.05991790071129799], [0.023297123610973358, -0.05644948035478592, 0.048244573175907135, -0.09298404306173325, -0.17273607850074768, -0.14314088225364685, 0.12792465090751648, -0.01566374860703945, -0.15186047554016113, -0.11816781759262085, 0.009290076792240143, 0.09699993580579758, -0.011755730956792831, 0.08815793693065643, 0.04708212986588478, -0.00673410901799798, 0.010309082455933094, 0.1454179733991623, -0.02701416239142418, -0.05114445462822914, -0.010414677672088146, -0.20638667047023773, -0.17191627621650696, -0.010200459510087967, -0.049359872937202454, 0.0298454686999321, 0.12287135422229767, 0.03877235949039459, -0.18808703124523163, 0.005234796553850174, -0.06166144460439682, 0.07132219523191452, -0.08264268934726715, 0.06980768591165543, -0.010200909338891506, -0.09485925734043121, 0.017797203734517097, -0.08060290664434433, 0.021724868565797806, -0.011867527849972248, 0.036292802542448044, 0.04218443110585213, -0.04243652522563934, -0.0845491960644722, 0.10062983632087708, 0.04107033461332321, 0.11727802455425262, 0.04099147394299507, 0.06736349314451218, -0.18416357040405273, 0.04712040722370148, 0.1296297162771225, 0.014220397919416428, 0.003930649720132351, -0.09981994330883026, 0.007696801796555519, -0.06037212908267975, 0.08266770094633102, -0.04360193759202957, -0.19929423928260803, 0.10100358724594116, -0.15382607281208038, 0.00040445139165967703, -0.10967781394720078], [-0.02050006575882435, 0.006652047857642174, 0.09074792265892029, -0.1302330493927002, -0.09368586540222168, -0.12100787460803986, 0.15492673218250275, 0.07672037184238434, -0.26982051134109497, -0.025021912530064583, -0.028218882158398628, -0.07245250046253204, 0.07758470624685287, -0.00021341675892472267, -0.08350525051355362, 0.16440744698047638, -0.016954898834228516, 0.12332536280155182, -0.029490649700164795, -0.0032392547000199556, 0.09075440466403961, -0.07416116446256638, -0.1565268486738205, -0.10096827894449234, -0.16535475850105286, 0.08916713297367096, -0.01269548013806343, -0.059684548527002335, -0.08312221616506577, 0.11125563085079193, -0.08188414573669434, 0.13191944360733032, 0.026949623599648476, 0.09608028084039688, 0.04546485096216202, -0.19198746979236603, 0.21753719449043274, 0.09561692178249359, 0.18454408645629883, -0.047560859471559525, -0.025095514953136444, 0.08146432042121887, -0.15181225538253784, -0.13471469283103943, 0.0660286694765091, 0.1469004601240158, -0.06071550026535988, 0.071941077709198, 0.02146456204354763, -0.10554098337888718, 0.14502273499965668, 0.034803181886672974, 0.020638812333345413, 0.07379616051912308, 0.07671357691287994, 0.0375729501247406, -0.21930287778377533, 0.00943024642765522, -0.13417856395244598, 0.07019875198602676, -0.048926517367362976, -0.20013296604156494, -0.012576192617416382, 0.020833587273955345], [0.0016829600790515542, 0.002856649924069643, 0.03504536300897598, -0.039298418909311295, -0.12965479493141174, 0.046833645552396774, -0.0020115964580327272, 0.08957013487815857, -0.2361999750137329, -0.16604404151439667, -0.07721313834190369, 0.06139424070715904, -0.1037934422492981, -0.008453167974948883, 0.05449263006448746, -0.003078459994867444, 0.07912420481443405, 0.052932146936655045, -0.03199002519249916, 0.03246510028839111, -0.0208242479711771, -0.21191726624965668, -0.051699329167604446, 0.15604373812675476, 0.07653304934501648, 0.041059065610170364, 0.08669764548540115, 0.09493527561426163, -0.1258450150489807, -0.0647595226764679, 0.05364741384983063, 0.04451751336455345, 0.012089532800018787, -0.0607474185526371, -0.02545427344739437, 0.01708119362592697, -0.0893370509147644, -0.18061086535453796, 0.035069629549980164, 0.07062584161758423, -0.1487455666065216, 0.001388717326335609, -0.01600770093500614, 0.1347133219242096, 0.0556960254907608, 0.08997593075037003, -0.02096770703792572, -0.026830153539776802, 0.03693574294447899, -0.0066359457559883595, 0.051852691918611526, 0.08693313598632812, 0.014773490838706493, 0.0705469399690628, -0.013894597068428993, 0.03189370781183243, -0.018868954852223396, -0.10756093263626099, 0.11673460900783539, -0.20557574927806854, -0.035635244101285934, -0.033276576548814774, -0.0740753784775734, -0.05328034982085228], [0.03420994058251381, -0.13031095266342163, -0.056718602776527405, 0.04580993205308914, -0.19256918132305145, -0.10537973791360855, -0.12180615216493607, -0.1399059295654297, 0.034216124564409256, 0.21082359552383423, -0.020550087094306946, -0.03918096795678139, -0.09393593668937683, 0.047022607177495956, 0.041990503668785095, 0.019392721354961395, -0.11629932373762131, 0.10954301059246063, -0.053322236984968185, -0.014697249047458172, -0.007754045072942972, -0.04708902910351753, -0.2084721475839615, 0.008379708975553513, -0.013383224606513977, -0.1340292990207672, -0.00822532083839178, -0.04793558269739151, 0.06061035767197609, -0.07223895192146301, 0.04434280842542648, 0.08087421208620071, -0.005631469190120697, 0.09516478329896927, -0.003678196342661977, 0.0442894846200943, -0.12998519837856293, 0.021395612508058548, -0.009928163141012192, -0.0006953640840947628, 0.18745112419128418, -0.06427968293428421, 0.20574302971363068, 0.05403744801878929, -0.07574545592069626, -0.12613613903522491, 0.04027393460273743, -0.07562710344791412, 0.20713946223258972, -0.25047579407691956, -0.11998017132282257, -0.23923173546791077, -0.14375202357769012, -0.18168742954730988, 0.06734564900398254, 0.1280735582113266, -0.15519647300243378, -0.08277259021997452, 0.14254827797412872, -0.09222415089607239, 0.06193917617201805, 0.030324628576636314, 0.04283435642719269, -0.2233976423740387], [-0.025439713150262833, -0.09371054172515869, 0.006523276213556528, -0.2449469268321991, -0.09845953434705734, -0.08779831230640411, -0.12201900780200958, 0.0869859904050827, -0.1088748425245285, 0.1326783001422882, -0.04856901615858078, -0.07488671690225601, -0.014696499332785606, -0.1124117374420166, -0.1265847533941269, 0.0738394483923912, -0.12793442606925964, 0.0727623701095581, -0.03911729156970978, 0.0820668488740921, 0.014210078865289688, -0.27754005789756775, -0.15682382881641388, -0.13315236568450928, -0.029580244794487953, -0.07119012624025345, 0.049365412443876266, 0.02717369794845581, -0.1540626585483551, -0.031978730112314224, -0.07987779378890991, 0.13670657575130463, -0.04807009920477867, 0.17811843752861023, -0.046261243522167206, -0.03490658849477768, -0.13305164873600006, 0.055843107402324677, 0.13907746970653534, -0.3492255210876465, 0.17777511477470398, -0.10281394422054291, -0.005606904625892639, -0.046506136655807495, 0.025386951863765717, 0.1298692226409912, -0.24974194169044495, -0.09477294236421585, -0.05411955714225769, -0.3065345287322998, -0.18835896253585815, -0.051109980791807175, 0.0188119038939476, -0.08491966873407364, 0.18809370696544647, 0.012440708465874195, -0.10021576285362244, 0.031787384301424026, 0.015722554177045822, -0.058328837156295776, 0.1016288474202156, 0.14171841740608215, -0.004776155110448599, -0.21317020058631897], [0.04491271823644638, 0.025951547548174858, -0.029686246067285538, 0.14628534018993378, 0.014444493688642979, -0.05396220088005066, 0.011908186599612236, -0.15909163653850555, -0.15703554451465607, -0.1010088101029396, -0.0631045401096344, -0.028154654428362846, -0.0058568562380969524, 0.03859071433544159, 0.032288506627082825, -0.08457663655281067, -0.010264799930155277, -0.0363088995218277, 0.10965827852487564, 0.19092601537704468, -0.04282691329717636, 0.001989013282582164, 0.09066462516784668, 0.005228529218584299, -0.02422635443508625, 0.001056055654771626, -0.13781973719596863, -0.04928063601255417, -0.021709321066737175, -0.027691971510648727, -0.07086430490016937, -0.005538671277463436, -0.007998417131602764, -0.1401791274547577, -0.28719109296798706, -0.1606069952249527, -0.06102340295910835, -0.2873954772949219, -0.12287914007902145, 0.06802590936422348, -0.08625012636184692, -0.01568734087049961, -0.07297797501087189, 0.07186481356620789, -0.05280317738652229, -0.12114997208118439, -0.09256361424922943, -0.09562338143587112, -0.2058340311050415, -0.001306362682953477, -0.0527602881193161, 0.021957939490675926, 0.022328367456793785, 0.002318250946700573, -0.1444920152425766, -0.08086206018924713, 0.07131929695606232, -0.18546508252620697, 0.15033356845378876, -0.19071470201015472, 0.05066988989710808, -0.18173761665821075, 0.02895117737352848, 0.011492680758237839], [0.021187886595726013, 0.1374383121728897, 0.11769219487905502, -0.07587001472711563, -0.13040822744369507, -0.023293977603316307, 0.018064772710204124, 0.07039640098810196, -0.13225851953029633, -0.2350941300392151, -0.04666825383901596, -0.05353503301739693, 0.07032117992639542, 0.15091627836227417, -0.012797708623111248, 0.12055909633636475, 0.07416762411594391, 0.15876291692256927, -0.0225695688277483, 0.011988735757768154, -0.009182187728583813, -0.15769492089748383, -0.13168857991695404, 0.11061713844537735, 0.0031301137059926987, 0.023673569783568382, 0.0720367357134819, -0.007061101961880922, -0.0827983021736145, -0.008135339245200157, 0.005846886429935694, 0.11003679037094116, -0.08187269419431686, 0.030174564570188522, 0.05996047332882881, -0.07404611259698868, 0.025129077956080437, -0.08886973559856415, 0.1453298181295395, -0.09377394616603851, -0.050942614674568176, 0.07771041244268417, -0.09527464210987091, -0.023915903642773628, 0.08150360733270645, 0.11869509518146515, 0.052160393446683884, 0.023432690650224686, 0.11476419121026993, -0.132384791970253, 0.03679655119776726, 0.06991351395845413, -0.09080292284488678, 0.018908720463514328, 0.019723467528820038, 0.10020695626735687, -0.10895621031522751, -0.008475793525576591, -0.08734890818595886, -0.08358532190322876, 0.06335299462080002, -0.17256036400794983, -0.12769462168216705, -0.059529270976781845], [-0.050798289477825165, 0.0038990024477243423, -0.03580327704548836, 0.031137194484472275, -0.1774502843618393, -0.03699643537402153, 0.0320964977145195, 0.02636737748980522, -0.18799245357513428, -0.08398505300283432, -0.018783902749419212, 0.05045904591679573, -0.02947893552482128, 0.05166440084576607, -0.06576389819383621, 0.05776533484458923, 0.04694659635424614, -0.023553261533379555, -0.10244728624820709, -0.008013429120182991, 0.09842260181903839, -0.12369582802057266, -0.1715109795331955, 0.07586102932691574, -0.018734697252511978, -0.0035875579342246056, -0.05804407596588135, 0.03515007719397545, -0.050641193985939026, -0.022987471893429756, 0.07261727005243301, 0.008647812530398369, -0.06464036554098129, 0.07029294222593307, 0.03500504791736603, -0.015152712352573872, -0.02308208867907524, -0.08810316771268845, 0.1255141943693161, 0.04050281643867493, 0.12694880366325378, -0.013717633672058582, 0.03691376373171806, -0.034111425280570984, 0.020051930099725723, 0.05829176306724548, -0.014004752039909363, 0.062420014292001724, 0.07476626336574554, -0.0604659728705883, -0.02778591215610504, 0.06516820192337036, -0.039115674793720245, 0.004039916209876537, -0.03323466703295708, 0.0968271791934967, -0.06979814171791077, -0.028379196301102638, -0.05914006009697914, -0.1583431214094162, 0.08689256012439728, -0.15057939291000366, -0.10899902135133743, 0.006468567531555891], [-0.04298940300941467, 0.059381186962127686, 0.0772046446800232, -0.108798548579216, -0.2193136066198349, -0.13234713673591614, -0.06713488698005676, 0.031987354159355164, -0.13795816898345947, 0.1394098550081253, -0.08281505107879639, 0.11355533450841904, 0.07598855346441269, 0.03926466032862663, -0.15251702070236206, 0.020680198445916176, 0.017510706558823586, 0.07035867869853973, -0.21447910368442535, 0.020422790199518204, 0.13024687767028809, -0.2131909430027008, -0.14533613622188568, 0.008458733558654785, -0.02733622118830681, -0.0452537015080452, 0.0843384638428688, 0.040672991424798965, -0.04508772864937782, -0.06520687788724899, -0.01290635671466589, 0.05878555029630661, 0.0035318678710609674, 0.07054102420806885, -0.00847622286528349, 0.024308450520038605, -0.07186977565288544, 0.04122443124651909, 0.16466422379016876, -0.0885852500796318, 0.13682882487773895, -0.045829206705093384, 0.06085306778550148, -0.007097199559211731, -0.008069362491369247, 0.051336824893951416, 0.014384958893060684, -0.0566377155482769, 0.0431402362883091, -0.25326022505760193, -0.06968334317207336, 0.12444327771663666, -0.0059100049547851086, -0.05316672474145889, 0.05146247521042824, 0.07888201624155045, -0.03380212187767029, -0.06628922373056412, -0.1469939947128296, -0.06082979962229729, 0.02805202268064022, -0.004366342443972826, -0.05875818803906441, -0.09308265894651413], [0.045871756970882416, 0.0520852655172348, -0.007405131123960018, -0.04201789200305939, -0.124025359749794, -0.12322605401277542, 0.037318065762519836, -0.10116101056337357, -0.17079566419124603, -0.022217823192477226, -0.08351442962884903, 0.05411370471119881, 0.08929411321878433, -0.004428581800311804, 0.0571918785572052, -0.04435151442885399, 0.09172655642032623, 0.1432870477437973, -0.07694821804761887, -0.0048729777336120605, 0.08951054513454437, -0.061930522322654724, -0.11416234076023102, 0.04491157457232475, -0.10207726061344147, 0.0008984486339613795, -0.027419734746217728, 0.04876651242375374, -0.09731531143188477, 0.06461964547634125, -0.09366773068904877, 0.0013411706313490868, -0.011778648011386395, -0.02279527299106121, -0.006477063056081533, -0.04910031333565712, 0.06364524364471436, -0.01543579250574112, 0.03798997774720192, -0.0579458549618721, -0.052334584295749664, 0.11194717884063721, -0.0002202328760176897, -0.04524551331996918, 0.03863237053155899, 0.003483561798930168, 0.07000678032636642, 0.0529930479824543, -0.059547923505306244, -0.037634070962667465, -0.018203340470790863, 0.10363740473985672, 0.08966328203678131, 0.04123367741703987, -0.0012688058195635676, 0.008480699732899666, 0.06418021023273468, -0.062469400465488434, 0.04806981608271599, 0.022548742592334747, -0.01617101952433586, -0.231905996799469, -0.10528124868869781, 0.10797173529863358], [-0.03318750858306885, -0.13025309145450592, -0.007479875814169645, -0.29863157868385315, -0.12297847121953964, -0.05190315097570419, -0.10642086714506149, -0.026842232793569565, -0.0726819783449173, 0.21058034896850586, -0.12534983456134796, -0.10691148042678833, -0.12460138648748398, -0.12690632045269012, -0.02649611420929432, 0.06622433662414551, -0.13412804901599884, -0.055653221905231476, -0.13932833075523376, 0.014586403034627438, -0.05899215489625931, -0.11374346166849136, -0.2611014246940613, -0.015610500238835812, -0.09216654300689697, -0.09693891555070877, -0.1531844437122345, -0.017333859577775, 0.0027654808945953846, -0.10082298517227173, -0.07641097903251648, 0.19151492416858673, -0.03709031268954277, 0.20516586303710938, -0.09476856142282486, 0.10720190405845642, -0.21574419736862183, 0.011418708600103855, 0.15191489458084106, -0.2546280324459076, 0.0997425988316536, 0.02150065451860428, 0.07635028660297394, 0.07361214607954025, -0.06976863741874695, 0.04190298169851303, -0.24946995079517365, -0.08694452792406082, -0.2483835369348526, -0.4410235583782196, -0.33398398756980896, -0.2951602041721344, -0.02937210351228714, -0.029420895501971245, 0.209310844540596, 0.143459752202034, -0.11140884459018707, -0.03614870086312294, 0.029324594885110855, -0.02842853218317032, 0.13783808052539825, 0.09439364820718765, -0.027888279408216476, -0.19843263924121857], [-0.043491050601005554, 0.09010408073663712, -0.12644867599010468, 0.14691300690174103, 0.020230596885085106, -0.07020031660795212, 0.12400752305984497, -0.1031070351600647, -0.1288575530052185, -0.027622578665614128, 0.04479477182030678, 0.024386124685406685, 0.07380349189043045, -0.02919207699596882, 0.16032780706882477, -0.1427242010831833, 0.027300039306282997, -0.01828250288963318, 0.14260442554950714, 0.1188301220536232, -0.03658577427268028, -0.0860695093870163, 0.0231232438236475, 0.12705405056476593, -0.10507398098707199, -0.051919978111982346, -0.04334314167499542, -0.008404198102653027, 0.056227393448352814, 0.12218941003084183, -0.025236301124095917, -0.058880917727947235, 0.04681224748492241, 0.01472454983741045, -0.1235184445977211, -0.14534319937229156, -0.11846894770860672, -0.15051379799842834, -0.2807890474796295, 0.020387275144457817, -0.09148619323968887, 0.2730644643306732, -0.0065162815153598785, 0.0414898581802845, 0.017401481047272682, -0.15020088851451874, -0.12954111397266388, 0.10821421444416046, -0.11468169838190079, -0.047003746032714844, -0.05071035772562027, 0.1599484533071518, 0.06332714855670929, 0.047001373022794724, 0.01565665565431118, -0.11838742345571518, 0.15418671071529388, -0.041064437478780746, 0.13732211291790009, -0.07308744639158249, -0.011657710187137127, -0.10416955500841141, -0.05980020388960838, 0.15332384407520294], [-0.07194968312978745, 0.004455714952200651, -0.18392150104045868, -0.03744734823703766, 0.1593254953622818, 0.021024875342845917, 0.03730003163218498, -0.24700894951820374, 0.015093322843313217, 0.08090942353010178, -0.003109808312729001, -0.18986505270004272, -0.20666411519050598, 0.04983216151595116, -0.10282530635595322, 0.07927637547254562, -0.04158598184585571, -0.21994483470916748, 0.07437831908464432, 0.01303059235215187, -0.08843258768320084, 0.23329438269138336, -0.0688970610499382, -0.0614585317671299, -0.10225073248147964, 0.053697653114795685, -0.16762420535087585, 0.04320833459496498, 0.25405454635620117, 0.013093973509967327, -0.08584551513195038, -0.027137452736496925, -0.14696986973285675, -0.064534030854702, -0.23075349628925323, -0.03348609432578087, 0.057526472955942154, -0.12302619963884354, -0.08414401113986969, 0.028997618705034256, -0.11006782203912735, 0.14699062705039978, 0.042169202119112015, 0.009095525369048119, -0.293178528547287, -0.1999056339263916, -0.003097063861787319, -0.09405767172574997, -0.11954273283481598, 0.010627985000610352, -0.1704818606376648, -0.4015372097492218, -0.16411930322647095, -0.11864675581455231, -0.37639689445495605, -0.09022935479879379, -0.00776452524587512, -0.060610998421907425, 0.011462979950010777, -0.05871023237705231, -0.017219504341483116, -0.009415742009878159, -0.13712407648563385, 0.12933991849422455], [0.029274210333824158, -0.0005497580859810114, 0.15392287075519562, 0.00954391248524189, -0.07887119054794312, -0.10568272322416306, 0.02739383839070797, 0.03263673558831215, -0.1406169980764389, 0.09169069677591324, -0.03276539593935013, 0.028895027935504913, -0.2551424205303192, 0.07581928372383118, 0.02741832286119461, -0.030538910999894142, 0.00024587998632341623, -0.10407231003046036, 0.17722277343273163, 0.20642438530921936, -0.13661827147006989, 0.09639453887939453, -0.0962466448545456, 0.0796520784497261, -0.10766253620386124, 0.006632078904658556, -0.03589726611971855, 0.17081058025360107, 0.1552581638097763, 0.038456350564956665, -0.06987506151199341, -0.19593454897403717, -0.06138157844543457, 0.0008127910550683737, -0.0428573414683342, -0.1517799198627472, -0.031900111585855484, -0.24783502519130707, -0.2018265724182129, -0.09293863922357559, 0.055958643555641174, 0.1225154846906662, 0.10469800233840942, 0.047412022948265076, -0.09542333334684372, -0.12071570754051208, -0.011881773360073566, -0.07309429347515106, -0.15438701212406158, -0.07169666141271591, -0.02608398161828518, -0.0061005642637610435, 0.014282562769949436, 0.04806593060493469, -0.10031716525554657, -0.052834466099739075, 0.04828564077615738, -0.07672637701034546, 0.22511009871959686, -0.18857277929782867, 0.10003967583179474, -0.005621728952974081, -0.06403688341379166, 0.21805621683597565], [0.034093376249074936, -0.06309923529624939, 0.05454705283045769, -0.04836045950651169, -0.032011471688747406, 0.004679310135543346, 0.11895725876092911, 0.03375638276338577, -0.09337173402309418, -0.0900220051407814, -0.11675190925598145, 0.1344812959432602, 0.046718448400497437, 0.06872981786727905, 0.020084792748093605, -0.10186183452606201, 0.06739798933267593, -0.00035797705641016364, 0.06246002018451691, -0.019657986238598824, 0.026449287310242653, -0.05765214562416077, -0.1242109164595604, 0.11277180910110474, 0.09969399869441986, 0.07037699967622757, -0.03906385600566864, -0.0674731507897377, -0.13293512165546417, 0.08639848977327347, -0.03249705955386162, 0.06837652623653412, -0.0036966956686228514, -0.019284939393401146, 0.0296009611338377, -0.0955444797873497, -0.15095312893390656, -0.08824373781681061, 0.13479724526405334, 0.1127399355173111, -0.09123218804597855, -0.021523375064134598, 0.021472414955496788, 0.1085740476846695, -0.002944700187072158, 0.07925049960613251, 0.06545068323612213, 0.00035802635829895735, 0.10533707588911057, -0.011644041165709496, 0.060955315828323364, 0.08470858633518219, 0.006240354850888252, -0.05673058703541756, -0.07409351319074631, 0.0182995293289423, 0.13799338042736053, -0.021864578127861023, 0.08777936547994614, -0.044614750891923904, 0.03559842333197594, -0.14792270958423615, 0.05690089985728264, -0.009086680598556995], [-0.00563460448756814, 0.08319474011659622, 0.014235914684832096, 0.02828965149819851, -0.040774185210466385, 0.0792752206325531, -0.009408123791217804, -0.01347107719630003, -0.27179425954818726, -0.17127500474452972, 0.05151238292455673, 0.03607070818543434, -0.10483766347169876, -0.037610333412885666, 0.03684845566749573, -0.1082284227013588, 0.07763198018074036, -0.11543377488851547, 0.08147507160902023, 0.16027675569057465, 0.009226908907294273, -0.07476379722356796, 0.08815780282020569, 0.010873572900891304, 0.0446346178650856, -0.0810224637389183, -0.08699513226747513, 0.06710672378540039, 0.016624774783849716, -0.0156920924782753, 0.036164700984954834, -0.029653919860720634, -0.01451085228472948, -0.07665035873651505, -0.15070649981498718, -0.09009794145822525, -0.11807864904403687, -0.3167721927165985, -0.018442653119564056, -0.025669125840067863, -0.16034433245658875, 0.018714820966124535, 0.03710996359586716, 0.008091337978839874, -0.12804239988327026, 0.027060318738222122, -0.05216383934020996, 0.05909400433301926, -0.2697852551937103, -0.0717804804444313, -0.09043285250663757, 0.14633512496948242, 0.005340748932212591, -0.02668299898505211, -0.000892203242983669, -0.06080923229455948, 0.11320820450782776, -0.13440203666687012, 0.06889672577381134, -0.3098248839378357, 0.10795068740844727, -0.1800229698419571, -0.1609720140695572, 0.09692884981632233], [-0.07880464941263199, 0.12777769565582275, -0.0901358425617218, 0.001843771431595087, 0.029742924496531487, 0.001623834017664194, 0.09301313012838364, -0.11638198047876358, -0.17323370277881622, 0.014058317989110947, 0.10883723944425583, 0.043483275920152664, -0.015656666830182076, -0.058458827435970306, 0.027785804122686386, 0.028022194281220436, -0.06184588745236397, 0.05589047819375992, 0.1663716435432434, 0.16805057227611542, 0.07215230911970139, 0.0116055803373456, -0.043643515557050705, 0.07904969155788422, -0.06653334200382233, 0.05771666392683983, -0.07766162604093552, 0.18016742169857025, 0.13315413892269135, 0.08732613176107407, -0.062400661408901215, -0.15289966762065887, -0.0549992099404335, -0.05365390703082085, -0.0955873355269432, -0.11450406908988953, 0.09361455589532852, -0.31918758153915405, -0.08359242230653763, -0.003956208471208811, -0.24225756525993347, 0.18967163562774658, 0.1632593721151352, 0.07656840980052948, -0.1144275963306427, -0.16137997806072235, 0.06525454670190811, 0.015605044551193714, -0.19151146709918976, -0.05640682205557823, 0.021703971549868584, -0.013810857199132442, -0.11909104138612747, 0.09081310778856277, -0.09765904396772385, -0.1260644793510437, 0.06369926780462265, 0.01759805530309677, 0.09080606698989868, -0.1873401552438736, -0.03670860454440117, -0.044801902025938034, -0.15149159729480743, 0.18173357844352722], [-0.060985300689935684, -0.14211420714855194, -0.2328931838274002, -0.16901646554470062, -0.11585300415754318, 0.0398096889257431, 0.028601134195923805, -0.0015392620116472244, -0.03969208896160126, -0.019798308610916138, -0.10489193350076675, -0.0140286386013031, 0.09343866258859634, -0.3085497319698334, 0.06650199741125107, -0.0017451300518587232, 0.09331805258989334, -0.4634098708629608, -0.20586492121219635, -0.18278656899929047, -0.07383847236633301, -0.05419518053531647, 0.0907849371433258, -0.15695960819721222, -0.12909816205501556, -0.17620007693767548, -0.07740314304828644, -0.007245982065796852, 0.021345581859350204, -0.18252989649772644, -0.04232775792479515, 0.04104446619749069, -0.028549904003739357, -0.03125321492552757, -0.3249984085559845, 0.06977570056915283, 0.014749201945960522, 0.0407741479575634, -0.12100870907306671, 0.11863742768764496, -0.059282898902893066, -0.18394634127616882, -0.2877848744392395, -0.05981788411736488, -0.14301170408725739, 0.1529189944267273, -0.005371054634451866, 0.0008212331449612975, -0.21340380609035492, 0.08112698793411255, 0.0007888912223279476, 0.02764848805963993, -0.10472612828016281, 0.08860135078430176, -0.08880925923585892, -0.14121539890766144, 0.04590534046292305, -0.06421015411615372, -0.05322367325425148, 0.09370939433574677, -0.19001515209674835, 0.01891194097697735, 0.0004466561658773571, -0.12987850606441498], [0.051094189286231995, -0.04966859146952629, 0.0321568138897419, -0.054349202662706375, -0.22809787094593048, -0.10168559849262238, 0.090708889067173, -0.036628179252147675, -0.105392687022686, -0.07975103706121445, 0.004434483591467142, -0.012584532611072063, -0.06425531208515167, 0.05420377105474472, -0.0018923194147646427, -0.033263299614191055, 0.08260478079319, 0.05128302425146103, -0.040968943387269974, 0.08898308873176575, 0.14415192604064941, -0.0807529017329216, -0.06980634480714798, 0.06949520856142044, 0.046019621193408966, 0.07826244831085205, 0.05681443586945534, -0.030566222965717316, -0.2147560566663742, 0.06898495554924011, -0.08581624925136566, 0.08259360492229462, -0.04030269756913185, 0.0761861652135849, 0.0033868213649839163, 0.021987782791256905, 0.029846252873539925, -0.03686089068651199, 0.16886860132217407, -0.0006574713625013828, 0.016756460070610046, -0.04002731665968895, 0.08956049382686615, -0.08668015897274017, 0.08693165332078934, 0.03866070136427879, -0.0496639683842659, -0.06329675018787384, 0.12051697075366974, -0.17184819281101227, 0.06059746444225311, 0.034739166498184204, -0.1528588980436325, -0.11641009151935577, -0.11619582772254944, 0.18260736763477325, -0.06449197232723236, -0.027370793744921684, -0.10890624672174454, -0.13261516392230988, 0.0731065422296524, -0.08497241139411926, -0.0889577642083168, -0.05708633363246918], [-0.03923235833644867, -0.07983572036027908, 0.03930823132395744, -0.13248313963413239, -0.27683448791503906, -0.2161543369293213, 0.03659316152334213, 0.010118083097040653, -0.14160709083080292, 0.06034839153289795, -0.012701488099992275, 0.15695799887180328, -0.09330423176288605, 0.08995119482278824, 0.015999838709831238, 0.06130736321210861, 0.05457564815878868, 0.09844498336315155, -0.1960323303937912, 0.03922504186630249, 0.05561535432934761, -0.20479992032051086, -0.10731051117181778, -0.04294498264789581, 0.06592397391796112, 0.017767075449228287, 0.10277393460273743, 0.03019457682967186, -0.12633270025253296, 0.003310743486508727, -0.022195398807525635, -0.01741793006658554, -0.07639787346124649, 0.10734543949365616, -0.034532055258750916, -0.044358525425195694, -0.0143278231844306, -0.037631332874298096, 0.1662069708108902, 0.045786671340465546, 0.0758819505572319, -0.015552009455859661, 0.03612743690609932, 0.06708571314811707, -0.015548422001302242, 0.004462270066142082, 0.04749850928783417, -0.036057353019714355, 0.1345214545726776, -0.030211694538593292, -0.025324363261461258, 0.06774087995290756, -0.034288421273231506, -0.09103230386972427, -0.0937252938747406, 0.1504553258419037, 0.06710726767778397, -0.04590809345245361, 0.06654202938079834, -0.07415533810853958, 0.03550367057323456, -0.07611532509326935, 0.04675209894776344, -0.1403484046459198], [-0.008774682879447937, 0.037261996418237686, 0.21752318739891052, 0.09331057220697403, -0.05415463075041771, 0.013445149175822735, 0.07387683540582657, 0.0705254003405571, -0.22240424156188965, -0.06187041848897934, -0.062317635864019394, 0.016709480434656143, -0.10164234042167664, -0.16758672893047333, 0.0992806926369667, -0.06794769316911697, 0.029303554445505142, -0.059422027319669724, 0.0933246985077858, 0.16428439319133759, -0.09897755086421967, -0.06413692235946655, -0.09811446815729141, 0.21522271633148193, 0.005743177141994238, -0.043972279876470566, 0.0523059107363224, 0.13940836489200592, -0.07464365661144257, 0.005012631881982088, 0.001363204326480627, 0.0038428911939263344, -0.015702545642852783, 0.08131307363510132, -0.09559226781129837, 0.015169305726885796, -0.1724613606929779, -0.32634350657463074, 0.03592722490429878, 0.1750767081975937, -0.07480458170175552, 0.01740633137524128, 0.006136935204267502, 0.17650562524795532, 0.086016945540905, 0.18390092253684998, -0.061144862323999405, -0.04700035601854324, -0.09515126794576645, -0.00856479536741972, 0.009929927997291088, 0.10889101028442383, 0.12459775805473328, 0.08805836737155914, 0.1577480137348175, -0.09440058469772339, 0.12351691722869873, -0.10217870026826859, 0.08289119601249695, -0.19130663573741913, 0.0844876691699028, -0.1519584059715271, 0.03233924135565758, -0.019547533243894577], [0.005906933452934027, 0.14456292986869812, -0.004439008422195911, 0.029754992574453354, -0.002046886133030057, 0.00777851790189743, -0.08925854414701462, -0.23076629638671875, -0.16730476915836334, -0.05322869494557381, -0.0018909800564870238, 0.004266803152859211, -0.05926821753382683, 0.21054157614707947, -0.10313283652067184, 0.12256203591823578, -0.04596206918358803, 0.1619630604982376, 0.16453726589679718, 0.19137458503246307, 0.07271453738212585, 0.15516117215156555, -0.083782859146595, -0.11453614383935928, -0.1335255205631256, 0.08135657012462616, -0.10944292694330215, -0.018182825297117233, 0.0872519388794899, 0.09257032722234726, -0.07221285253763199, -0.01950334757566452, 0.007926331833004951, 0.054569538682699203, 0.006148049607872963, -0.24250729382038116, 0.18317976593971252, -0.0764680802822113, 0.02278214320540428, -0.09800557792186737, -0.20899532735347748, 0.20757126808166504, 0.11563964188098907, -0.021580655127763748, -0.01331380195915699, -0.07901111990213394, -0.010719090700149536, -0.10308185964822769, -0.02486252784729004, -0.11104433238506317, -0.027949078008532524, -0.13546374440193176, -0.2606221139431, -0.05042385682463646, -0.20652025938034058, 0.11287455260753632, -0.19479772448539734, -0.009721803478896618, -0.10290501266717911, -0.1989411860704422, -0.02041938528418541, -0.16899186372756958, -0.12030034512281418, 0.12959761917591095], [-0.03513481840491295, 0.1150134950876236, 0.07684849202632904, -0.1329021453857422, -0.2015276402235031, -0.12216438353061676, 0.06388108432292938, 0.049039438366889954, -0.2818422317504883, -0.08971352130174637, -0.015885936096310616, -0.06119523197412491, 0.05597611144185066, 0.006362861022353172, -0.014686799608170986, 0.07153324037790298, 0.0184797290712595, -0.00920640118420124, -0.037878189235925674, 0.08588212728500366, 0.008204270154237747, -0.2325056493282318, -0.016689641401171684, -0.07670152187347412, -0.10813156515359879, -0.0007843122584745288, -0.03684544563293457, -0.032426897436380386, -0.09095656871795654, 0.015143059194087982, -0.03084464743733406, 0.21945449709892273, 0.05145146697759628, -0.1385393738746643, 0.14073199033737183, -0.1239418014883995, 0.18701483309268951, 0.13569073379039764, 0.10077786445617676, 0.00038903323002159595, -0.09022147208452225, -0.004839969798922539, -0.2777502238750458, -0.23843419551849365, 0.15696249902248383, 0.12129327654838562, -0.13750068843364716, 0.02369050867855549, 0.005250913091003895, 0.10090691596269608, 0.24355225265026093, 0.06785465031862259, 0.15109901130199432, 0.10858210921287537, 0.0407264269888401, 0.06568793207406998, -0.04849114641547203, -0.019260842353105545, 0.014317597262561321, 0.16820809245109558, -0.1681709587574005, -0.0947001501917839, -0.08865866810083389, -0.09285426884889603], [0.01903867907822132, 0.022472025826573372, -0.18190179765224457, 0.003439640160650015, -0.18818369507789612, -0.20258572697639465, -0.1906520575284958, -0.10875879973173141, -0.12766779959201813, 0.2468472123146057, 0.0006279823719523847, -0.054514072835445404, -0.12241384387016296, 0.08154898881912231, 0.26405149698257446, 0.07791227847337723, -0.17571742832660675, -0.08019845187664032, -0.10772372782230377, 0.07607706636190414, 0.02521195076406002, -0.12997084856033325, -0.22030162811279297, -0.024800626561045647, 0.06730219721794128, 0.021699458360671997, -0.12586064636707306, -0.008785426616668701, -0.08492384105920792, 0.10032770782709122, 0.06934546679258347, 0.1940261274576187, -0.03224506601691246, 0.08349703252315521, -0.0247128177434206, 0.0006201252108439803, -0.16475175321102142, 0.07223852723836899, 0.10678176581859589, -0.05341975390911102, 0.23668693006038666, -0.04466518014669418, 0.1515519917011261, 0.08699516952037811, -0.12178963422775269, -0.12396934628486633, 0.03828814625740051, 0.058728013187646866, 0.07301177084445953, -0.15670587122440338, -0.11995496600866318, -0.20015054941177368, -0.12217380106449127, -0.060749851167201996, -0.025191333144903183, 0.03753779083490372, 0.06842061132192612, -0.12451647222042084, 0.32798734307289124, -0.12980641424655914, 0.013522112742066383, -0.03425920382142067, 0.13290223479270935, -0.2082638293504715]], [[-0.060183003544807434, -0.08529256284236908, -0.04399873688817024, 0.017079412937164307, -0.06984198838472366, -0.18684916198253632, 0.05835910141468048, 0.04915004223585129, -0.09624585509300232, 0.014756404794752598, -0.13558807969093323, 0.02887541428208351, -0.004761707037687302, 0.027800431475043297, -0.022534625604748726, -0.07822171598672867, 0.08987632393836975, 0.08944012969732285, -0.04256651923060417, 0.08009560406208038, -0.03343788906931877, -0.07343105971813202, 0.0015323723200708628, 0.06944984197616577, 0.030183307826519012, -0.08764798939228058, 0.0634826123714447, 0.05508943647146225, -0.11181469261646271, -0.009172013960778713, 0.10209239274263382, -0.030526015907526016, -0.10968663543462753, 0.19252386689186096, -0.04169263318181038, 0.08483133465051651, -0.1322149783372879, -0.14550098776817322, 0.02770128659904003, 0.1233116015791893, -0.025851117447018623, -0.024835778400301933, -0.0188047606498003, 0.021239984780550003, 0.08427315950393677, -0.13320790231227875, 0.07231714576482773, 0.07911381125450134, -0.04079543426632881, -0.0790364071726799, 0.1213545948266983, 0.11327498406171799, -0.03467788174748421, -0.024659741669893265, 0.01737094856798649, -0.02201724424958229, 0.026528634130954742, -0.1253587007522583, 0.1303098350763321, 0.017869597300887108, 0.0702204778790474, -0.1536695957183838, -0.018533432856202126, -0.08941619098186493], [0.0015641202917322516, 0.0030658149626106024, -0.012562130577862263, -0.03184159845113754, -0.05977175384759903, -0.012973235920071602, 0.04904297739267349, 0.055557239800691605, -0.05360380560159683, 0.0467601902782917, -0.13065384328365326, 0.1518794745206833, -0.0010704614687711, 0.14158591628074646, 0.013645868748426437, -0.04902472719550133, -0.05632348358631134, 0.04900219663977623, -0.090629942715168, -0.012785376980900764, 0.13006705045700073, -0.15086641907691956, -0.06183162331581116, 0.05664578452706337, -0.027103791013360023, 0.02759520523250103, 0.10783865302801132, -0.07237084209918976, -0.1596161425113678, -0.007169873453676701, -0.03601163253188133, 0.05216686800122261, -0.07388683408498764, 0.05249326676130295, -0.0030055814422667027, -0.06432344764471054, -0.08919746428728104, -0.0606713704764843, 0.12109849601984024, 0.0758572593331337, 0.05742982402443886, -0.03762497752904892, 0.00807011779397726, -0.020498277619481087, 0.05432042479515076, 0.03392266482114792, 0.14229153096675873, 0.007569826673716307, 0.1585739552974701, -0.012885739095509052, 0.06446127593517303, -0.0400664322078228, 0.009272069670259953, -0.022814380005002022, 0.0806022509932518, 0.13194945454597473, -0.0781492069363594, 0.0014269687235355377, -0.08804819732904434, -0.09836744517087936, 0.10140444338321686, 0.010370838455855846, 0.09017644822597504, -0.09506399929523468], [-0.007410046178847551, 0.0038933241739869118, -0.13393166661262512, 0.05366223677992821, -0.06678628921508789, -0.024038707837462425, -0.09748236835002899, -0.11456773430109024, -0.08764875680208206, -0.3922344446182251, 0.13761743903160095, 0.20395302772521973, 0.15329453349113464, 0.0913153886795044, 0.10481458157300949, -0.1385924518108368, 0.06528983265161514, 0.19545987248420715, 0.015398849733173847, 0.2190861999988556, 0.12203117460012436, -0.19791477918624878, 0.09774089604616165, -0.16806815564632416, -0.025332896038889885, 0.013014767318964005, -0.10114818066358566, -0.13085022568702698, -0.0435093455016613, -0.10557122528553009, -0.11504341661930084, -0.1460794359445572, 0.05995704233646393, -0.0674295499920845, -0.17333225905895233, -0.08888427913188934, -0.1297224909067154, -0.2317967712879181, -0.2845369875431061, 0.02895551733672619, -0.025331584736704826, 0.15114669501781464, 0.06942804157733917, 0.020404383540153503, -0.16382309794425964, -0.10246532410383224, -0.08996027708053589, 0.06906073540449142, -0.027242252603173256, 0.09494490176439285, -0.0848160833120346, -0.09143245965242386, -0.12168045341968536, 0.022094588726758957, -0.06116488575935364, 0.13138292729854584, 0.03583211451768875, -0.015561189502477646, -0.04733211547136307, -0.10095802694559097, -0.08315541595220566, -0.271910697221756, -0.002023289678618312, -0.0031339917331933975], [-0.06348161399364471, -0.18881508708000183, -0.03521674498915672, -0.10603678971529007, -0.23378805816173553, -0.010021250694990158, -0.06726546585559845, 0.10306669026613235, -0.05523229390382767, -0.20945310592651367, 0.057328592985868454, 0.017434140667319298, -0.07334635406732559, 0.2952111065387726, -0.01264109555631876, 0.2422967255115509, -0.07674627006053925, 0.19631047546863556, -0.03750694915652275, -0.05263253673911095, 0.08942510932683945, -0.1431516855955124, -0.1622513383626938, 0.0392434187233448, -0.1467846781015396, 0.11831402778625488, 0.12262994050979614, -0.151458278298378, -0.12513810396194458, 0.05000290647149086, -0.04579605534672737, -0.13546326756477356, -0.14718133211135864, -0.19193853437900543, 0.18206100165843964, 0.09120155870914459, -0.031168991699814796, -0.3480565547943115, -0.16148903965950012, -0.03885740414261818, 0.03358107805252075, 0.053799863904714584, 0.02725846692919731, -0.24032685160636902, 0.13098670542240143, 0.1109808161854744, 0.07271313667297363, -0.013453192077577114, 0.32083821296691895, 0.023777183145284653, -0.008231663145124912, -0.057057157158851624, 0.10563898086547852, -0.030174681916832924, 0.17068858444690704, 0.12173512578010559, -0.42075881361961365, 0.00733959348872304, -0.05653734877705574, -0.19642142951488495, -0.163914293050766, -0.4143661856651306, 0.2243569791316986, 0.3008343577384949], [-0.08563663810491562, 0.007150663528591394, -0.0053622242994606495, 0.08961541205644608, -0.2058497667312622, -0.148203507065773, 0.22206397354602814, 0.10374819487333298, -0.09970500320196152, 0.13724221289157867, -0.28573110699653625, 0.09223183244466782, 0.04666547104716301, -0.07073124498128891, 0.10131325572729111, -0.030128825455904007, 0.04429449886083603, 0.08092638850212097, -0.178610697388649, 0.0048950896598398685, 0.05528460815548897, -0.14719080924987793, -0.09670884162187576, 0.11273249983787537, 0.13167735934257507, 0.07042913883924484, 0.06486459076404572, 0.06088583543896675, -0.032332535833120346, 0.08898741006851196, 0.09366461634635925, 0.17569586634635925, -0.10660821944475174, 0.18863265216350555, -0.01706484705209732, -0.0606706440448761, -0.14114856719970703, -0.2445937693119049, 0.2870485782623291, 0.0952690988779068, 0.07445104420185089, 0.046285975724458694, 0.005403957329690456, 0.02511833794414997, 0.023237375542521477, 0.013475422747433186, 0.08448692411184311, 0.02322215959429741, -0.01010730117559433, 0.12061509490013123, 0.14186257123947144, 0.07094702124595642, -0.013586437329649925, -0.042147956788539886, -0.04303918778896332, 0.08300777524709702, 0.015852512791752815, -0.04330826178193092, 0.09359096735715866, -0.12950937449932098, 0.23782502114772797, 0.1165863648056984, 0.11188995093107224, -0.06837204843759537], [0.060349345207214355, -0.12273401021957397, 0.04792635515332222, -0.009363694116473198, 0.0909038633108139, -0.35252195596694946, -0.08847972005605698, -0.20792284607887268, 0.07291404157876968, -0.13978655636310577, -0.2443886697292328, 0.16858112812042236, 0.03656921908259392, 0.021256497129797935, 0.0837196484208107, -0.16057679057121277, -0.06638219952583313, -0.0008232267573475838, -0.05155937001109123, 0.012895879335701466, -0.10529927164316177, 0.05029872804880142, -0.15645766258239746, -0.07081431150436401, -0.030125316232442856, -0.14712683856487274, -0.11708267033100128, -0.007594965398311615, -0.0017385679529979825, -0.11635363101959229, -0.01734018139541149, -0.04747076332569122, -0.007503532338887453, 0.19540616869926453, 0.07430297881364822, 0.06166147068142891, 0.006039974745362997, -0.17459948360919952, -0.1896830052137375, 0.12747728824615479, 0.006779213901609182, 0.03148616850376129, 0.16474007070064545, 0.03190497308969498, -0.05966075509786606, -0.0007343494798988104, -0.07420989871025085, -0.0926329493522644, 0.06860647350549698, -0.08446752279996872, -0.03788255900144577, -0.0801967903971672, -0.0008014881168492138, -0.0994066596031189, 0.15999704599380493, 0.05415642261505127, -0.1410951018333435, 0.020716847851872444, -0.012823518365621567, -0.02072817087173462, -0.06528317183256149, -0.19405797123908997, 0.1082226037979126, -0.15930430591106415], [0.022919906303286552, -0.11904659867286682, 0.026998596265912056, -0.08530855178833008, -0.17164194583892822, -0.1659727394580841, 0.11734402924776077, 0.1827416718006134, -0.18060502409934998, -0.07140237092971802, -0.015884138643741608, -0.057980556041002274, 0.0012929484946653247, 0.2676553428173065, 0.005311993882060051, 0.14989717304706573, 0.04081873595714569, 0.054137613624334335, 0.051111191511154175, -0.08052472770214081, 0.09104057401418686, -0.024427838623523712, -0.1705901026725769, 0.11657323688268661, -0.20737943053245544, 0.1250927448272705, 0.13634724915027618, -0.159964919090271, -0.05028478801250458, 0.10258994251489639, -0.09494088590145111, 0.10729628056287766, -0.1668468862771988, -0.12460854649543762, 0.07226306945085526, 0.0586959533393383, 0.0356898196041584, -0.08926579356193542, 0.33094266057014465, -0.020169371739029884, -0.062177881598472595, -0.06305665522813797, -0.0666593611240387, -0.23470835387706757, 0.10074261575937271, 0.09338048845529556, 0.09464504569768906, 0.0706527978181839, 0.20837531983852386, 0.06883513182401657, 0.05002192035317421, 0.03013298101723194, 0.03161004185676575, -0.05396560579538345, -0.02958158776164055, -0.01567736454308033, -0.2330724000930786, 0.08825336396694183, -0.051191654056310654, -0.1002659872174263, -0.13241615891456604, -0.16727519035339355, 0.09431225061416626, 0.10766631364822388], [0.02811049111187458, 0.05437585711479187, 0.038085855543613434, 0.04954572394490242, 0.05500195175409317, -0.08556713908910751, 0.07611589878797531, -0.054616935551166534, -0.10218793898820877, -0.18143463134765625, -0.10350774973630905, 0.027358397841453552, 0.09159544855356216, 0.0869646891951561, -0.014161092229187489, -0.1701667308807373, -0.039634332060813904, -0.014036203734576702, -0.14903026819229126, 0.11021492630243301, -0.019206415861845016, -0.11529216915369034, 0.0004385047359392047, 0.09429342299699783, 0.06653940677642822, 0.05537166818976402, -0.07417343556880951, -0.004017254337668419, -0.03751113638281822, -0.0014421188971027732, -0.044396448880434036, 0.0423334538936615, 0.0026332701090723276, 0.0959029421210289, -0.02419842965900898, -0.04618304222822189, -0.08490632474422455, -0.1204722449183464, -0.02013348788022995, -0.01715112291276455, 0.013142669573426247, 0.040399156510829926, 0.11499947309494019, -0.049099285155534744, -0.12754696607589722, -0.12190568447113037, 0.0083456514403224, 0.01288576889783144, 0.005063177086412907, -0.03224225714802742, 0.04441132768988609, -0.05165755748748779, 0.07453743368387222, -0.06937205791473389, -0.08890914171934128, 0.11678294092416763, 0.09766294807195663, -0.06027789041399956, 0.06217781454324722, -0.04181499406695366, -0.02453763596713543, -0.26368749141693115, 0.09241317212581635, -0.12824000418186188], [0.03276865556836128, 0.0009031693916767836, -0.01594887673854828, -0.0236265379935503, 