[0.03999020531773567, -0.040473878383636475, 0.047928355634212494, -0.03819853439927101, -0.009209449402987957, 0.02838928811252117, 0.03921440616250038, -0.03353818133473396, 0.022688938304781914, -0.049438998103141785]
[-0.08012481033802032, -0.01648620329797268, -0.14049482345581055, 0.07036314904689789, 0.10432059317827225, -0.11216183751821518, 0.03618614003062248, 0.021450025960803032, -0.07416471093893051, -0.1176595389842987]
[0.0014210855588316917, -0.10751749575138092, 0.08076151460409164, 0.12706318497657776, -0.0930381715297699, -0.150473490357399, -0.07789655029773712, -0.06762848794460297, 0.053572800010442734, 0.07704266160726547]
[-0.11684328317642212, -0.035971637815237045, 0.0038544724229723215, 0.03662889450788498, -0.04317242652177811, -0.009378139860928059, -0.03464151546359062, -0.11801034957170486, -0.030527273193001747, -0.03496678173542023]
[0.058037806302309036, -0.0003508311347104609, -0.021640771999955177, 0.05264061689376831, 0.0409121997654438, -0.04852423444390297, 0.02506089024245739, -0.011000857688486576, -0.048554256558418274, -0.08275540173053741]
[-0.06657453626394272, -0.014374279417097569, 0.03818045184016228, 0.046300169080495834, -0.012005598284304142, -0.051822952926158905, -0.14920565485954285, -0.014016980305314064, 0.027549920603632927, -0.06590647250413895]
[0.09127598255872726, 0.022706367075443268, -0.022315112873911858, -0.07818681746721268, -0.030380992218852043, -0.11536845564842224, -0.10740556567907333, -0.07748235762119293, 0.038210876286029816, 0.05524630472064018]
[-0.12513002753257751, -0.019040368497371674, -0.19378556311130524, -0.0064565460197627544, -0.012739540077745914, 0.010738641954958439, 0.008758625015616417, 0.15157900750637054, -0.017130078747868538, 0.09616979211568832]
[-0.03298143669962883, 0.1140936017036438, -0.07671242952346802, -0.045234475284814835, 0.017064731568098068, 0.006985962390899658, -0.027432728558778763, 0.0974772572517395, 0.0035512056201696396, -0.0885937437415123]
[0.03372463583946228, 0.04916296526789665, 0.028736943379044533, -0.012172025628387928, -0.061301104724407196, -0.07701413333415985, -0.0514083057641983, -0.00983382947742939, 0.02595137618482113, 0.01802828535437584]
[-0.0732254832983017, -0.02819150686264038, 0.0020473236218094826, 0.06637422740459442, -0.09333359450101852, -0.015032540075480938, -0.09611578285694122, -0.06752511858940125, 0.047740232199430466, 0.07921435683965683]
[-0.1463550329208374, 0.12446381151676178, 0.1166786402463913, 0.14893656969070435, -0.14606183767318726, -0.29896408319473267, -0.030776694416999817, -0.06459067016839981, -0.1248859316110611, -0.09555482864379883]
[-0.13215301930904388, 0.13606414198875427, 0.09846311062574387, 0.062080055475234985, -0.07917271554470062, -0.1949003040790558, -0.03070932812988758, 0.05463404208421707, -0.06697998195886612, -0.4038045406341553]
[0.012207353487610817, -0.03755701705813408, -0.05197999253869057, -0.0485934317111969, -0.025305159389972687, -0.06523620337247849, 0.08564058691263199, -0.01518556009978056, 0.060953978449106216, -0.015810923650860786]
[-0.10085482895374298, -0.022471949458122253, -0.062183331698179245, 0.08066854625940323, -0.054094720631837845, -0.12618042528629303, 0.04510527849197388, -0.07386107742786407, 0.05274457111954689, 0.019196519628167152]
[-0.07243053615093231, -0.07538509368896484, 0.035752005875110626, -0.0473538301885128, 0.17912134528160095, -0.041541874408721924, -0.005276218988001347, 0.12935756146907806, -0.11297882348299026, -0.17478984594345093]
[-0.12849898636341095, -0.11973697692155838, 0.0052442485466599464, 0.10513132810592651, -0.04707397148013115, -0.16762830317020416, 0.030301477760076523, -0.0548221580684185, -0.06352382153272629, -0.02463291957974434]
[-0.021195415407419205, 0.08527538180351257, -0.01873152144253254, 0.1663115918636322, -0.03598327562212944, -0.12813103199005127, -0.03092537634074688, -0.01357376016676426, -0.030045904219150543, -0.09308861941099167]
[-0.01587199978530407, 0.08725573867559433, -0.13020335137844086, 0.026870112866163254, -0.04112454503774643, -0.0935220867395401, -0.0065177190117537975, 0.012644810602068901, 0.016056768596172333, -0.12299467623233795]
[-0.15715636312961578, 0.06101085618138313, 0.12391391396522522, 0.05892612785100937, -0.1113542690873146, -0.16772015392780304, -0.06559043377637863, -0.007504217326641083, -0.11387355625629425, 0.005323685240000486]
[-0.09813934564590454, 0.01779724843800068, -0.010770355351269245, -0.005714737344533205, 0.07122016698122025, -0.02972995489835739, 0.012926174327731133, 0.1205078735947609, -0.14144520461559296, -0.19462522864341736]
[-0.0014519328251481056, 0.0945487916469574, -0.11718166619539261, -0.013931931927800179, -0.008689342997968197, -0.15243597328662872, -0.03033887967467308, 0.17436128854751587, 0.03935881704092026, -0.0019457601010799408]
[0.0004182258853688836, 0.059364497661590576, -0.008930962532758713, -0.01195098739117384, 0.11412057280540466, -0.009032897651195526, 0.005093432031571865, -0.011234823614358902, 0.04275468364357948, -0.12668007612228394]
[0.2456076443195343, -0.03153447061777115, -0.031526077538728714, 0.011184059083461761, -0.056971218436956406, 0.005423415452241898, -0.18771310150623322, 0.014451603405177593, -0.02641463093459606, 0.007636891677975655]
[0.03287889063358307, -0.10539557039737701, -0.02067629061639309, 0.11944529414176941, -0.003782811341807246, -0.07228732109069824, -0.02706790715456009, 0.002154466463252902, -0.10608108341693878, -0.047774799168109894]
[-0.005397079978138208, 0.019315021112561226, -0.10553859919309616, 0.10086037963628769, 0.0009398760739713907, 0.023464839905500412, -0.009669620543718338, -0.005045295227319002, -0.06979396939277649, -0.3071262538433075]
[0.0633048266172409, 0.09350480139255524, -0.010594760067760944, 0.027294868603348732, -0.026688167825341225, 0.010223953053355217, -0.140705406665802, -0.02237498015165329, 0.013629050925374031, 0.008497345261275768]
[0.10760994255542755, -0.054352227598428726, 0.08467456698417664, 0.06656676530838013, -0.040274277329444885, 0.048098012804985046, -0.060898106545209885, -0.025726312771439552, -0.06893028318881989, -0.069460429251194]
[-0.0385083369910717, 0.012790728360414505, 0.0034970564302057028, 0.04323270916938782, -0.11635549366474152, -0.02216801792383194, 0.1425853967666626, -0.019275754690170288, -0.12312688678503036, -0.0662449300289154]
[-0.15994034707546234, -0.027085741981863976, -0.07770383358001709, 0.020857779309153557, -0.06750386208295822, -0.051099639385938644, 0.09613653272390366, 0.010820349678397179, -0.01762148179113865, -0.1896669566631317]
[-0.05119616538286209, -0.042589813470840454, 0.051281463354825974, 0.09608706831932068, -0.0454045906662941, 0.016092192381620407, -0.019866038113832474, 0.004348757676780224, -0.06970325857400894, -0.0015283108223229647]
[0.10953045636415482, 0.062103211879730225, 0.10569493472576141, -0.04533501714468002, 0.009595664218068123, -0.0278610922396183, -0.09477163106203079, -0.096472829580307, 0.043714553117752075, -0.0630260780453682]
[-0.006174023263156414, -0.2115916758775711, -0.020499998703598976, 0.11126033961772919, 0.0003863410383928567, -0.059299517422914505, -0.039349235594272614, -0.0012378536630421877, 0.04602310061454773, 0.0823197290301323]
[-0.004622031468898058, 0.01168285496532917, -0.019134098663926125, -0.029407039284706116, -0.07079043239355087, -0.06238386780023575, 0.03631415218114853, -0.03665519505739212, 0.01171328779309988, -0.03883959725499153]
[-0.04881598800420761, -0.030648445710539818, 0.04283100366592407, 0.1859629899263382, -0.043118443340063095, -0.11892616003751755, 0.00985157024115324, -0.06771907210350037, -0.020036395639181137, 0.0006028408533893526]
[-0.06329972296953201, 0.014141703024506569, -0.14779405295848846, 0.09470383077859879, -0.009370614774525166, -0.054293811321258545, 0.09332557022571564, -0.034156955778598785, 0.0951666608452797, 0.010602505877614021]
[0.05765707418322563, -0.01775268279016018, 0.03658318892121315, -0.054728034883737564, -0.12282515317201614, 0.04907706379890442, 0.11356759816408157, -0.07415062189102173, 0.024135345593094826, 0.018948150798678398]
[-0.10294009000062943, -0.022277187556028366, -0.01870058663189411, 0.0035899821668863297, 0.02340300753712654, 0.041342925280332565, 0.04524403065443039, -0.07384171336889267, -0.016115669161081314, -0.001289610518142581]
[0.07948517799377441, 0.0153913339599967, -0.1314822882413864, 0.028652392327785492, 0.005181421525776386, 0.028647467494010925, -0.12604214251041412, 0.038775548338890076, 0.06684613227844238, 0.05960403382778168]
[-0.0835057869553566, -0.132020965218544, -0.0827401652932167, -0.03613559529185295, -0.037332043051719666, 0.05286462604999542, 0.11863478273153305, -0.05136260390281677, 0.03644806146621704, -0.09962148219347]
[-0.0097031369805336, -0.021034402772784233, -0.010767491534352303, -0.043684545904397964, -0.06252865493297577, 0.0651128888130188, 0.13234944641590118, -0.046450044959783554, 0.02241917885839939, -0.05179186910390854]
[-0.16861575841903687, 0.0157262422144413, 0.055385950952768326, 0.1466955989599228, -0.049445901066064835, -0.20370124280452728, -0.020683951675891876, -0.013715006411075592, -0.0729396790266037, -0.11239702254533768]
[-0.05164715647697449, 0.0034954766742885113, -0.06588799506425858, -0.026893023401498795, -0.18104501068592072, -0.09376634657382965, 0.15820984542369843, 0.050228558480739594, 0.03623342141509056, 0.014944212511181831]
[0.05948228761553764, -0.009757048450410366, -0.011505101807415485, 0.053644172847270966, 0.023674631491303444, 0.04729508236050606, -0.03099389374256134, -0.09124238789081573, -0.04088790714740753, -0.15627548098564148]
[-0.018150385469198227, -0.04622470960021019, 0.03222035616636276, 0.05817248299717903, -0.049896832555532455, -0.020818635821342468, 0.007861475460231304, -0.016882585361599922, 0.016551481559872627, 0.09434209764003754]
[-0.08347601443529129, -0.013416698202490807, -0.1531965434551239, 0.014711597003042698, -0.014111978933215141, -0.015975752845406532, -0.026540100574493408, 0.06918320059776306, 0.1015828475356102, 0.028651276603341103]
[-0.0630853995680809, 0.09331239014863968, -0.22101083397865295, 0.03680724650621414, 0.10162296891212463, -0.13758255541324615, 0.11940472573041916, 0.020365925505757332, 0.011382002383470535, -0.2263592928647995]
[-0.1962117999792099, 0.046942684799432755, 0.006976127624511719, 0.10149484872817993, -0.007772200275212526, -0.11606702208518982, -0.14948619902133942, 0.03603529557585716, -0.00864146277308464, -0.29398563504219055]
[-0.07591515779495239, -0.0867781937122345, -0.0482555590569973, 0.09541738033294678, -0.08138217777013779, -0.09967374056577682, 0.1568158119916916, -0.012630121782422066, 0.021825497969985008, -0.07269521057605743]
[0.008403898216784, -0.06308817863464355, -0.053148653358221054, -0.040210191160440445, 0.08222918212413788, -0.05940478667616844, 0.10406479984521866, -0.03994433954358101, -0.034148208796978, -0.07322940230369568]
[-0.08009660243988037, 0.0552838034927845, -0.11277251690626144, 0.084389328956604, -0.06478308886289597, -0.11220739036798477, 0.02424606680870056, -0.06731229275465012, 0.009676291607320309, -0.027897603809833527]
[0.051700517535209656, -0.015773789957165718, -0.011171662248671055, 0.06762614101171494, 0.05410401150584221, 0.05862642079591751, -0.10518962144851685, -0.09313957393169403, -0.07440434396266937, 0.015590636059641838]
[-0.11960548162460327, 0.05239815264940262, -0.14820778369903564, 0.11134977638721466, 0.025067638605833054, -0.08243132382631302, -0.11584652215242386, 0.18091970682144165, -0.05936146527528763, -0.08994671702384949]
[-0.05510709807276726, 0.05731308087706566, 0.04073484241962433, 0.042106617242097855, -0.09910479933023453, -0.09596636891365051, -0.02004142291843891, 0.054341867566108704, -0.09129648655653, -0.31216758489608765]
[0.011228789575397968, 0.06990590691566467, -0.08018945902585983, 0.04740549251437187, 0.09155601263046265, -0.11664751917123795, -0.03953924402594566, 0.10079314559698105, -0.03322955593466759, -0.11766035854816437]
[-0.014123097993433475, 0.08096083253622055, 0.056763581931591034, -0.06363938003778458, -0.04043818265199661, -0.13478413224220276, 0.042721256613731384, 0.03195278346538544, 0.006706371903419495, -0.21485713124275208]
[-0.0417589396238327, -0.14056475460529327, -0.027498852461576462, -0.009785215370357037, -0.015826581045985222, 0.04304754361510277, 0.10636584460735321, -0.03369734436273575, -0.057139765471220016, 0.06943950057029724]
[-0.03560154512524605, -0.18080918490886688, 0.0032741473987698555, -0.046058088541030884, 0.03508251532912254, -0.053780317306518555, 0.002064633183181286, 0.019786804914474487, 0.02531404420733452, -0.016531571745872498]
[-0.0548664927482605, -0.14586076140403748, -0.07485812157392502, 0.008214828558266163, -0.1154351457953453, -0.050745271146297455, 0.06429821997880936, -0.07607028633356094, 0.006106249522417784, -0.11682333797216415]
[-0.005680480971932411, -0.1864585280418396, 0.00168109149672091, 0.043789952993392944, -0.055038224905729294, -0.05802402272820473, 0.20620134472846985, -0.04953968524932861, 0.09266721457242966, -0.015146592631936073]
[0.04826793447136879, -0.14237339794635773, 0.024040408432483673, 0.00561156589537859, -0.0036345755215734243, -0.03097451664507389, -0.17458811402320862, -0.051735494285821915, -0.008977601304650307, 0.04713371396064758]
[0.10091913491487503, 0.06055237352848053, -0.05757729709148407, -0.009652928449213505, 0.028180254623293877, -0.010908234864473343, -0.09975133091211319, 0.03899934142827988, -0.010622572153806686, -0.0008288961253128946]
[0.040034521371126175, -0.00023454507754649967, -0.03945600613951683, -0.03730708360671997, -0.0874946117401123, -0.08815119415521622, 0.12724898755550385, 0.01400419045239687, 0.11862670630216599, -0.020546838641166687]
[-0.012908939272165298, 0.12809321284294128, 0.033253926783800125, 0.011418146081268787, -0.009676078334450722, -0.0822918489575386, -0.03324515372514725, 0.0037615543697029352, -0.07261525094509125, -0.023644864559173584]
[0.017177769914269447, -0.0003764917200896889, 0.05099233239889145, 0.005062056705355644, -0.06810377538204193, -0.010125892236828804, -0.005354742519557476, 0.06895779818296432, 0.025384385138750076, 0.01694505475461483]
[-0.11487997323274612, 0.04817533120512962, 0.016976816579699516, 0.08716560900211334, 0.013986987993121147, 0.10962101817131042, -0.10292768478393555, 0.14743487536907196, -0.018475579097867012, -0.22598563134670258]
[0.03197013959288597, -0.04918496683239937, 0.03578123077750206, 0.024254491552710533, -0.1778024435043335, 0.050682127475738525, 0.01674664206802845, 0.07184344530105591, 0.0775890052318573, 0.04708431661128998]
[-0.035531967878341675, -0.1239011138677597, 0.0636102631688118, -0.031139018014073372, -0.061179760843515396, -0.10540494322776794, 0.01677434705197811, -0.08750744163990021, 0.06838147342205048, 0.11601073294878006]
[-0.0045978412963449955, 0.1312776356935501, 0.05764913558959961, -0.05999499559402466, 0.06002276763319969, -0.016506418585777283, -0.08236439526081085, -0.030397964641451836, 0.020520111545920372, -0.10720808804035187]
[0.009956557303667068, -0.014570162631571293, 0.03706891089677811, 0.024340268224477768, -0.1315975934267044, 0.03832032158970833, -0.10162070393562317, 0.009911161847412586, 0.0880364179611206, -0.048903029412031174]
[-0.09934712201356888, -0.23321722447872162, 0.11966251581907272, 0.058594394475221634, -0.06971804797649384, -0.14653633534908295, -0.0422636941075325, -0.21555890142917633, 0.02256435714662075, 0.07562069594860077]
[-0.04101669415831566, -0.011168708093464375, -0.03736281022429466, 0.007247941568493843, -0.0716276466846466, 0.0305623821914196, 0.127848282456398, 0.030461912974715233, -0.025876658037304878, -0.05712863430380821]
[-0.03299630060791969, -0.0012744305422529578, 0.0038331449031829834, 0.05608956515789032, 0.1613730937242508, 0.0011936421506106853, -0.06500077992677689, 0.11288584023714066, -0.052618637681007385, -0.10044169425964355]
[-0.07305439561605453, -0.03251251205801964, -0.04436558857560158, 0.011933468282222748, -0.06148016080260277, -0.05282895267009735, -0.1300540417432785, -0.00913897342979908, 0.011238126084208488, -0.006935331504791975]
[-0.04217647761106491, -0.132743701338768, -0.0021525665652006865, 0.05038329213857651, -0.11057079583406448, -0.06147424876689911, 0.015712246298789978, -0.03281230852007866, 0.024202097207307816, 0.08548970520496368]
[-0.28461092710494995, -0.007327069062739611, 0.14210282266139984, 0.19878365099430084, -0.08607672899961472, -0.2702094614505768, -0.3059607148170471, -0.1304335743188858, -0.03510343283414841, -0.1702972650527954]
[-0.1789766550064087, 0.018354322761297226, 0.02858404628932476, -0.017409076914191246, -0.11287908256053925, -0.06782574206590652, -0.06628535687923431, 0.08807679265737534, 0.019367052242159843, -0.06472297012805939]
[-0.11827468872070312, 0.09028095752000809, 0.03284164145588875, -0.08132607489824295, -0.025394821539521217, 0.03514336794614792, 0.09990791976451874, -0.12356141209602356, -0.05575788393616676, -0.07229851186275482]
[-0.025370921939611435, -0.09564527869224548, 0.0995519757270813, -0.0020145252346992493, -0.014177416451275349, -0.027537815272808075, -0.016831185668706894, -0.16088569164276123, 0.08621958643198013, 0.005958974361419678]
[0.01861053891479969, -0.0778922364115715, -0.13789182901382446, 0.06681940704584122, 0.04666312411427498, -0.028081804513931274, -0.12309157848358154, 0.1636887788772583, -0.18459050357341766, -0.16176731884479523]
[-0.029841778799891472, -0.18039657175540924, 0.21609096229076385, -0.047883760184049606, -0.0915863886475563, -0.0763777568936348, 0.05995791405439377, -0.1007608100771904, -0.09010129421949387, -0.00518394261598587]
[-0.14313505589962006, 0.0004358049191068858, 0.14287161827087402, -0.02386435680091381, -0.20511101186275482, -0.17393027245998383, 0.017915423959493637, -0.1372544914484024, -0.07404611259698868, -0.1427411586046219]
[-0.03542378172278404, 0.010273188352584839, 0.0954703614115715, 0.0359857901930809, 0.05477603152394295, -0.05414914712309837, 0.013106326572597027, 0.02927609533071518, 0.0030538318678736687, -0.09868249297142029]
[-0.17893029749393463, -0.015031535178422928, 0.15710127353668213, 0.07739614695310593, -0.05038338154554367, -0.31570175290107727, -0.05334413796663284, -0.1322619765996933, -0.11327703297138214, -0.25144869089126587]
[-0.21291503310203552, 0.05375250428915024, -0.027354909107089043, 0.024739965796470642, 0.10969642549753189, 0.06889940053224564, -0.1231946274638176, 0.09821252524852753, -0.10843854397535324, -0.3261895775794983]
[-0.05126288905739784, 0.10452874004840851, -0.022392453625798225, 0.06872192025184631, 0.09337101876735687, 0.048664238303899765, -0.09303409606218338, 0.04346800595521927, -0.07147441804409027, -0.07936663180589676]
[-0.0006764231948181987, -0.004942749626934528, 0.057943835854530334, 0.041412774473428726, 0.015555006451904774, -0.03874602168798447, -0.01879347674548626, 0.017575887963175774, 0.03937884047627449, -0.03222772479057312]
[-0.007429157383739948, -0.15849415957927704, 0.039026036858558655, 0.04314744845032692, -0.13771769404411316, -0.005493586882948875, -0.20225642621517181, 0.002449847524985671, 0.13779155910015106, 0.08191940188407898]
[0.09160885214805603, -0.034461215138435364, 0.02262682467699051, -0.014693096280097961, -0.05176197737455368, -0.022432027384638786, 0.015276980586349964, 0.016120806336402893, 0.001994038000702858, -0.02944111078977585]
[-0.12563662230968475, 0.12790560722351074, 0.007473757024854422, 0.027937909588217735, 0.01148186530917883, 0.0691419169306755, -0.028309723362326622, 0.016738662496209145, -0.03427713364362717, -0.18705487251281738]
[-0.07990870624780655, -0.13059909641742706, -0.034350644797086716, 0.054534513503313065, -0.10617084801197052, 0.044474728405475616, -0.07489123940467834, 0.0982651636004448, -0.04474417120218277, -0.057623859494924545]
[0.05907552316784859, -0.09891341626644135, -0.018967105075716972, 0.11578267812728882, 0.023439010605216026, -0.04764540120959282, -0.09708476066589355, 0.05924845114350319, -0.008560416288673878, -0.014297489076852798]
[-0.12978249788284302, -0.024079369381070137, -0.07501421868801117, 0.029965344816446304, 0.13361269235610962, -0.2425224334001541, 0.18819621205329895, 0.04251633211970329, -0.14761148393154144, -0.3928295075893402]
[-0.1147027239203453, 0.19770103693008423, 0.07076101750135422, 0.042233362793922424, -0.03589664399623871, 0.02899208478629589, 0.04533470422029495, -0.1275453418493271, -0.09844805300235748, -0.22249318659305573]
[0.04493439942598343, -0.06879854947328568, -0.019972151145339012, 0.010424432344734669, 0.016818294301629066, 0.033596623688936234, -0.015525845810770988, 0.03914373368024826, -0.05347220599651337, 0.0014811947476118803]
[-0.09585484117269516, -0.16514785587787628, 0.2823231816291809, -0.017034582793712616, -0.06635134667158127, -0.11426991969347, 0.004096521995961666, 0.012439264915883541, -0.08591567724943161, 0.007110499776899815]
[0.04951485991477966, 0.08928008377552032, 0.004812394268810749, 0.025088250637054443, -0.11865375190973282, 0.01768798939883709, -0.04221851006150246, -0.007537477184087038, -0.02044011279940605, 0.05164274200797081]
[-0.04752327501773834, -0.08059056848287582, 0.13102279603481293, 0.08779976516962051, -0.03601754084229469, 0.04528720676898956, -0.13900703191757202, 0.002073421608656645, -0.06568557024002075, -0.04489066079258919]
[0.013575168326497078, -0.05856756865978241, -0.08114822953939438, 0.015024284832179546, -0.16850295662879944, 0.06614749133586884, -0.03831370174884796, -0.03675369918346405, -0.04962138086557388, 0.09895177185535431]
[-0.039579153060913086, -0.03468012809753418, 0.07772737741470337, -0.03979458287358284, -0.001121507491916418, -0.08538330346345901, 0.031819697469472885, -0.043997105211019516, 0.00886530615389347, -0.06522516906261444]
[-0.13234788179397583, -0.017325056716799736, 0.026446720585227013, -0.16809655725955963, -0.03533276170492172, -0.10200723260641098, 0.13034838438034058, 0.006248701363801956, 0.06578885763883591, -0.08733977377414703]
[-0.01117975078523159, 0.076448455452919, -0.028933731839060783, 0.02457520179450512, 0.019275885075330734, -0.01809779740869999, -0.060632895678281784, 0.060468610376119614, 0.03139381855726242, -0.012158307246863842]
[0.00422168942168355, -0.005326113663613796, 0.1293327510356903, 0.015525706112384796, -0.07760405540466309, 0.015626879408955574, -0.07124059647321701, -0.08434844017028809, 0.10487988591194153, 0.011599496006965637]
[0.009155400097370148, 0.11680074036121368, 0.06475260108709335, -0.08717547357082367, 0.012813222594559193, 0.06761795282363892, -0.011667728424072266, 0.04189286381006241, -0.041789326816797256, -0.12228209525346756]
[-0.07541523873806, 0.04507030174136162, 0.09320924431085587, -0.06444534659385681, 0.027475986629724503, 0.047602880746126175, -0.09336113929748535, -0.06758168339729309, 0.03211156278848648, -0.11574679613113403]
[-0.12732206284999847, -0.08863642066717148, 0.12923301756381989, -0.029367567971348763, 0.01334377657622099, -0.05911209061741829, -0.0919354259967804, -0.0943402573466301, 0.013092726469039917, -0.0849522277712822]
[-0.06566332280635834, 0.0036989913787692785, 0.055697161704301834, -0.19799372553825378, -0.10392848402261734, 0.10227266699075699, 0.20370297133922577, -0.02466452680528164, -0.08846507221460342, -0.07691133767366409]
[0.1466040015220642, -0.07631781697273254, 0.060133371502161026, -0.020007021725177765, -0.11030922830104828, 0.020831214264035225, -0.11558203399181366, -0.017595401033759117, 0.025323688983917236, -0.05950576812028885]
[-0.05628637969493866, 0.05185018107295036, -0.032415080815553665, 0.13141177594661713, -0.2213742882013321, 0.014232414774596691, 0.20279189944267273, -0.014437881298363209, 0.02292276732623577, -0.08268656581640244]
[-0.18133433163166046, -0.05721884220838547, -0.1302797794342041, 0.024194354191422462, -0.19118748605251312, 0.052717942744493484, 0.2624850571155548, 0.08865755051374435, 0.04789794981479645, -0.01201495062559843]
[-0.051227305084466934, 0.011743697337806225, 0.028936607763171196, -0.07775245606899261, 0.08384383469820023, 0.10205972194671631, 0.148763969540596, -0.006991706322878599, -0.20852328836917877, -0.21189679205417633]
[-0.10056973993778229, -0.02597116306424141, 0.02186829224228859, 0.11609790474176407, -0.11417725682258606, -0.14022883772850037, -0.07517832517623901, -0.032829344272613525, -0.008329841308295727, 0.03792688250541687]
[-0.04735388979315758, -0.030143028125166893, 0.01921887882053852, -0.03902352228760719, -0.0930490642786026, -0.027589838951826096, 0.20623818039894104, 0.06574154645204544, -0.08131924271583557, 0.07422319054603577]
[-0.029719097539782524, 0.028712736442685127, 0.023360947147011757, -0.06042347475886345, 0.011739371344447136, 0.041383855044841766, 0.029947636649012566, 0.006686133798211813, 0.04958227276802063, -0.0024771459866315126]
[-0.13636861741542816, 0.14905530214309692, -0.030020585283637047, 0.048634666949510574, -0.13656124472618103, 0.0723269134759903, 0.09649482369422913, 0.0035826298408210278, -0.030004257336258888, -0.13694241642951965]
[-0.12575332820415497, -0.020408667623996735, -0.05221023038029671, 0.037994880229234695, -0.16947847604751587, 0.0552372932434082, -0.04942565783858299, 0.05943845957517624, 0.0027238137554377317, 0.03059026040136814]
[0.007269524037837982, 0.1090068593621254, 0.022602666169404984, -0.03045716881752014, 0.016557637602090836, -0.00017031497554853559, -0.03950773924589157, 0.15652215480804443, -0.07364118844270706, -0.09229552000761032]
[-0.05841246619820595, -0.0539865642786026, 0.03179106488823891, -0.05577905476093292, -0.24108266830444336, -0.08190270513296127, -0.030005663633346558, 0.10781223326921463, -0.01523860264569521, 0.11394249647855759]
[0.02961617149412632, 0.034431491047143936, -0.011359285563230515, -0.0021793271880596876, -0.06001408398151398, -0.057211972773075104, -0.05150914192199707, 0.13006120920181274, -0.10698647052049637, -0.03472423180937767]
[-0.10592877864837646, 0.2869589328765869, -0.053929805755615234, 0.05107545852661133, 0.10219383239746094, -0.1500832587480545, -0.18985241651535034, 0.1943274587392807, -0.05690406635403633, -0.31947898864746094]
[0.10683653503656387, -0.03806619718670845, 0.08563260734081268, -0.022760482504963875, -0.11259636282920837, -0.05269576981663704, -0.027635326609015465, 0.013228342868387699, 0.015568080358207226, 0.05213666707277298]
[-0.14106862246990204, -0.06799045205116272, 0.004260818008333445, -0.01952756941318512, -0.08950977027416229, -0.2111354023218155, 0.17948925495147705, -0.09696729481220245, 0.17702998220920563, -0.0381539985537529]
[-0.08828672021627426, -0.22740289568901062, 0.01542886346578598, -0.12415611743927002, 0.013353896327316761, -0.01033585611730814, 0.09681885689496994, -0.03783645108342171, 0.06797676533460617, 0.0724555179476738]
[-0.038062047213315964, 0.012219179421663284, 0.005098369438201189, -0.06622955203056335, -0.01784677430987358, 0.005138322710990906, -0.007928983308374882, 0.022439273074269295, 0.011396856047213078, 0.011152440682053566]
[-0.07545508444309235, -0.14496265351772308, 0.12679046392440796, 0.035938702523708344, -0.04845008626580238, -0.08393368870019913, -0.16064026951789856, -0.009326828643679619, 0.16439497470855713, -0.06035816669464111]
[0.0078705083578825, 0.003632232081145048, 0.008559735491871834, 0.05046100541949272, -0.025459304451942444, 0.0044627743773162365, -0.1362825185060501, 0.0318291038274765, 0.022550439462065697, 0.07137767970561981]
[-0.1467391848564148, 0.08197548985481262, 0.020705988630652428, 0.015385600738227367, 0.07172282785177231, -0.0707455426454544, 0.10606665164232254, -0.06356173008680344, 0.029459085315465927, -0.06920643150806427]
[-0.013495841063559055, 0.029736928641796112, 0.018091319128870964, 0.010282224044203758, -0.11274147778749466, -0.047953758388757706, 0.01508285477757454, 0.04775451496243477, -0.07803697884082794, -0.028536245226860046]
[0.023441245779395103, -0.06116398423910141, -0.007273930124938488, 0.010935272090137005, 0.0003966600343119353, 0.03619014471769333, -0.03149009123444557, 0.03459884226322174, 0.02652103640139103, 0.002847531344741583]
[-0.06963999569416046, 0.02110672928392887, 0.10871728509664536, 0.06397471576929092, 0.09535394608974457, -0.01685158535838127, -0.07122673839330673, -0.03872501105070114, -0.06725220382213593, -0.2606451213359833]
[-0.06864364445209503, -0.025253022089600563, -0.0294161606580019, 0.02201194129884243, -0.22869810461997986, -0.01975063793361187, -0.08413171768188477, -0.012625550851225853, -0.054874975234270096, 0.11687960475683212]
[-0.014898227527737617, -0.06896787881851196, 0.05435321107506752, 0.0450519397854805, -0.21539151668548584, -0.03687647730112076, 0.029290106147527695, -0.04773259907960892, 0.08094988018274307, 0.06528415530920029]
[-0.0033950197976082563, -0.050914470106363297, -0.03734017536044121, -0.012650608085095882, -0.025893935933709145, 0.011154640465974808, -0.10614728927612305, -0.0538380965590477, 0.06672082096338272, 0.0029159619007259607]
[-0.014560529962182045, -0.11615876108407974, 0.02224847674369812, 0.1000421792268753, -0.09681399911642075, 0.011734968982636929, -0.15248167514801025, 0.006305553950369358, -0.00935416854918003, 0.0880737155675888]
[0.02102884091436863, 0.12695012986660004, 0.004714175593107939, -0.13220486044883728, -0.2927131652832031, 0.006224544253200293, -0.04420505091547966, -0.1680033802986145, 0.03140368312597275, -0.018757935613393784]
[-0.008114418014883995, 0.07950443774461746, 0.022462377324700356, -0.06741861253976822, 0.05891682952642441, 0.014927801676094532, 0.08419323712587357, -0.04051995649933815, -0.08221084624528885, -0.2164076864719391]
[-0.010901577770709991, -0.05168408155441284, 0.04447661712765694, 0.06585603952407837, -0.03928929939866066, -0.004868473391979933, -0.1547607183456421, 0.059814270585775375, 0.014076483435928822, -0.008943678811192513]
[0.016780083999037743, 0.04632236436009407, -0.07388753443956375, 0.026001375168561935, -0.09156602621078491, -0.0701904147863388, -0.11601094156503677, 0.052873674780130386, 0.022479787468910217, 0.059368591755628586]
[-0.05106319114565849, -0.1061670109629631, 0.04051227495074272, 0.012381508015096188, -0.0860138088464737, 0.006540532223880291, -0.0159743744879961, -0.0722704827785492, 0.05402764305472374, 0.052905116230249405]
[-0.08163582533597946, -0.15390415489673615, 0.02101740427315235, 0.2661047875881195, -0.038811493664979935, -0.2847440242767334, -0.10478755831718445, -0.14096644520759583, 0.029730403795838356, 0.05632190778851509]
[-0.05596687272191048, -0.029420429840683937, 0.07104723900556564, 0.028407543897628784, -0.16296294331550598, -0.036281656473875046, 0.05841360241174698, -0.001645695068873465, -0.013970889151096344, -0.04922591522336006]
[0.044710852205753326, 0.19787080585956573, -0.01809091493487358, 0.010303179733455181, 0.014643865637481213, 0.09169555455446243, 0.04465584084391594, -0.11912725120782852, -0.09786806255578995, -0.10481004416942596]
[-0.021145088598132133, 0.06901372969150543, 0.08616255223751068, -0.08766548335552216, -0.09101638197898865, 0.0068206689320504665, -0.03267282992601395, -0.033845048397779465, 0.005032029002904892, -0.028612308204174042]
[-0.15140831470489502, -0.19924429059028625, -0.03278789296746254, 0.09961478412151337, 0.05826449394226074, 0.15437714755535126, -0.023347720503807068, 0.08650122582912445, -0.1793166846036911, 0.009547566063702106]
[-0.08846903592348099, -0.06061210483312607, 0.12519586086273193, -0.1012304350733757, 0.0017243963666260242, 0.07253143936395645, -0.04282352328300476, -0.09717270731925964, -0.00775796826928854, 0.034393612295389175]
[-0.13425478339195251, -0.02929842472076416, 0.239040806889534, 0.014806128107011318, -0.13749651610851288, -0.09802655875682831, -0.05931348353624344, -0.11921542882919312, -0.007342786528170109, -0.14123503863811493]
[0.09171849489212036, -0.06824523955583572, 0.019473470747470856, 0.037361133843660355, -0.09001226723194122, -0.055608417838811874, -0.039213694632053375, 0.07584992051124573, -0.018811069428920746, 0.057960521429777145]
[0.016735684126615524, -0.06290840357542038, 0.03428748995065689, -0.004330286756157875, -0.07525896281003952, 0.06656922399997711, -0.05366726964712143, 0.0400356762111187, -0.04351054131984711, 0.016024595126509666]
[-0.07780849933624268, 0.09548909962177277, -0.02981438674032688, 0.10343436896800995, 0.12950503826141357, -0.18559665977954865, -0.15218797326087952, 0.10712064057588577, -0.06013458967208862, -0.3022904098033905]
[-0.060501132160425186, -0.01941811852157116, 0.006227622739970684, 0.03963637724518776, 0.006168665364384651, -0.09166069328784943, -0.07920391857624054, 0.055937156081199646, 0.012714442797005177, 0.024927139282226562]
[-0.054300401359796524, 0.05549953877925873, -0.007302557583898306, 0.03339765593409538, 0.041873764246702194, -0.03190353512763977, 0.056119874119758606, -0.07646629214286804, 0.011181497015058994, -0.0006230432773008943]
[-0.027949046343564987, -0.1434028446674347, -0.0853787288069725, 0.06844388693571091, -0.008185628801584244, 0.03845350071787834, -0.06656450778245926, 0.03771442547440529, 0.059870779514312744, 0.13275615870952606]
[-0.02899453043937683, 0.04536907374858856, -0.08892866224050522, -0.039128076285123825, -0.06024151295423508, 0.020875347778201103, -0.09822531789541245, 0.011100750416517258, -0.016341179609298706, -0.02487836591899395]
[-0.07646995782852173, 0.07728902250528336, 0.14243565499782562, 0.020446961745619774, 0.0341765396296978, -0.1418079435825348, -0.10280703753232956, 0.0031347284093499184, 0.0040985289961099625, -0.08757872879505157]
[-0.08160237967967987, 0.0485377237200737, -0.03127458691596985, 0.09595594555139542, -0.028101114556193352, -0.05788643658161163, 0.0766797736287117, -0.11690029501914978, -0.05161701887845993, 0.07239460200071335]
[-0.038921866565942764, -0.038763377815485, -0.08796793222427368, 0.07245361804962158, -0.1756160706281662, 0.03827231749892235, -0.14421597123146057, 0.03815707191824913, 0.0670819878578186, 0.09221070259809494]
[-0.17230315506458282, 0.14268852770328522, 0.1240118145942688, 0.014128812588751316, 0.2530122697353363, -0.2781197726726532, 0.1656457483768463, -0.19769641757011414, -0.09884726256132126, -0.2524698078632355]
[-0.13626796007156372, 0.09757731109857559, 0.11265849322080612, 0.07407352328300476, 0.068235844373703, -0.10218459367752075, -0.06980608403682709, 0.0006911758682690561, -0.006054284982383251, -0.060993947088718414]
[0.02171942964196205, -0.06488297134637833, 0.03834778070449829, 0.05220981687307358, 0.01392615120857954, -0.046377237886190414, -0.005881694611161947, -0.07320009917020798, -0.018717540428042412, 0.00767137948423624]
[-0.010273266583681107, -0.09926676750183105, 0.2675846815109253, -0.08736391365528107, -0.2959214746952057, -0.05389838293194771, 0.15583547949790955, 0.052178069949150085, -0.1310867816209793, -0.14331455528736115]
[-0.0017139215487986803, -0.007285227533429861, -0.019743822515010834, 0.04567723721265793, -0.17330433428287506, 0.009256002493202686, 0.012949882075190544, -0.014014976099133492, 0.03410641476511955, 0.03996635600924492]
[-0.07881376892328262, -0.2550326883792877, 0.05025351792573929, 0.11239559948444366, -0.1270245611667633, -0.060092296451330185, -0.22523687779903412, -0.04677550122141838, -0.014569672755897045, 0.13090333342552185]
[-0.03960378095507622, -0.03303264454007149, -0.016796816140413284, 0.09193647652864456, -0.2000878006219864, 0.04422894865274429, -0.17581138014793396, -0.012144751846790314, -0.04949459061026573, 0.036867834627628326]
[0.02586711384356022, 0.024651041254401207, 0.020655138418078423, -0.19192159175872803, 0.1763201206922531, -0.00924832746386528, 0.0844670757651329, -0.10269175469875336, 0.05538534000515938, -0.14062534272670746]
[-0.29347094893455505, 0.0593387708067894, -0.11722587794065475, -0.1431831568479538, 0.15302105247974396, -0.10702729970216751, 0.30790287256240845, -0.24944104254245758, -0.04731569439172745, -0.3099268078804016]
[0.041833117604255676, 0.1555759757757187, -0.11141595989465714, -0.137755885720253, 0.16034743189811707, 0.034347955137491226, 0.16492292284965515, -0.2839839458465576, 0.036147862672805786, -0.09025955200195312]
[-0.006027381867170334, 0.10409148037433624, 0.13560642302036285, -0.20056065917015076, -0.11331062763929367, -0.021463727578520775, 0.13050149381160736, -0.2219925820827484, -0.0004817130393348634, 0.11294626444578171]
[-0.05015309900045395, 0.07489597797393799, -0.026784200221300125, -0.019374601542949677, 0.09761042892932892, 0.03204146400094032, 0.07727367430925369, -0.10051238536834717, -0.06322278827428818, -0.11402006447315216]
[-0.18313665688037872, -0.14046335220336914, 0.3041340410709381, 0.05009644478559494, -0.09739221632480621, -0.09990905225276947, -0.07980944216251373, -0.231198251247406, -0.11080093681812286, -0.27255845069885254]
[-0.06157497316598892, 0.006239145994186401, -0.017355769872665405, -0.039257943630218506, 0.0018984860507771373, 0.02704313024878502, -0.16102334856987, 0.03640475869178772, 0.05864302068948746, 0.0631742998957634]
[-0.14440478384494781, -0.007607470266520977, 0.09859964996576309, -0.017639631405472755, 0.08640722185373306, 0.02890859916806221, 0.0154680535197258, -0.35057809948921204, -0.04113762453198433, -0.16824880242347717]
[-0.04274005442857742, 0.006408633664250374, 0.025030994787812233, 0.0812421590089798, -0.1779610812664032, -0.051331162452697754, -0.08353471755981445, -0.023088837042450905, 0.01599796861410141, 0.05359930172562599]
[-0.15347227454185486, 0.08895956724882126, -0.10352369397878647, 0.06618066132068634, -0.026413891464471817, 0.024112369865179062, 0.10124450922012329, -0.0026564421132206917, -0.11386874318122864, -0.05887826159596443]
[-0.08569003641605377, 0.20504648983478546, -0.012868940830230713, -0.12025211751461029, 0.14241814613342285, -0.00219108653254807, 0.12699252367019653, -0.19155582785606384, -0.07502436637878418, 0.07534067332744598]
[-0.12717948853969574, 0.1598343700170517, -0.07793780416250229, -0.04689187556505203, 0.14425666630268097, 0.07862231880426407, 0.006421977654099464, -0.10934600979089737, -0.022761043161153793, -0.3840329051017761]
[-0.0725526511669159, -0.08114281296730042, -0.04369770362973213, 0.024309642612934113, -0.1325477659702301, 0.007246268447488546, -0.10130660235881805, 0.18694496154785156, 0.09673549979925156, 0.056501518934965134]
[-0.03715415298938751, 0.08619023859500885, -0.09009897708892822, -0.04108607769012451, 0.010336324572563171, 0.013513789512217045, 0.12668012082576752, -0.20126350224018097, 0.010187427513301373, -0.004375922027975321]
[-0.032867468893527985, 0.15043136477470398, 0.019564520567655563, -0.05665767565369606, 0.08188312500715256, 0.04313061013817787, 0.038627613335847855, -0.14181794226169586, -0.05575574189424515, -0.1318691223859787]
[-0.139528289437294, 0.09800339490175247, -0.1145392507314682, -0.011989850550889969, 0.0025498459581285715, 0.08313240110874176, 0.10522259771823883, 0.1067369282245636, -0.09118080884218216, -0.16048727929592133]
[-0.01069363858550787, -0.08802524954080582, -0.015042098239064217, 0.12983712553977966, -0.1391097456216812, 0.029828989878296852, -0.1264609694480896, 0.0431748703122139, -0.0018221280770376325, 0.07158060371875763]
[-0.048788320273160934, 0.026632772758603096, -0.031071361154317856, 0.019931642338633537, 0.013059441931545734, -0.03954249247908592, -0.014132162556052208, 0.006395096890628338, -0.12434356659650803, 0.01178366132080555]
[-0.08929194509983063, -0.06166917830705643, -0.018924390897154808, 0.0220828577876091, -0.33963072299957275, -0.04680892080068588, -0.08101347088813782, -0.027195168659090996, -0.015267480164766312, 0.06171974539756775]
[-0.01761149801313877, -0.0002064311265712604, -0.03522995486855507, 0.05085545405745506, -0.039647456258535385, -0.03781973943114281, 0.031654663383960724, 0.03196221590042114, -0.07669206708669662, 0.05490293353796005]
[-0.022656766697764397, 0.16128666698932648, 0.006003128830343485, 0.1809074878692627, 0.1470935046672821, -0.23171012103557587, -0.06819528341293335, 0.047387197613716125, -0.08534091711044312, -0.2577734589576721]
[0.04828217998147011, 0.022642316296696663, 0.10952059924602509, 0.01881999708712101, -0.013250994496047497, -0.019867785274982452, 0.02973249927163124, -0.26468461751937866, -0.005286571569740772, -0.009589600376784801]
[-0.17293089628219604, 0.205971822142601, 0.028392817825078964, -0.2113194763660431, 0.18852920830249786, -0.003663641633465886, 0.2644089162349701, -0.29882511496543884, -0.20718896389007568, -0.14335471391677856]
[-0.005717838183045387, -0.07778657972812653, -1.848897591116838e-05, -0.027440831065177917, -0.05822480842471123, -0.007578176911920309, -0.021535588428378105, -0.035005006939172745, 0.0229476448148489, 0.014942565932869911]
[-0.06420568376779556, 0.09840138256549835, -0.08895285427570343, -0.17091673612594604, 0.16053591668605804, 0.06648533046245575, 0.09760710597038269, -0.23767222464084625, -0.014133816584944725, -0.013864646665751934]
[-0.05418628454208374, -0.12123405188322067, 0.07112471759319305, 0.035788457840681076, -0.04241708293557167, -0.012963092885911465, -0.12112820148468018, -0.07382392138242722, -0.039932526648044586, 0.06485314667224884]
[-0.010421965271234512, 0.033572275191545486, -0.02287214808166027, 0.03590559586882591, -0.01399645209312439, 0.00916912592947483, -0.06779585033655167, 0.00990766379982233, -0.005945837125182152, 0.055801015347242355]
[-0.0025318125262856483, 0.11282139271497726, 0.026663778349757195, -0.01578551158308983, 0.005403725430369377, -0.07105349749326706, 0.05438247695565224, -0.18517711758613586, 0.03278640657663345, -0.09517886489629745]
[-0.09117700904607773, -0.044185515493154526, 0.057605575770139694, -0.029218550771474838, -0.15886424481868744, -0.08951172232627869, -0.009144114330410957, 0.010580064728856087, 0.0718463584780693, 0.09237904846668243]
[0.050127334892749786, -0.05046470835804939, 0.0120678236708045, -0.03352827951312065, 0.02569359354674816, -0.031597111374139786, 0.037754397839307785, -0.04598645120859146, 0.04368855804204941, -0.03427521884441376]
[0.0015325722051784396, 0.007805193308740854, 0.15947680175304413, -0.040723733603954315, 0.15616929531097412, -0.04099918156862259, -0.0704529881477356, -0.08668412268161774, -0.06466652452945709, -0.1294959932565689]
[-0.06712928414344788, -0.004161414690315723, 0.03754682093858719, -0.003119988599792123, -0.2591724991798401, 0.056665029376745224, -0.04226543381810188, 0.03368348255753517, 0.0407361164689064, 0.14919723570346832]
[0.0038104236591607332, -0.06559806317090988, 0.04267578572034836, 0.007370894309133291, -0.1551239937543869, 0.05469346418976784, 0.021249957382678986, -0.11261188983917236, 0.042352769523859024, 0.10123468190431595]
[-0.09228435158729553, -0.11379503458738327, 0.019312674179673195, 0.10674332827329636, -0.2114522010087967, 0.013517377898097038, -0.025188876315951347, 0.03836555406451225, 0.0955033004283905, 0.05573133006691933]
[0.008510027080774307, -0.1038498803973198, 0.05343281477689743, 0.017303166911005974, -0.18601061403751373, 0.008922738954424858, -0.034914612770080566, 0.006838629953563213, 0.06553062796592712, 0.09564189612865448]
[-0.1458178609609604, 0.0321091003715992, -0.2414964884519577, -0.10474587976932526, -0.025404807180166245, 0.17148639261722565, -0.023638052865862846, -0.009076312184333801, 0.016888542100787163, -0.02513527125120163]
[-0.04364131763577461, 0.061603955924510956, -0.012844610027968884, 0.021362975239753723, 0.05283370614051819, 0.010786444880068302, -0.012269504368305206, -0.06464026123285294, 0.031127046793699265, -0.07801011949777603]
[0.06881104409694672, 0.043469492346048355, 0.0194192323833704, 0.000872227712534368, -0.05912185460329056, 0.0016841762699186802, -0.10947699844837189, 0.014000444673001766, 0.005467993672937155, 0.009939687326550484]
[0.048928409814834595, -0.059195857495069504, -0.054884351789951324, 0.007811130490154028, -0.006761685013771057, 0.029297221451997757, -0.05385061725974083, -0.009632322937250137, 0.018580958247184753, 0.06403932720422745]
[-0.042792193591594696, 0.036293771117925644, 0.007196513470262289, -0.04262573644518852, -0.06129360571503639, -0.03501768410205841, -0.005635400302708149, -0.11683883517980576, 0.05361054837703705, 0.03143997862935066]
[-0.06761448085308075, -0.15251801908016205, -0.015186705626547337, 0.1795656830072403, -0.09201330691576004, 0.0012007961049675941, -0.021527616307139397, -0.12127915024757385, -0.03910510987043381, 0.03298132121562958]
[-0.055312879383563995, -0.04009375721216202, 0.02810937911272049, 0.027626032009720802, -0.08509491384029388, 0.14051203429698944, 0.04893716424703598, -0.1266561895608902, 0.0425301156938076, -0.14493222534656525]
[-0.037082020193338394, 0.08437975496053696, 0.015678025782108307, -0.00468291062861681, 0.08466757833957672, 0.09704016894102097, 0.004588714800775051, -0.14097891747951508, 0.08326653391122818, -0.06942640244960785]
[0.08435750752687454, 0.002036960329860449, -0.08432953804731369, -0.026063106954097748, 0.021628569811582565, 0.019487414509058, 0.02756747417151928, -0.1233060285449028, -0.007975484244525433, -0.08280966430902481]
[-0.08091460913419724, -0.09602613747119904, -0.1436460167169571, 0.10879064351320267, -0.014303783886134624, 0.02468857355415821, -0.048374075442552567, -0.0025232909247279167, -0.05097895488142967, 0.189540833234787]
[0.029285630211234093, -0.038291048258543015, -0.10299720615148544, 0.05194132402539253, -0.1994435042142868, -0.04600321501493454, 0.13092422485351562, -0.10548903793096542, 0.10324500501155853, -0.0055669876746833324]
[-0.051563672721385956, -0.0666055902838707, 0.09066931903362274, 0.02479272522032261, -0.03436845541000366, -0.08207407593727112, 0.030436642467975616, -0.04940873757004738, -0.05454076826572418, -0.04330672696232796]
[0.03996698930859566, 0.008025546558201313, 0.039648160338401794, 0.030745023861527443, -0.07059308886528015, -0.049634259194135666, 0.06322440505027771, 0.027428897097706795, 0.04885246232151985, 0.05524946376681328]
[-0.006560144480317831, -0.0232890285551548, -0.018359355628490448, 0.010193814523518085, -0.11407288908958435, 0.06264335662126541, -0.032085347920656204, -0.02289486862719059, -0.04669031500816345, 0.02258691005408764]
[0.017349211499094963, -0.09451338648796082, 0.1113516166806221, 0.18860922753810883, 0.007455785758793354, -0.05683333799242973, -0.06981795281171799, -0.1858491450548172, -0.11481507867574692, 0.025442926213145256]
[0.03273124247789383, -0.01980721205472946, 0.004839073866605759, -0.007397892884910107, -0.06999944895505905, -0.010289795696735382, -0.05231710150837898, 0.05989602953195572, -0.023010140284895897, 0.08976969867944717]
[0.02680453658103943, 0.08518655598163605, -0.07648631185293198, -0.033750977367162704, 0.028760360553860664, 0.005684324074536562, -0.02632203698158264, -0.03053753264248371, -0.0258922316133976, -0.0027994546107947826]
[-0.10015310347080231, -0.06768081337213516, -0.13515765964984894, -0.08998521417379379, -0.013877115212380886, 0.05785255506634712, -0.08878856897354126, -0.00908834207803011, -0.00024394069623667747, 0.06099233776330948]
[-0.06749246269464493, 0.01699833944439888, -0.08026017248630524, 0.046758946031332016, -0.05573562905192375, 0.041894152760505676, 0.032230183482170105, 0.011628116481006145, -0.06381342560052872, 0.08160582929849625]
[0.018219484016299248, -0.08796293288469315, 0.08548960834741592, 0.0693833976984024, -0.04847116023302078, -0.007978139445185661, -0.009712628088891506, -0.08001869916915894, -0.004003267735242844, -0.0926337018609047]
[-0.03076975792646408, 0.025215309113264084, -0.0278243999928236, -0.012299071997404099, -0.17359016835689545, -0.04123752936720848, 0.0808149129152298, -0.05076093599200249, 0.09068666398525238, 0.022450348362326622]
[-0.055829279124736786, -0.18563099205493927, -0.10784582048654556, 0.04027758166193962, -0.007567476015537977, 0.10559744387865067, -0.19562669098377228, -0.03125522658228874, 0.03470807895064354, 0.051987022161483765]
[-0.08630319684743881, 0.09645237773656845, 0.06539519876241684, 0.02513965219259262, 0.04858444631099701, -0.21603262424468994, 0.028554774820804596, -0.1113930493593216, -0.06745407730340958, 0.013764294795691967]
[0.03493841364979744, -0.06687813252210617, 0.16895118355751038, -0.052009835839271545, 0.07361311465501785, -0.15687087178230286, -0.06849148869514465, -0.010288803838193417, 0.06536366790533066, -0.08014708012342453]
[-0.019741330295801163, 0.023016633465886116, 0.03947887569665909, 0.0270604956895113, -0.08045170456171036, -0.01875033788383007, 0.02447773888707161, -0.00987792108207941, -0.019301682710647583, 0.03820819407701492]
[0.06682486832141876, -0.01036213617771864, -0.006786873564124107, -0.0641542449593544, -0.1433311402797699, 0.09199982136487961, 0.04926898702979088, -0.19690266251564026, -0.1507880985736847, 0.09637220203876495]
[0.03686581924557686, 0.011618143878877163, 0.014676984399557114, -0.07610349357128143, -0.07609105855226517, 0.03857950121164322, -0.06265243887901306, -0.007581633981317282, -0.013569721952080727, -0.022382061928510666]
[-0.007950326427817345, 0.037007126957178116, -0.11905691772699356, 0.03820811212062836, -0.002218136563897133, -0.005338673945516348, 0.06633853912353516, 0.016564343124628067, -0.11484894156455994, -0.07983642816543579]
[-0.07443147897720337, 0.05690692737698555, 0.0010636155493557453, 0.05378728359937668, -0.23465561866760254, 0.011019563302397728, -0.1001020073890686, 0.03395771607756615, -0.05693350359797478, 0.07940016686916351]
[0.03397568687796593, 0.2365293949842453, -0.146321639418602, -0.22540707886219025, 0.21644186973571777, -0.07734032720327377, 0.11491827666759491, -0.19351030886173248, -0.04929179698228836, -0.2737869322299957]
[-0.3452056050300598, 0.17850534617900848, -0.2267591655254364, 0.031880635768175125, 0.04420335963368416, 0.07108873128890991, 0.10068105906248093, -0.017314426600933075, 0.03681740537285805, -0.2468886375427246]
[0.012615134008228779, 0.3494267165660858, -0.5327195525169373, -0.24390707910060883, 0.33765557408332825, -0.09525682032108307, 0.15751388669013977, -0.24615614116191864, -0.017552247270941734, -0.4554569721221924]
[-0.006134393159300089, 0.2985503077507019, -0.02615872584283352, -0.4418550133705139, 0.03100108914077282, 0.0891743078827858, 0.09640246629714966, -0.21661953628063202, -0.15041418373584747, -0.09028913080692291]
[-0.023134224116802216, 0.2147563099861145, -0.11786835640668869, -0.007174958009272814, 0.19737595319747925, 0.12116026878356934, -0.04181627929210663, -0.030039923265576363, 0.002162466524168849, -0.12938366830348969]
[-0.18511144816875458, -0.0024071712978184223, 0.08380739390850067, 0.0700787752866745, -0.04376570135354996, -0.0867733582854271, 0.04360527917742729, -0.05056988075375557, -0.0005530000780709088, -0.09214034676551819]
[-0.020358417183160782, -0.028108147904276848, -0.0614846833050251, 0.020973436534404755, -0.001507314620539546, 0.05363152548670769, -0.05302554368972778, 0.0177623238414526, 0.007800460327416658, 0.09670981019735336]
[-0.04116347059607506, 0.06340604275465012, 0.11628776043653488, 0.23423807322978973, 0.022545361891388893, -0.156295046210289, 0.10939893126487732, -0.2232542634010315, -0.09885206818580627, -0.23519207537174225]
[-0.006693356204777956, 0.028676338493824005, 0.06898859143257141, 0.0779089704155922, -0.09857670217752457, -0.009442630223929882, -0.030980592593550682, -0.022396624088287354, -0.0017295286525040865, 0.03936958685517311]
[-0.12758032977581024, 0.09526416659355164, 0.03031051903963089, 0.10275876522064209, -0.039025817066431046, -0.13298822939395905, 0.059280749410390854, -0.03985774517059326, -0.004682217258960009, -0.04483204334974289]
[-0.14602619409561157, 0.11396533995866776, -0.1578792780637741, -0.11047936230897903, 0.15418741106987, 0.027112986892461777, 0.045744962990283966, -0.1709223836660385, 0.09842396527528763, -0.4030684530735016]
[-0.04890242591500282, 0.026910889893770218, 0.11286302655935287, -0.0048025972209870815, 0.12181466072797775, -0.026538880541920662, -0.041678640991449356, -0.265097975730896, 0.028420859947800636, -0.3440081477165222]
[-0.018747689202427864, -0.07809954881668091, -0.004344004672020674, 0.07992225140333176, -0.27608129382133484, -0.033606935292482376, 0.12376613914966583, 0.02314247377216816, -0.06692945957183838, 0.028168881312012672]
[0.04086368903517723, 0.029165897518396378, -0.03747301176190376, -0.11430473625659943, -0.03352144733071327, 0.02351231873035431, 0.016591686755418777, -0.026357736438512802, -0.017413798719644547, -0.02175147272646427]
[0.036051858216524124, 0.1696702390909195, -0.2220466434955597, -0.17458704113960266, 0.2043953388929367, -0.0010686906753107905, -0.012146071530878544, -0.06172775477170944, -0.01924850419163704, -0.09823321551084518]
[0.09874415397644043, 0.0025836590211838484, 0.0647086575627327, 0.022091545164585114, 0.06297679245471954, 0.027098678052425385, 0.03187590092420578, -0.2511274516582489, -0.040724415332078934, -0.15566006302833557]
[-0.06946299970149994, -0.0796906054019928, -0.04260694980621338, 0.0713852122426033, -0.13865746557712555, 0.008348694071173668, 0.0115142110735178, 0.01266486942768097, -0.08331698924303055, 0.10878114402294159]
[0.03817373886704445, 0.06423638761043549, -0.031298160552978516, 0.007099139038473368, 0.011308643035590649, -0.10933668911457062, -0.14719446003437042, -0.02818954363465309, -0.012528645806014538, 0.0025304583832621574]
[-0.03398153930902481, -0.16288545727729797, -0.007010274101048708, 0.10786785930395126, -0.25752711296081543, 0.03089985065162182, 0.06219227612018585, -0.013378613628447056, 0.0011015867348760366, 0.11012867838144302]
[0.02257789485156536, -0.03839666396379471, 0.06120624765753746, 0.05214986950159073, -0.09079175442457199, -0.02889816276729107, -0.08940651267766953, 0.009080987423658371, -0.014337604865431786, 0.06664521247148514]
[-0.044558893889188766, 0.06797133386135101, 0.012112465687096119, 0.05922004580497742, 0.07988028228282928, -0.12463117390871048, -0.27380436658859253, -0.04010853171348572, -0.14617177844047546, -0.00517433462664485]
[0.10294793546199799, 0.014194998890161514, -0.12217089533805847, -0.09637734293937683, -0.03483427315950394, 0.03107571229338646, 0.05952627956867218, -0.22246159613132477, -0.04401024430990219, -0.012930086813867092]
[-0.15647076070308685, 0.08469359576702118, -0.014782250858843327, 0.029492555186152458, 0.02499675191938877, -0.08832111954689026, 0.13265012204647064, -0.059982314705848694, -0.024470819160342216, -0.2782689034938812]
[-0.02447948418557644, 0.10553447157144547, -0.09280277043581009, -0.1392102837562561, 0.08266635984182358, -0.008481106720864773, 0.13175582885742188, -0.037917859852313995, -0.02921631559729576, -0.06324377655982971]
[-0.07098498940467834, 0.22093871235847473, -0.35405629873275757, -0.16551242768764496, 0.29134562611579895, -0.06207920238375664, 0.11117233335971832, -0.24982111155986786, 0.07590890675783157, -0.3378216624259949]
[-0.0316217876970768, 0.15323953330516815, -0.0711747407913208, 0.03163375332951546, -0.03564715385437012, -0.0023305865470319986, -0.033170077949762344, -0.10986597836017609, -0.08392846584320068, 0.08067889511585236]
[-0.012160162441432476, -0.029177408665418625, -0.036190442740917206, -0.07488302141427994, 0.04151980206370354, 0.02961125783622265, -0.01203542947769165, -0.02775505743920803, 0.019943490624427795, -0.0298002976924181]
[-0.09715794771909714, 0.026821250095963478, -0.007382295560091734, -0.15239949524402618, 0.05489803105592728, -0.009482077322900295, 0.04734953120350838, -0.08659869432449341, 0.016097895801067352, -0.06949968636035919]
[-0.024616431444883347, -0.07369493693113327, 0.04455583542585373, 0.01218316238373518, -0.11642495542764664, 0.017722537741065025, -0.0033450108021497726, -0.0858498141169548, -0.014473989605903625, 0.001838020165450871]
[0.058892566710710526, 0.01553857047110796, -0.006207675207406282, -0.03318019211292267, 0.04111775755882263, -0.005720908287912607, -0.02353019267320633, -0.013428702019155025, 0.03254082053899765, 0.06554669141769409]
[0.04072702303528786, -0.00029704184271395206, 0.02806124836206436, -0.00817329715937376, 0.03646808862686157, -0.17145957052707672, 0.04622502624988556, -0.09823568165302277, -0.03430190682411194, -0.0651412308216095]
[0.096247099339962, -0.07075465470552444, -0.15431475639343262, -0.06252023577690125, 0.16687649488449097, 0.16712023317813873, 0.022743679583072662, -0.026256736367940903, -0.0733979344367981, -0.0356144942343235]
[0.03591536357998848, 0.06591083854436874, -0.13249264657497406, -0.11515960842370987, 0.10596808046102524, 0.031055215746164322, 0.0301329605281353, -0.08940248936414719, 0.027861010283231735, -0.10003726184368134]
[0.0018621358321979642, -0.16503222286701202, 0.10567182302474976, 0.03574322164058685, -0.042384613305330276, 0.05985720828175545, -0.03973481059074402, -0.03909739851951599, -0.059514179825782776, 0.13026940822601318]
[-0.024781689047813416, -0.04089941084384918, 0.03486041724681854, 0.008506487123668194, -0.049725331366062164, 0.07302587479352951, -0.0639716312289238, 0.1060500517487526, -0.045270442962646484, -0.006406956352293491]
[-0.12773576378822327, 0.013512334786355495, -0.28242114186286926, -0.3933793902397156, -0.01578943431377411, -0.004106573294848204, 0.14163623750209808, -0.23361808061599731, -0.023836830630898476, -0.1481098085641861]
[-0.007685830816626549, 0.095157690346241, 0.006131715141236782, -0.0536462627351284, 0.051084812730550766, 0.021900832653045654, 0.06863200664520264, -0.09041197597980499, 0.03778960183262825, -0.06926402449607849]
[0.06258318573236465, -0.004701381083577871, 0.02534511871635914, 0.00020143900474067777, 0.03605801984667778, -0.07861935347318649, -0.020203661173582077, -0.00669350428506732, 0.014678103849291801, 0.051063332706689835]
[0.0003287728177383542, -0.044598959386348724, -0.13883495330810547, -0.08494561165571213, 0.05860248580574989, 0.02578049525618553, -0.11440319567918777, 0.019123421981930733, -0.02690822258591652, -0.03220265731215477]
[0.0492134727537632, 0.041630763560533524, -0.1403053104877472, -0.1163630485534668, 0.15932928025722504, 0.17818200588226318, -0.046147421002388, -0.045152295380830765, -0.03480769693851471, -0.09492746740579605]
[-0.14284950494766235, -0.21155256032943726, -0.04993917793035507, -0.17631012201309204, 0.04005898907780647, 0.08009273558855057, 0.013069858774542809, -0.014844530262053013, 0.010068777948617935, -0.17217779159545898]
[-0.04450448602437973, -0.04829041659832001, -0.07190659642219543, 0.04959283396601677, -0.0710812360048294, 0.08607818931341171, 0.1307189166545868, -0.0012048791395500302, 0.02338678017258644, -0.08215131610631943]
[0.03499922528862953, 0.1515781730413437, -0.09937449544668198, -0.01647217571735382, 0.09310515969991684, 0.0012838678667321801, 0.0008188330684788525, 0.12356510758399963, 0.013987915590405464, -0.26743438839912415]
[-0.12494238466024399, 0.11538125574588776, -0.2000751793384552, -0.10699034482240677, 0.1441342830657959, 0.1071038767695427, 0.041306592524051666, -0.09524308890104294, -0.01936464197933674, -0.13132774829864502]
[-0.007918470539152622, 0.017009329050779343, -0.2464681714773178, 0.015667671337723732, 0.011986800469458103, 0.03634187579154968, -0.0364266075193882, 0.040842778980731964, 0.10030204057693481, 0.03667319938540459]
[-0.022471969947218895, 0.018527938053011894, -0.12980738282203674, -0.11343826353549957, 0.08175646513700485, 0.09702559560537338, 0.0605798065662384, -0.004195582587271929, 0.07103345543146133, -0.10939657688140869]
[0.015498554334044456, 0.04556736350059509, -0.021394969895482063, -0.06719114631414413, -0.0940183773636818, -0.003940400201827288, 0.10875916481018066, -0.06278260797262192, 0.033173222094774246, -0.04043329879641533]
[0.08237603306770325, -0.06185838580131531, 0.10527163743972778, 0.04310452193021774, -0.06725084781646729, -0.09400952607393265, -0.0004685295862145722, -0.2056806981563568, -0.030188316479325294, 0.1085762158036232]
[-0.10367412120103836, -0.12131362408399582, -0.06508791446685791, -0.2650853991508484, 0.06832661479711533, 0.01676175557076931, 0.10270144790410995, -0.06149141117930412, 0.1439618468284607, -0.22335919737815857]
[-0.013167106546461582, -0.14138157665729523, 0.028083009645342827, -0.051683589816093445, -0.06667942553758621, -0.1556158810853958, 0.007280785124748945, -0.08121243864297867, 0.16772010922431946, -0.13877379894256592]
[-0.037507299333810806, -0.009012900292873383, 0.01937137544155121, 0.01181613840162754, -0.06297841668128967, -0.10746277123689651, -0.0815061703324318, -0.011693296022713184, 0.04875140264630318, 0.06432037800550461]
[-0.0037688177544623613, 0.056297242641448975, -0.1887126863002777, -0.05179936811327934, 0.13469454646110535, -0.0067619457840919495, -0.0008167209452949464, 0.08656790852546692, 0.08294636011123657, -0.009669222868978977]
[-0.07768061012029648, -0.017858410254120827, -0.17495788633823395, -0.125690296292305, 0.12656526267528534, 0.10804863274097443, 0.03219637647271156, 0.01471856888383627, 0.0013415795983746648, -0.1361963152885437]
[-0.09411074221134186, 0.02474777214229107, -0.012636161409318447, 0.038205165416002274, 0.024787507951259613, 0.07287053763866425, -0.08119078725576401, -0.009409544989466667, 0.02484136074781418, -0.05265244469046593]
[0.025662777945399284, -0.1218862384557724, 0.08644090592861176, 0.07448829710483551, -0.1494811773300171, -0.1683792620897293, 0.1261003017425537, -0.21629655361175537, 0.05721081420779228, 0.027638381347060204]
[-0.008112088777124882, -0.07049375772476196, -0.025755874812602997, -0.06324535608291626, -0.0930839404463768, 0.04906759411096573, 0.13164618611335754, -0.05858978256583214, 0.017598982900381088, -0.0643422082066536]
[-0.08635693788528442, -0.12771819531917572, -0.24445168673992157, -0.0823439434170723, 0.12286069244146347, 0.18244092166423798, -0.07831107825040817, 0.07826022058725357, 0.08708251267671585, -0.05904463306069374]
[-0.11048319190740585, -0.010250997729599476, 0.006800904870033264, 0.046622682362794876, -0.034389447420835495, -0.058595042675733566, -0.056820403784513474, 0.019199520349502563, -0.024856004863977432, -0.015312901698052883]
[0.019801372662186623, -0.07878953218460083, 0.13226817548274994, 0.07753099501132965, -0.069010429084301, -0.29141998291015625, 0.05800621211528778, -0.12040883302688599, -0.00704136211425066, 0.033278871327638626]
[-0.030617913231253624, -0.0007012844434939325, 0.00014209911751095206, -0.023989452049136162, -0.01752527803182602, 0.09199178218841553, -0.09034614264965057, 0.017900491133332253, -0.024993592873215675, 0.033340491354465485]
[0.019517483189702034, -0.14648590981960297, -0.030244655907154083, -0.07764070481061935, -0.073814757168293, -0.06792240589857101, 0.1950906366109848, 0.001395104918628931, 0.04519561678171158, 0.0914129763841629]
[-0.013505566865205765, 0.00735146040096879, -0.20244748890399933, -0.08225658535957336, 0.031210746616125107, 0.10442497581243515, -0.11742652952671051, -0.0006750145112164319, 0.052780430763959885, 0.04906380921602249]
[0.09027644991874695, -0.03950244560837746, -0.1403123140335083, -0.0623164065182209, 0.011107425205409527, 0.1601640284061432, -0.003910549450665712, 0.008105850778520107, 0.0992531031370163, 0.024583805352449417]
[0.03031015582382679, -0.061912134289741516, -0.06562229990959167, 0.010393396019935608, -0.04970734193921089, 0.058299291878938675, -0.06575668603181839, 0.13899828493595123, 0.008053767494857311, -0.011710538528859615]
[-0.09100046008825302, 0.26871636509895325, -0.17289714515209198, -0.32147204875946045, 0.22323188185691833, -0.03250858187675476, 0.05162636190652847, -0.1998382806777954, 0.06599471718072891, -0.3239825665950775]
[-0.2779814898967743, 0.062248922884464264, -0.01853816956281662, 0.0799310952425003, 0.002363751409575343, 0.1964193880558014, 0.06944509595632553, 0.061756961047649384, -0.01280833687633276, -0.12303712964057922]
[-0.2118699550628662, 0.1130860447883606, -0.010087286122143269, -0.0531650148332119, 0.08120314031839371, 0.17987796664237976, 0.10074637085199356, 0.09002608060836792, -0.15504607558250427, -0.25940990447998047]
[-0.16334831714630127, -0.05706969276070595, -0.08756285905838013, -0.21244490146636963, 0.014514006674289703, 0.17740555107593536, 0.21655867993831635, -0.09275844693183899, -0.060983315110206604, -0.16282975673675537]
[-0.09654495120048523, -0.025310441851615906, -0.053619079291820526, 0.009690490551292896, 0.05027147755026817, 0.050630226731300354, 0.05861160531640053, 0.04426605999469757, -0.036769263446331024, -0.12654313445091248]
[-0.2646917998790741, -0.07323796302080154, -0.19762080907821655, -0.16592048108577728, -0.1517351269721985, -0.020996324717998505, 0.09825683385133743, -0.14300893247127533, -0.13951407372951508, -0.02293376624584198]
[-0.11400976032018661, -0.04887982830405235, 0.030541663989424706, -0.014994801953434944, 0.0767410397529602, 0.12462172657251358, 0.010091287083923817, -0.1410164088010788, 0.050214964896440506, -0.1690003126859665]
[-0.11841025203466415, -0.03551771864295006, 0.05801127851009369, 0.15525966882705688, 0.024747734889388084, -0.15181660652160645, -0.03714800253510475, -0.16351760923862457, -0.028025899082422256, -0.25632962584495544]
[0.06675182282924652, -0.028479427099227905, 0.10555589199066162, -0.04206615686416626, -0.04802059382200241, -0.08387842774391174, 0.025038909167051315, -0.08596264570951462, -0.0629698783159256, -0.03197905421257019]
[-0.07548481971025467, 0.09209633618593216, -0.0345056913793087, -0.06654740869998932, 0.006381026469171047, 0.012059158645570278, 0.059480298310518265, -0.05640609189867973, 0.030581627041101456, 0.05417296662926674]
[-0.07778497040271759, 0.021547706797719002, -0.17982591688632965, -0.048273518681526184, -0.04612940177321434, 0.1083349734544754, 0.07548655569553375, -0.014545263722538948, 0.09861233085393906, -0.21517644822597504]
[-0.07984383404254913, 0.17240993678569794, 0.0085796182975173, -0.07662636041641235, 0.024836283177137375, -0.13410982489585876, -0.07632933557033539, -0.12693379819393158, 0.14063897728919983, -0.11865466088056564]
[0.050895560532808304, -0.05124892294406891, -0.06629478931427002, -0.02300543151795864, 0.07135798037052155, -0.043264493346214294, 0.08439043164253235, -0.18016915023326874, 0.05066061019897461, -0.060843829065561295]
[-0.05554918944835663, 0.12361107766628265, -0.14406199753284454, -0.09260687232017517, 0.1990731656551361, -0.03728318586945534, 0.11560287326574326, -0.1266144961118698, 0.05707588046789169, -0.16810227930545807]
[0.08418872207403183, -0.03584018722176552, -0.08106225728988647, -0.006539177615195513, 0.04181206226348877, 0.022275663912296295, -0.07512018829584122, -0.09060618281364441, 0.1124802976846695, -0.04227377474308014]
[-0.0746590718626976, 0.06477893143892288, -0.0668867751955986, 0.03897910192608833, 0.09445080906152725, 0.03544037789106369, 0.07177943736314774, 0.008907901123166084, 0.000543274509254843, -0.009245086461305618]
[-0.08063624054193497, -0.043320052325725555, -0.04130198806524277, -0.11950936168432236, 0.10650987178087234, 0.2710433900356293, -0.029271701350808144, 0.02785991132259369, -0.09974941611289978, -0.10592250525951385]
[0.07038341462612152, 7.820977043593302e-05, 0.04802044481039047, -0.0016323017189279199, 0.03255245089530945, -0.09412452578544617, -0.04554465413093567, -0.011170788668096066, 0.08140754699707031, 0.06691978871822357]
[0.05127545818686485, -0.030075035989284515, -0.0450742244720459, -0.04872623831033707, -0.05072609335184097, 0.06679727882146835, 0.04829006642103195, -0.1622045785188675, 0.08290378004312515, -0.1288592666387558]
[0.05658668279647827, -0.056139297783374786, -0.05086328834295273, 0.06332197785377502, -0.019404811784625053, -0.12656304240226746, -0.08214131742715836, -0.03375719115138054, 0.0043435487896203995, 0.06806176900863647]
[-0.032910026609897614, -0.0271710604429245, -0.019492335617542267, -0.05204056575894356, 0.029176652431488037, -0.009021357633173466, -0.1327228844165802, -0.03756986930966377, 0.00511578656733036, 0.10533498972654343]
[-0.028884440660476685, 0.10840216279029846, -0.0894697979092598, -0.017823243513703346, 0.15118348598480225, -0.03225241228938103, 0.07947838306427002, -0.15939275920391083, -0.04166143387556076, -0.16044527292251587]
[-0.2462186962366104, 0.1330554485321045, -0.035562653094530106, 0.08357810229063034, -0.05373653769493103, 0.041811324656009674, -0.04123352840542793, 0.02353566884994507, 0.047709740698337555, -0.22000762820243835]
[-0.07226743549108505, 0.1281096637248993, -0.25398290157318115, -0.10377789288759232, 0.09480936825275421, -0.015564493834972382, 0.03319467976689339, 0.08328013122081757, -0.023415926843881607, -0.10010789334774017]
[-0.06034071370959282, 0.038392312824726105, -0.021203037351369858, -0.1118810698390007, 0.12761278450489044, 0.09010415524244308, -0.11814342439174652, -0.10153558850288391, -0.013915183953940868, -0.26118898391723633]
[0.01530427299439907, -0.026722179725766182, -0.1597844809293747, -0.2575983703136444, 0.11121398210525513, 0.2604108452796936, -0.05218460038304329, 0.03239115700125694, -0.10127859562635422, -0.20814114809036255]
[-0.0425335057079792, 0.08815218508243561, -0.09570038318634033, -0.08425018191337585, 0.03842422738671303, 0.11214196681976318, -0.05919802933931351, -0.048519913107156754, 0.02064749412238598, -0.0440860241651535]
[-0.0324837826192379, 0.11038047075271606, -0.1996472030878067, -0.32312366366386414, 0.19931495189666748, 0.043548762798309326, 0.03489914909005165, -0.01658380590379238, -0.001809697481803596, -0.2661641836166382]
[0.021991560235619545, -0.0039079561829566956, 0.032935477793216705, 0.04034944251179695, -0.019245730713009834, 0.01375158317387104, 0.08111493289470673, -0.3832148015499115, -0.012052834965288639, 0.00014230543456505984]
[-0.04883495345711708, -0.03636937960982323, -0.03528584539890289, 0.02692662924528122, 0.03513346612453461, 0.026218198239803314, 0.04863831028342247, 0.03188565373420715, 0.008072646334767342, 0.03582870960235596]
[0.011152572929859161, 0.02126609906554222, -0.14914827048778534, -0.07177383452653885, 0.045852385461330414, 0.07948988676071167, -0.025012193247675896, 0.04863045737147331, 0.049099620431661606, 0.040640026330947876]
[0.05990423262119293, -0.04762379080057144, -0.1304718255996704, -0.01876734010875225, 0.058263204991817474, -0.04768656939268112, -0.055076178163290024, 0.015284739434719086, 0.04681617394089699, -0.014312976971268654]
[-0.01388736255466938, -0.03203103691339493, -0.017399264499545097, 0.05332520604133606, -0.21614359319210052, -0.03215005621314049, 0.04602823033928871, 0.032839883118867874, 0.008091798983514309, 0.0866912305355072]
[0.0053019411861896515, -0.08570519834756851, -0.036000244319438934, -0.040275588631629944, 0.0721847265958786, 0.03680381178855896, -0.015280606225132942, 0.03607189655303955, 0.03503477945923805, -0.0024140968453139067]
[0.029853519052267075, -0.025555390864610672, -0.005613777320832014, -0.003831441979855299, -0.09036631882190704, -0.14443327486515045, -0.07413210719823837, 0.04042637720704079, -0.010257633402943611, -0.04815065115690231]
[-0.057191282510757446, -0.070702463388443, 0.15741512179374695, 0.08127982914447784, 0.057083118706941605, -0.18774676322937012, -0.06808139383792877, -0.03515905141830444, -0.06885465234518051, -0.2072772979736328]
[-0.05999462679028511, 0.07427165657281876, -0.020062852650880814, -0.021836647763848305, 0.08185970038175583, -0.09198378771543503, 0.014839264564216137, -0.03911250829696655, -0.1542241871356964, -0.003128425683826208]
[-0.029216745868325233, 0.035086099058389664, 0.18565337359905243, -0.026166614145040512, 0.10860513150691986, -0.2661173641681671, -0.03732866793870926, 0.10291773080825806, -0.10650186240673065, -0.19181415438652039]
[0.05040479451417923, 0.023577403277158737, -0.0007652702042832971, 0.010196562856435776, -0.09613893181085587, -0.06564105302095413, -0.08051374554634094, 0.018880270421504974, 0.019055571407079697, 0.0011678362498059869]
[0.05957335978746414, -0.13962942361831665, 0.01886129006743431, 0.013079398311674595, -0.12993334233760834, -0.09536062926054001, -0.06078910827636719, -0.05247018486261368, 0.02829953469336033, 0.06727420538663864]
[-0.14872242510318756, 0.0393575020134449, 0.02373865433037281, 0.09196116030216217, 0.06815205514431, -0.07107634097337723, -0.037557899951934814, 0.06673789024353027, 0.005913833621889353, -0.18823763728141785]
[-0.07404117286205292, 0.06173510476946831, -0.0012482398888096213, 0.06473097950220108, -0.06371679902076721, -0.10750448703765869, -0.15997138619422913, 0.07326852530241013, -0.0763883888721466, -0.0300336591899395]
[0.028810987249016762, 0.03173947334289551, -0.13365644216537476, -0.03686082735657692, 0.13595204055309296, 0.09023607522249222, -0.05051993206143379, -0.001136253820732236, -0.009603716433048248, -0.008555210195481777]
[0.09108760207891464, -0.02727583423256874, 0.03049628809094429, -0.004343059845268726, -0.1566118746995926, -0.016158035025000572, 0.06284666806459427, -0.09475424140691757, 0.04297900199890137, 0.062388982623815536]
[-0.03227851167321205, -0.09863275289535522, 0.03298082947731018, 0.11597297340631485, 0.02717381715774536, -0.14600440859794617, -0.10246340930461884, -0.020498963072896004, -0.09438406676054001, -0.14586442708969116]
[-0.07327394187450409, -0.07253959774971008, 0.15012727677822113, 0.07301223278045654, -0.1261412650346756, -0.1708461493253708, -0.04661045968532562, -0.10150131583213806, -0.05473843216896057, -0.07083340734243393]
[0.010239331983029842, 0.03299650922417641, -0.1302989274263382, -0.025581832975149155, 0.016496360301971436, -0.0758458822965622, -0.1276007741689682, 0.030985021963715553, 0.13956868648529053, -0.09230602532625198]
[-0.01005158293992281, 0.04255622625350952, -0.08455608785152435, -0.08175641298294067, 0.15516416728496552, -0.08369091153144836, -0.0676087737083435, 0.12412086874246597, 0.04036444053053856, -0.09347639232873917]
[-0.18641595542430878, 0.026654809713363647, 0.07070568203926086, 0.07981199771165848, -0.11516064405441284, -0.1494678109884262, 0.017533352598547935, 0.01084892451763153, -0.012165739201009274, -0.09862352162599564]
[-0.1787937730550766, 0.027082569897174835, -0.10697437822818756, -0.016411425545811653, 0.012447342276573181, -0.060981374233961105, -0.050757601857185364, 0.08676549792289734, 0.05297498032450676, -0.12437477707862854]
[-0.030238326638936996, 0.022126849740743637, 0.011567199602723122, -0.0686558187007904, -0.054104018956422806, -0.0677475556731224, -0.04382334649562836, 0.18123064935207367, -0.028789915144443512, -0.14745664596557617]
[-0.016774620860815048, -0.05291849747300148, -0.1380893439054489, -0.03870401158928871, -0.16927488148212433, 0.092662513256073, 0.026279639452695847, 0.07112525403499603, 0.04229959473013878, -0.006135149393230677]
[0.09176435321569443, -0.1528400480747223, 0.04672948643565178, 0.07740713655948639, 0.12796536087989807, -0.156056746840477, -0.06136174499988556, -0.10995153337717056, -0.03761696442961693, -0.021664854139089584]
[0.07570250332355499, -0.170187309384346, -0.011477412655949593, 0.11345349997282028, -0.08719466626644135, -0.013281673192977905, -0.11082684248685837, -0.033073972910642624, -0.07376556098461151, -0.019301466643810272]
[-0.10548609495162964, -0.024210624396800995, -0.06520625203847885, -0.05263478681445122, 0.08331543207168579, 0.00482872175052762, -0.02719256468117237, 0.13249164819717407, 0.13296744227409363, -0.07819340378046036]
[0.09416037797927856, -0.01614616997539997, 0.09426876902580261, 0.13038203120231628, 0.07854833453893661, -0.16258209943771362, -0.09679452329874039, -0.10872375965118408, -0.04610634222626686, -0.00028330256463959813]
[0.03252335265278816, -0.04749138280749321, 0.06537465006113052, 0.06891800463199615, 0.011237358674407005, -0.20955127477645874, -0.08479592949151993, -0.011881642043590546, -0.11083579063415527, 0.035409457981586456]
[-0.023088449612259865, 0.047268908470869064, 0.018308160826563835, -0.15960323810577393, 0.0008135543903335929, 0.0452265664935112, 0.07368814945220947, 0.03497322276234627, -0.113454170525074, 0.0476456955075264]
[0.028108416125178337, 0.039187002927064896, -0.1800653487443924, -0.03574704751372337, 0.07973983138799667, 0.029843052849173546, -0.01585090532898903, -0.037768177688121796, 0.09979323297739029, 0.06528501212596893]
[0.053176503628492355, -0.05171296373009682, -0.05104196071624756, -0.040270667523145676, 0.031526487320661545, 0.0361381433904171, -0.0029366484377533197, 0.04614463448524475, -0.01623849757015705, -0.012083343230187893]
[-0.10363030433654785, -0.16062599420547485, 0.1660832017660141, 0.1458057314157486, -0.1394387185573578, -0.32070210576057434, -0.06049363687634468, -0.019157923758029938, -0.09531034529209137, -0.12014113366603851]
[0.06295957416296005, -0.042132582515478134, -0.09714089334011078, 0.002113464055582881, 0.027333160862326622, -0.12418670952320099, -0.04891021549701691, -0.017682116478681564, -0.026007816195487976, 0.07095193862915039]
[0.03323621675372124, -0.024920029565691948, -0.05104619637131691, -0.0018699578940868378, 0.05258823558688164, -0.13039246201515198, 0.013065082021057606, 0.08572515845298767, 0.005982136353850365, -0.06375598162412643]
[0.057246726006269455, 0.021799586713314056, -0.12721030414104462, -0.06862453371286392, 0.06273583322763443, -0.06305963546037674, -0.10009931027889252, 0.14045120775699615, -0.030043920502066612, -0.049796778708696365]
[-0.041586440056562424, -0.10373804718255997, -0.03877672925591469, -0.020386286079883575, -0.06985361874103546, 0.0332707054913044, 0.09050504863262177, -0.04008832201361656, 0.06063872575759888, 0.03044421225786209]
[-0.07406862080097198, 0.11425666511058807, 0.011798338033258915, 0.033589597791433334, -0.12658241391181946, 0.005127900280058384, 0.1050240695476532, -0.15962883830070496, 0.0313679464161396, -0.03650221973657608]
[0.038506485521793365, -0.06267095357179642, -0.06424223631620407, -0.014747334644198418, 0.019079850986599922, 0.005054413340985775, 0.001921091228723526, -0.055988650768995285, 0.055319201201200485, 0.04615817964076996]
[0.024731120094656944, -0.13433972001075745, 0.1764252483844757, 0.055436622351408005, -0.026920905336737633, -0.2843566834926605, 0.00014694836863782257, -0.06991635262966156, -0.005210584960877895, -0.12759190797805786]
[0.07177849858999252, -0.09280620515346527, -0.057707976549863815, -0.08282002061605453, 0.01045556552708149, 0.027727702632546425, 0.012460808269679546, 0.01913980208337307, 0.022944198921322823, -0.0531042255461216]
[0.02360602654516697, -0.005248525179922581, -0.08004935830831528, 0.014878557063639164, -0.016710035502910614, 0.0022802960593253374, -0.026312995702028275, -0.0163288451731205, -0.04039087891578674, -0.05565566569566727]
[-0.06768590211868286, 0.11348723620176315, -0.014362229965627193, 0.1003275215625763, -0.03495242819190025, -0.0341997854411602, 0.04911571741104126, -0.017707806080579758, 0.05214026942849159, -0.10853224992752075]
[0.06513241678476334, -0.0431617796421051, -0.07693087309598923, -0.11469851434230804, 0.02526950277388096, 0.18251368403434753, 0.029005123302340508, 0.04132939502596855, -0.014506209641695023, -0.05217467248439789]
[0.11217229068279266, -0.022818556055426598, -0.12325121462345123, -0.07657807320356369, -0.06782355904579163, 0.10908117890357971, -0.07671355456113815, 0.12464956939220428, -0.04591365531086922, -0.09367426484823227]
[-0.004318370018154383, -0.03764665871858597, -0.17547038197517395, -0.05672810599207878, 0.044577568769454956, 0.022831998765468597, 0.1285809725522995, 0.058180972933769226, -0.07027621567249298, 0.005590952932834625]
[-0.14503639936447144, 0.040862590074539185, 0.15420116484165192, 0.06370291858911514, -0.119878850877285, 0.12309330701828003, 0.14947105944156647, -0.2311209738254547, -0.14958640933036804, 0.032507289201021194]
[0.0020414176397025585, 0.06147148832678795, -0.20614519715309143, -0.1005285456776619, 0.022360539063811302, 0.006049735005944967, 0.108758345246315, -0.10165189951658249, 0.02593967691063881, 0.08695186674594879]
[-0.133543461561203, 0.04198233038187027, 0.03205360099673271, 0.10807222127914429, 0.03334446996450424, -0.18519562482833862, -0.08144772797822952, 0.006523995194584131, -0.1091398373246193, -0.04821399226784706]
[0.07090023905038834, -0.07894458621740341, -0.03430526331067085, 0.007898146286606789, 0.07600448280572891, -0.01334844809025526, 0.05703176558017731, -0.04351698234677315, -0.06921009719371796, 0.029354754835367203]
[-0.018675515428185463, -0.051590438932180405, -0.06124337017536163, -0.08601484447717667, -0.13124431669712067, 0.022954868152737617, 0.14874662458896637, -0.025741688907146454, 0.0288563035428524, 0.06257538497447968]
[-0.004209243692457676, -0.060328200459480286, -0.05650423467159271, -0.15589290857315063, -0.028318064287304878, 0.030551770702004433, 0.0403980053961277, -0.03212470933794975, -0.0789530873298645, 0.055811818689107895]
[0.0045412080362439156, -0.03956064581871033, -0.12359166890382767, -0.08966775238513947, 0.008909822441637516, -0.1515612155199051, 0.06574573367834091, 0.014228640124201775, 0.033523544669151306, 0.06771240383386612]
[0.060654088854789734, -0.12678712606430054, 0.08385075628757477, -0.07209934294223785, -0.09391172230243683, -0.04417905583977699, -0.06358051300048828, 0.1295454353094101, 0.023037606850266457, -0.03730727359652519]
[-0.07364536821842194, -0.004668836016207933, 0.006618715822696686, 0.05233859270811081, -0.12149485945701599, 0.006359654478728771, -0.06879095733165741, 0.12813414633274078, 0.03362945467233658, -0.11843975633382797]
[0.05595293641090393, -0.028344174847006798, -0.12657299637794495, -0.1415921002626419, 0.08297253400087357, -0.032430361956357956, -0.030267108231782913, 0.1693008989095688, -0.029217420145869255, -0.101218581199646]
[-0.04011950269341469, -0.03402535617351532, -0.06967895478010178, -0.013087368570268154, 0.12345534563064575, -0.007976890541613102, 0.03311306610703468, 0.11863043159246445, 0.15524056553840637, -0.10111458599567413]
[0.14818347990512848, -0.1557982861995697, -0.06239675357937813, -0.036241836845874786, -0.11672559380531311, 0.04072509706020355, -0.12007040530443192, 0.04564622417092323, 0.11011629551649094, 0.11284859478473663]
[0.014883607625961304, -0.07705952227115631, 0.015767931938171387, 0.04811280965805054, -0.0672667846083641, 0.037685196846723557, 0.15907315909862518, -0.21920523047447205, -0.02113446034491062, 0.06971607357263565]
[0.04309729486703873, -0.1522732824087143, 0.0930672138929367, 0.05724849924445152, -0.06907545030117035, -0.12896008789539337, 0.017577441409230232, -0.05833490937948227, 0.05568569526076317, 0.0978422611951828]
[-0.04609109088778496, -0.1301169991493225, -0.07719980180263519, -0.17861555516719818, 0.008851807564496994, -0.0254832711070776, 0.1177852675318718, -0.06986796855926514, -0.02951398305594921, 0.036178313195705414]
[-0.023228341713547707, -0.11676275730133057, 0.11393965035676956, 0.12271541357040405, 0.011885321699082851, -0.2770034670829773, -0.12691454589366913, 0.021045591682195663, 0.03430941328406334, -0.16012729704380035]
[0.02636929415166378, -0.014523740857839584, 0.048166777938604355, 0.008410698734223843, -0.04954739287495613, -0.1324804425239563, -0.028398729860782623, 0.005654306150972843, 0.0714254081249237, -0.0491916723549366]
[-0.012258118018507957, -0.10124790668487549, -0.08530044555664062, -0.10421096533536911, -0.02986663021147251, 0.1136661246418953, 0.0875585675239563, 0.004549267236143351, 0.08426351845264435, 0.11427804827690125]
[-0.03038167767226696, 0.053314853459596634, -0.15234149992465973, 0.07435506582260132, 0.07655854523181915, -0.03592969849705696, -0.15407921373844147, 0.09999129176139832, 0.023089047521352768, -0.11853098124265671]
[-0.012846267782151699, -0.05426414683461189, -0.014097358100116253, 0.022809425368905067, -0.06005286052823067, -0.046641115099191666, 0.015820587053894997, -0.05135504528880119, 0.03107973374426365, -0.05436177924275398]
[-0.060359884053468704, 0.016122614964842796, -0.07094645500183105, -0.03585244342684746, 0.012598220258951187, 0.08951869606971741, -0.06422600895166397, -0.0165229644626379, 0.022648880258202553, 0.03515045344829559]
[-0.02453724294900894, -0.08940501511096954, -0.06170625612139702, 0.036299098283052444, -0.02999384142458439, -0.00492369057610631, 0.06965866684913635, -0.008213978260755539, 0.03254605829715729, 0.045388441532850266]
[0.010467194952070713, -0.08136539906263351, -0.02333131618797779, 0.059874728322029114, -0.09026949107646942, 0.030403045937418938, 0.058261264115571976, -0.004955064505338669, 0.037390172481536865, 0.10650575906038284]
[0.05351223051548004, -0.12805400788784027, 0.015945736318826675, -0.0794767364859581, -0.029007727280259132, -0.010361958295106888, -0.0007098682690411806, -0.06539817899465561, 0.019143356010317802, 0.1057138741016388]
[0.12689822912216187, -0.09576509147882462, 0.012502170167863369, 0.011949761770665646, -0.03687146306037903, -0.057249460369348526, -0.10414661467075348, 0.07270864397287369, -0.02074066922068596, 0.08148486167192459]
[-0.07458332180976868, -0.008885299786925316, 0.024628685787320137, 0.06951888650655746, -0.2110196053981781, -0.18590117990970612, 0.035604678094387054, 0.06472955644130707, -0.2431698590517044, 0.0111779123544693]
[0.055914975702762604, -0.11932697147130966, -0.0647563636302948, -0.10835961997509003, 0.09359408915042877, -0.01178494468331337, -0.005353536456823349, -0.06741046905517578, 0.0035458740312606096, -0.046941570937633514]
[0.09077753126621246, -0.12056422978639603, 0.06011062487959862, -0.2310667484998703, 0.019093677401542664, -0.09256938099861145, -0.11016032844781876, 0.27927830815315247, -0.0027746036648750305, -0.32737722992897034]
[0.06499195098876953, -0.0892651304602623, 0.08397666364908218, 0.04394685849547386, -0.0261934082955122, -0.12062350660562515, -0.07607314735651016, 0.04321780428290367, 0.019801976159214973, 0.03228176385164261]
[0.005426837131381035, -0.11881160736083984, -0.1046421229839325, -0.01030029822140932, -0.012298937886953354, 0.011006447486579418, 0.010679625906050205, 0.007659998256713152, 0.068527452647686, 0.0676647201180458]
[-0.2548185884952545, 0.038962554186582565, 0.052442967891693115, 0.14562225341796875, -0.09808052331209183, -0.062061045318841934, -0.28776490688323975, 0.15681937336921692, -0.020891515538096428, -0.16906996071338654]
[-0.008462303318083286, -0.020248904824256897, 0.02685888484120369, 0.022812431678175926, -0.0520487055182457, 0.0049696932546794415, -0.11963427066802979, 0.11943493038415909, -0.04406655207276344, -0.11132819950580597]
[-0.012023051269352436, 0.048277951776981354, -0.033418405801057816, -0.07500987499952316, 0.10469947010278702, 0.002834286540746689, 0.052285343408584595, -0.026463087648153305, -0.11757109314203262, -0.1744643598794937]
[0.00584468012675643, -0.09515789896249771, -0.018833087757229805, 0.06013299152255058, -0.06484875828027725, -0.07874494045972824, -0.10298765450716019, 0.027784282341599464, -0.02015405334532261, 0.045353081077337265]
[-0.04863806441426277, -0.05775219574570656, 0.008169310167431831, -0.09839829057455063, -0.16147777438163757, -0.1197320893406868, 0.05206264555454254, -0.012129930779337883, 0.05335875228047371, 0.09672518074512482]
[0.0004778899601660669, -0.06870352476835251, -0.01746542938053608, 0.029382454231381416, -0.07435739040374756, -0.1108691468834877, 0.01988152600824833, 0.10456623882055283, 0.0016716992249712348, 0.020812971517443657]
[0.0119257103651762, 0.045346006751060486, -0.10378509014844894, -0.03915604203939438, 0.010753108188509941, 0.0465400367975235, -0.09433203935623169, 0.07522202283143997, 0.08290062099695206, -0.027687547728419304]
[-0.02130848355591297, -0.08911135792732239, -0.13232502341270447, -0.08398610353469849, -0.017689313739538193, -0.07115661352872849, -0.11434342712163925, 0.14078833162784576, 0.07098277658224106, -0.059019558131694794]
[-0.04708265885710716, 0.03223847225308418, -0.03230799734592438, 0.0329478494822979, -0.22995637357234955, -0.08196252584457397, -0.1256285458803177, 0.10415801405906677, -0.05220252275466919, 0.06864462792873383]
[-0.2141612321138382, 0.027477523311972618, 0.01754317618906498, 0.059452980756759644, -0.022565258666872978, -0.049315158277750015, -0.24543669819831848, 0.03624763712286949, 0.10892105847597122, -0.08254918456077576]
[0.10743953287601471, -0.08036389201879501, 0.0741581991314888, -0.038692593574523926, 0.042314257472753525, -0.15037360787391663, -0.16905401647090912, 0.24035966396331787, 0.013769094832241535, -0.15770818293094635]
[-0.006400652229785919, -0.20720414817333221, -0.0008661048486828804, -0.16278325021266937, 0.029324037954211235, 0.00022656130022369325, 0.004828860517591238, -0.008504347875714302, 0.07057897746562958, 0.10365281254053116]
[-0.051519718021154404, -0.0004806143988389522, 0.030480384826660156, 0.12674681842327118, -0.036967989057302475, -0.12289376556873322, -0.053697600960731506, -0.11469875276088715, 0.008603877387940884, 0.10089325159788132]
[0.09478437900543213, 0.06948164105415344, -0.09305347502231598, -0.05677999183535576, -0.04966051131486893, -0.011530718766152859, -0.002142153913155198, -0.0006761161494068801, -0.03273964300751686, 0.02764814719557762]
[-0.10629986226558685, 0.20474998652935028, 0.0012483950704336166, 0.0018142879707738757, 0.07168115675449371, -0.016262920573353767, -0.046967826783657074, 0.030487587675452232, -0.06722231954336166, -0.05869005247950554]
[0.021899616345763206, -0.05475712940096855, 0.015277120284736156, -0.05390437692403793, -0.017541851848363876, 0.0839160606265068, -0.02898651547729969, 0.026935534551739693, -0.043517131358385086, 0.08274050056934357]
[-0.04902156442403793, -0.05567986145615578, -0.000952342408709228, 0.12228371202945709, -0.07525475323200226, 0.002324458910152316, -0.10101130604743958, -0.005250305403023958, 0.09038189053535461, 0.02126491069793701]
[-0.019414691254496574, -0.036053501069545746, -0.1926775872707367, -0.16079430282115936, 0.21935920417308807, 0.01017824374139309, 0.2326151728630066, -0.016855290159583092, -0.10095619410276413, -0.196123406291008]
[-0.06639738380908966, 0.021047893911600113, 0.018135614693164825, -0.08336114883422852, 0.06409452110528946, 0.02638990432024002, -0.1660727709531784, -0.03633657842874527, 0.0021601091139018536, 0.06647438555955887]
[0.06007138267159462, 0.04070422798395157, -0.05422145500779152, -0.018243160098791122, -0.002140290569514036, -0.03742394596338272, 0.017355332151055336, 0.04252707213163376, -0.008470186963677406, -0.018457844853401184]
[-0.06850866973400116, -0.08445825427770615, 0.08708156645298004, 0.10181248933076859, -0.052569832652807236, -0.19682517647743225, -0.027414165437221527, 0.09316401183605194, -0.1752043217420578, 0.11628153175115585]
[0.1046159416437149, -0.011253596283495426, -0.05876071751117706, -0.059530679136514664, 0.05818558856844902, 0.023317091166973114, 0.022683806717395782, -0.022201301530003548, -0.07157839089632034, -0.00488670589402318]
[-0.19903086125850677, 0.05881533771753311, -0.021788235753774643, 0.08275964111089706, 0.039093855768442154, -0.16977937519550323, -0.23597824573516846, 0.1468990594148636, 0.004599325358867645, -0.23817645013332367]
[-0.056322935968637466, 0.08769097924232483, -0.10636726766824722, -0.11394033581018448, -0.04391792416572571, 0.010606573894619942, -0.05288786441087723, 0.04539347067475319, 0.0018391513731330633, 0.08373615145683289]
[-0.0403708890080452, -0.14413058757781982, -0.029753969982266426, -0.06549984216690063, 0.0324709415435791, 0.02054080367088318, 0.06949111074209213, -0.03662052005529404, 0.009189451113343239, -0.030862148851156235]
[-0.10564189404249191, 0.025592373684048653, 0.013926642946898937, -0.0882696732878685, 0.17472855746746063, -0.2546757459640503, 0.17226122319698334, -0.1899121105670929, -0.13211968541145325, -0.010616816580295563]
[0.02797243930399418, -0.12908565998077393, -0.029583122581243515, 0.028757795691490173, 0.061166003346443176, -0.03159238398075104, 0.031763847917318344, -0.10504143685102463, -0.02492351271212101, 0.142502561211586]
[-0.08444949239492416, -0.10544585436582565, 0.07402125746011734, 0.12491848319768906, -0.17910702526569366, -0.38055938482284546, 0.09592386335134506, 0.12151266634464264, -0.22293134033679962, -0.0014938953099772334]
[-0.011445302516222, -0.040437936782836914, -0.00561519293114543, -0.12629784643650055, -0.0007969248690642416, 0.1103004589676857, -0.020678630098700523, 0.00903226062655449, -0.0006604797672480345, -0.01884409971535206]
[-0.032585468143224716, 0.004570980090647936, 0.0957605391740799, 0.0032816261518746614, -0.026372849941253662, -0.012874911539256573, -0.13478650152683258, 0.04716512933373451, -0.06629309058189392, -0.08591347187757492]
[-0.07775097340345383, -0.04540425166487694, 0.004362860228866339, -0.005247093737125397, -0.10584720224142075, -0.15042588114738464, -0.008114910684525967, 0.05379949137568474, -0.08823653310537338, 0.026865314692258835]
[-0.05977925658226013, -0.10421501845121384, 0.040581971406936646, -0.11683125048875809, -0.012834166176617146, 0.08356131613254547, -0.03948727250099182, 0.08800776302814484, -0.016371792182326317, -0.029491398483514786]
[0.12439454346895218, -0.03275757655501366, 0.003413860220462084, -0.023991137742996216, -0.06952780485153198, -0.04289568215608597, -0.05327837914228439, 0.044633861631155014, -0.024799080565571785, 0.031560443341732025]
[0.037418182939291, -0.14279378950595856, -0.03892885148525238, -0.22855670750141144, 0.1134546771645546, -0.008871793746948242, 0.15978537499904633, -0.08479253202676773, -0.05251569673418999, -0.025088081136345863]
[-0.011001708917319775, -0.351546049118042, -0.052956096827983856, -0.0767291933298111, 0.17031800746917725, 0.03744271397590637, 0.10888626426458359, -0.020439762622117996, -0.016942476853728294, 0.00242933863773942]
[0.007122852839529514, 0.03497235104441643, -0.09573815762996674, -0.2427602857351303, 0.028421584516763687, 0.1127564013004303, 0.07983610033988953, -0.018086958676576614, -0.012423800304532051, -0.06462297588586807]
[0.035397034138441086, 0.060145482420921326, -0.03849245607852936, 0.08235005289316177, -0.17495912313461304, 0.02650703676044941, -0.12748083472251892, 0.006306745111942291, 0.052233532071113586, 0.08296044915914536]
[-0.025225132703781128, -0.11715494841337204, 0.057205427438020706, -0.2008894383907318, 0.1098737120628357, 0.07405367493629456, 0.09790097922086716, 0.1325972080230713, -0.06943140178918839, -0.023922095075249672]
[-0.012666921131312847, -0.24187229573726654, -0.039963554590940475, -0.11531433463096619, -0.01306054089218378, -0.0020391601137816906, 0.01629249006509781, -0.04770177975296974, 0.006689331028610468, 0.1093718633055687]
[-0.010674857534468174, -0.14048334956169128, 0.009829350747168064, -0.20090337097644806, 0.034448299556970596, -0.06544368714094162, -0.0054710074327886105, -0.09513725340366364, 0.032384779304265976, 0.023837806656956673]
[0.02324657514691353, -0.19558273255825043, -0.00023255596170201898, -0.09440559148788452, 0.01503739133477211, 0.07332758605480194, 0.00674127321690321, -0.14668528735637665, 0.012097159400582314, 0.12699401378631592]
[-0.11876168102025986, -0.12566225230693817, 0.004788056015968323, -0.31701308488845825, 0.0894552618265152, -0.08046453446149826, -0.019480956718325615, 0.15867529809474945, 0.080722875893116, 0.06388229131698608]
[0.0058374712243676186, -0.00358903338201344, 0.04814252257347107, 0.12380602955818176, -0.1617586314678192, -0.0665934756398201, -0.1563243269920349, 0.07261516153812408, 0.057215116918087006, 0.0033659618347883224]
[0.029133141040802002, -0.16460594534873962, -0.09462305903434753, -0.16725072264671326, 0.07978160679340363, 0.004654925782233477, -0.08396020531654358, 0.16643576323986053, 0.09052030742168427, 0.0075280992314219475]
[-0.1931973695755005, -0.07904846221208572, 0.06706922501325607, 0.05805998295545578, 0.026952587068080902, -0.10735637694597244, -0.3351106643676758, 0.1401832401752472, 0.023551281541585922, -0.045229777693748474]
[-0.043576620519161224, -0.09233381599187851, 0.043454620987176895, 0.033470846712589264, -0.088230200111866, -0.027038507163524628, -0.04865685850381851, -0.004607583861798048, 0.027612533420324326, 0.09063325822353363]
[0.01812722347676754, -0.018418967723846436, -0.11187382787466049, -0.10515830665826797, 0.06143171712756157, 0.03422675281763077, 0.13915427029132843, -0.07736029475927353, -0.08358446508646011, 0.03205284848809242]
[0.00362941506318748, -0.02873925492167473, 0.06562940776348114, -0.0024503073655068874, -0.02974390611052513, -0.041763272136449814, 0.05323779210448265, -0.17049476504325867, 0.08099080622196198, 0.05507822707295418]
[0.006035356316715479, -0.058209389448165894, -0.11539965122938156, 0.002799798035994172, 0.045618534088134766, -0.03238523751497269, 0.0364605113863945, -0.012653517536818981, 0.049205079674720764, 0.005879060365259647]
[-0.16073831915855408, -0.018141569569706917, 0.055183202028274536, 0.17025916278362274, -0.06603187322616577, -0.13284677267074585, -0.05857367813587189, 0.09267786890268326, 0.07113228738307953, -0.13791882991790771]
[0.01256551593542099, 0.012060289271175861, 0.026716651394963264, 0.006081853061914444, -0.0680183544754982, -0.06277013570070267, -0.004328002687543631, -0.08381035923957825, -0.08781109750270844, -0.04889368638396263]
[0.005498125217854977, -0.042042773216962814, -0.009339564479887486, -0.041516948491334915, 0.06454364955425262, 0.051235321909189224, 0.07336003333330154, -0.008711045607924461, 0.07988037168979645, -0.03827017918229103]
[0.09464435279369354, -0.002249832032248378, -0.04798883944749832, 0.048260513693094254, -0.05960838869214058, -0.05170157179236412, -0.2462523877620697, 0.06320232897996902, -0.0109074916690588, -0.07132168859243393]
[-0.03557204827666283, -0.06370411068201065, 0.014573344960808754, -0.052834734320640564, 0.011616356670856476, -0.006441788282245398, -0.05767153576016426, -0.015336217358708382, -0.03143855929374695, -0.06361572444438934]
[-0.027341634035110474, -0.0894850343465805, 0.0007827719673514366, 0.016059739515185356, -0.08920583873987198, -0.05092649906873703, -0.29130667448043823, -0.019199445843696594, 0.19914868474006653, 0.12491350620985031]
[-0.021196506917476654, 0.02472430095076561, -0.08211030066013336, 0.06374246627092361, 0.07465748488903046, 0.024129144847393036, -0.03898398578166962, -0.11177951097488403, -0.02706979401409626, 0.07265856862068176]
[0.019735774025321007, -0.09316729009151459, -0.0883902907371521, -0.05460819974541664, -0.05923366919159889, -0.026815785095095634, 0.0116448188200593, 0.03328315541148186, 0.005614267196506262, 0.02067536860704422]
[0.07126060128211975, 0.01700105145573616, -0.0641012042760849, 0.07850904762744904, -0.1615959256887436, -0.09790485352277756, -0.07327239960432053, 0.11502593755722046, -0.03600563481450081, 0.0033023750875145197]
[0.035835329443216324, -0.07994608581066132, -0.09843714535236359, 0.0783362090587616, -0.21787473559379578, -0.021624188870191574, -0.0057502263225615025, 0.09943615645170212, -0.03248576447367668, 0.040089961141347885]
[-0.10937279462814331, 0.018993495032191277, 0.0645027607679367, -0.06139269471168518, -0.09706859290599823, 0.10225187242031097, 0.15215623378753662, 0.12653279304504395, -0.1390514075756073, -0.0647522509098053]
[0.007475466001778841, 0.042604293674230576, -0.032633934170007706, -0.08643066138029099, 0.0394555889070034, 0.01927197352051735, 0.14292284846305847, -0.008201589807868004, -0.04821474850177765, -0.022126061841845512]
