[{"name": "conv2d", "type": "Conv2D", "weights": [[[[-0.19507093727588654, 0.17199066281318665, 0.3413040339946747, 0.06084100157022476, -0.3621011972427368, -0.12143556773662567, 0.10800125449895859, -0.49295157194137573, 0.16009703278541565, 0.11897505819797516, -0.20647165179252625, 0.15440310537815094, 0.10624309629201889, -0.1414233148097992, 0.20236915349960327, 0.1910015344619751, -0.3954097628593445, -0.07742910832166672, 0.07759962230920792, 0.003877555951476097, -0.033338598906993866, -0.032692763954401016, -0.27440202236175537, 0.18282252550125122, -0.018290027976036072, -0.30672916769981384, 0.05749640241265297, 0.24071277678012848, -0.19255447387695312, -0.19493907690048218, 0.12453872710466385, 0.11625077575445175]], [[-0.1516754925251007, -0.05365597456693649, 0.16070802509784698, -0.17565873265266418, 0.09878741949796677, 0.14565551280975342, 0.08612282574176788, -0.3274672329425812, 0.04676651209592819, 0.1758720427751541, -0.16252852976322174, 0.1739366203546524, 0.06719296425580978, 0.09871774166822433, 0.2729188799858093, 0.06858690083026886, -0.5034491419792175, -0.30058473348617554, 0.03388737514615059, 0.12315209209918976, 0.000254012702498585, 0.036370959132909775, -0.5471946001052856, 0.2503949701786041, -0.23121275007724762, -0.20312701165676117, 0.0967983677983284, 0.09218700975179672, -0.14414739608764648, -0.32215094566345215, 0.1716347187757492, 0.08877778053283691]], [[0.11872617900371552, 0.01999826915562153, 0.27437564730644226, 0.07052934914827347, 0.2734544277191162, 0.1160249412059784, -0.1743638664484024, -0.02394661121070385, -0.10881176590919495, -0.19732098281383514, 0.2931104004383087, 0.34387362003326416, 0.04259433597326279, 0.1177314817905426, 0.28362512588500977, -0.21904678642749786, -0.6159098744392395, -0.2735881507396698, 0.09656651318073273, 0.07301779836416245, -0.31177082657814026, -0.03563224524259567, -0.006726406514644623, 0.19616807997226715, -0.3926059901714325, 0.0928272232413292, 0.12916499376296997, -0.007219512946903706, -0.07221552729606628, -0.14420683681964874, -0.27314138412475586, -0.0011718375608325005]]], [[[-0.3415265679359436, 0.015538289211690426, 0.19382525980472565, 0.049867454916238785, -0.4641551673412323, 0.1634352207183838, -0.020646026358008385, -0.09163505584001541, 0.11757197231054306, -0.13109201192855835, 0.20123016834259033, 0.11512187868356705, 0.0823003426194191, 0.02464633248746395, 0.2764895558357239, 0.19405482709407806, -0.45430633425712585, 0.10104473680257797, -0.0020414625760167837, 0.2466316521167755, 0.1024961918592453, 0.2238718420267105, -0.47810521721839905, -0.1724499613046646, 0.14755147695541382, -0.2786254584789276, -0.03121231682598591, 0.14179183542728424, 0.13353146612644196, 0.02850542776286602, 0.25625619292259216, -0.16484062373638153]], [[0.09474540501832962, 0.028089474886655807, 0.10659535974264145, 0.0027944790199398994, 0.13510273396968842, 0.2133871614933014, 0.0669766217470169, 0.04552171006798744, 0.10813456028699875, 0.18243464827537537, -0.5303892493247986, 0.18444401025772095, 0.039793506264686584, 0.24761837720870972, 0.03859424963593483, 0.19906312227249146, -0.16664744913578033, 0.1331803798675537, 0.20359916985034943, -0.04086275026202202, 0.13753707706928253, 0.13544869422912598, -0.09752767533063889, 0.14704196155071259, -0.14079540967941284, -0.11328435689210892, 0.16585175693035126, 0.20549499988555908, 0.10231687128543854, 0.2111918181180954, 0.0907556340098381, 0.09227928519248962]], [[0.14174723625183105, 0.1337687373161316, -0.18717552721500397, 0.25453200936317444, 0.24534502625465393, -0.003563906531780958, 0.1716781109571457, 0.11387845128774643, 0.11981328576803207, 0.23881538212299347, -0.43693026900291443, 0.09136879444122314, -0.11846662312746048, 0.09851711988449097, 0.010925929993391037, -0.272072970867157, 0.015231508761644363, 0.17404787242412567, 0.239493727684021, 0.004358349367976189, -0.035733819007873535, 0.05448516458272934, 0.36918383836746216, 0.23570162057876587, -0.003370298771187663, 0.3160318434238434, 0.06189493089914322, -0.38905972242355347, 0.15011818706989288, 0.1230849176645279, -0.44829222559928894, 0.0911313146352768]]], [[[-0.1633315235376358, 0.06894151866436005, -0.12684786319732666, 0.09272627532482147, -0.22306837141513824, 0.15554024279117584, -0.005655067041516304, 0.33446627855300903, -0.17098037898540497, -0.27832627296447754, 0.2730064392089844, -0.33152711391448975, 0.13609525561332703, 0.14673247933387756, -0.43966227769851685, -0.04505174979567528, -0.19104762375354767, 0.06829879432916641, -0.36697518825531006, -0.15452952682971954, -0.18715766072273254, -0.02876782976090908, -0.47421297430992126, -0.42644768953323364, 0.2610073685646057, -0.034030482172966, -0.15100310742855072, 0.27330365777015686, 0.021803118288517, 0.2791880965232849, 0.3726092278957367, -0.17085327208042145]], [[0.11620911210775375, 0.0930478572845459, -0.40325242280960083, 0.027163876220583916, 0.04048769921064377, 0.05700691416859627, 0.049984198063611984, 0.3096136152744293, 0.13356050848960876, -0.0532737597823143, 0.3431796729564667, -0.5322064757347107, 0.19318701326847076, 0.08777860552072525, -0.4376969337463379, 0.05388766899704933, 0.25012779235839844, 0.2086687684059143, -0.20384645462036133, -0.2066248059272766, 0.18422828614711761, -0.09240458160638809, 0.054186128079891205, -0.4037827253341675, 0.30594736337661743, 0.18768410384655, -0.01607814058661461, -0.12797881662845612, 0.0359778068959713, 0.013990761712193489, 0.03403300419449806, -0.13479019701480865]], [[0.22863487899303436, 0.017302338033914566, -0.38197413086891174, -0.1359950453042984, 0.10905348509550095, -0.3353983759880066, -0.021785251796245575, 0.1992877572774887, 0.03397032245993614, 0.11562550067901611, -0.011845851317048073, -0.30635789036750793, 0.11657337099313736, -0.2476557493209839, -0.3623214066028595, -0.2436494529247284, 0.531067967414856, 0.05362997204065323, 0.16709885001182556, -0.011322420090436935, 0.19861853122711182, -0.1910635083913803, 0.21512079238891602, -0.09522384405136108, 0.19148074090480804, 0.3003707826137543, 0.07700123637914658, -0.49888864159584045, 0.014865892939269543, 0.01788213662803173, -0.3697843849658966, 0.2148241549730301]]]], "biases": [-0.011377215385437012, -0.15716327726840973, -0.005136569496244192, -0.10996636003255844, -0.002426542341709137, -0.1601424366235733, -0.12664468586444855, -0.04115178436040878, -0.1498245745897293, -0.10517338663339615, 0.03310347720980644, 0.029909560456871986, -0.12767598032951355, -0.20487786829471588, 0.07445564866065979, -0.040548425167798996, 0.08578363060951233, -0.013899718411266804, -0.12953397631645203, -0.06510478258132935, -0.07321225106716156, -0.043205972760915756, 0.16371439397335052, -0.007475255988538265, -0.016538582742214203, -0.024623049423098564, -0.14418135583400726, -0.024264683946967125, -0.032787516713142395, -0.020287033170461655, -0.005833309609442949, -0.09802360087633133]}, {"name": "max_pooling2d", "type": "MaxPooling2D"}, {"name": "conv2d_1", "type": "Conv2D", "weights": [[[[-0.14066775143146515, -0.01033370103687048, 0.019883165135979652, 0.19242353737354279, -0.12150708585977554, -0.060073625296354294, 0.09000304341316223, 0.26181259751319885, -0.1681738644838333, 0.1337583363056183, -0.08391662687063217, -0.11453035473823547, -0.0133132953196764, -4.297529812902212e-05, -0.08505059033632278, -0.0826108530163765, 0.016553349792957306, -0.05338241159915924, 0.05315173789858818, -0.15568619966506958, -0.055351756513118744, 0.1501512974500656, 0.13291038572788239, 0.055954232811927795, -0.01931873708963394, 0.0024955898988991976, -0.045999862253665924, -0.014630605466663837, 0.027278926223516464, 0.07209393382072449, -0.030983271077275276, -0.18028487265110016, -0.08412040024995804, 0.09373794496059418, 0.13697142899036407, -0.1369820386171341, -0.20482218265533447, 0.050503794103860855, 0.09936890751123428, 0.14609335362911224, -0.15762558579444885, -0.08784419298171997, -0.06040754169225693, 0.09345245361328125, -0.12358615547418594, -0.10594382882118225, 0.12230095267295837, -0.1820199191570282, 0.020048897713422775, 0.07311294227838516, -0.07775488495826721, -0.0882820263504982, -0.08928114175796509, 0.08300640434026718, 0.020494870841503143, -0.11582111567258835, 0.045606277883052826, 0.05602481961250305, -0.19152671098709106, 0.11998125165700912, 0.006913667544722557, 0.06718794256448746, 0.19962701201438904, -0.1450103223323822], [-0.0818902924656868, 0.03298344835639, -0.08686380833387375, 0.0647568628191948, 0.10428489744663239, 0.03560110554099083, -0.00144803780131042, 0.0389087051153183, -0.03012094274163246, 0.06002895534038544, 0.0024748581927269697, -0.02208908647298813, -0.0899110734462738, -0.028961993753910065, 0.040815286338329315, 0.003933267667889595, 0.031019000336527824, -0.008128042332828045, 0.0365309901535511, 0.07216919958591461, 0.10717828571796417, 0.05300508439540863, -0.004671319853514433, 0.08629562705755234, -0.13211339712142944, -0.11696402728557587, -0.05299052596092224, 0.09816952049732208, 0.07599195092916489, -0.015859749168157578, 0.05802229791879654, 0.07742305099964142, 0.05372593551874161, -0.057804983109235764, -0.03889702633023262, -0.026243794709444046, 0.09997526556253433, -0.15289147198200226, -0.12203378975391388, -0.007477783132344484, 0.11861451715230942, 0.07881760597229004, -0.02987094782292843, 0.04480449855327606, -0.2396162450313568, -0.02687240019440651, 0.019273821264505386, -0.03987766057252884, -0.08410543948411942, 0.03368653357028961, -0.054520461708307266, -0.1270599067211151, 0.013601142913103104, 0.11926934868097305, -0.08708071708679199, -0.147161066532135, 0.05733924359083176, 0.03382415324449539, -0.10752584040164948, -0.06445900350809097, -0.008950438350439072, 0.04852348193526268, -0.1084492951631546, 0.006186220794916153], [0.24769650399684906, 0.045217886567115784, 0.018634255975484848, 0.07595524936914444, 0.048011016100645065, -0.349684476852417, -0.2362886220216751, -0.06198088824748993, 0.12110929936170578, -0.06597605347633362, 0.10894062370061874, -0.2005297690629959, -0.06643645465373993, 0.17929202318191528, -0.35455796122550964, 0.052443936467170715, -0.06047509238123894, -0.014490797184407711, 0.1945406049489975, 0.08365129679441452, -0.0625133141875267, -0.11808613687753677, -0.11548599600791931, 0.029605740681290627, -0.03446231782436371, -0.1332925409078598, -0.013150256127119064, -0.006522852461785078, -0.18676862120628357, 0.009740195237100124, 0.06840427219867706, -0.025575216859579086, -0.06961549818515778, -0.017579147592186928, 0.016066808253526688, -0.1649370640516281, -0.23141708970069885, 0.006323875393718481, 0.1416987031698227, -0.08259710669517517, -0.04882782697677612, 0.1451781988143921, -0.15067270398139954, -0.04602387547492981, -0.2766924500465393, -0.19708381593227386, 0.10152848809957504, 0.0850372165441513, -0.0838288888335228, -0.15225587785243988, -0.16570472717285156, -0.19900402426719666, -0.052901651710271835, 0.030061105266213417, -0.07038072496652603, -0.12726128101348877, -0.07895372062921524, -0.024947136640548706, 0.10335181653499603, -0.023558879271149635, -0.012598068453371525, -0.09911502152681351, -0.01957527920603752, 0.013561254367232323], [-0.02890833467245102, 0.035895273089408875, 0.11537100374698639, 0.0705559179186821, 0.1525309979915619, 0.011270996183156967, 0.030240874737501144, -0.03334664925932884, 0.0642218068242073, -0.0118956184014678, -0.032738056033849716, 0.00014666345668956637, -0.07616680860519409, -0.042334429919719696, 0.06567483395338058, 0.0395791195333004, 0.11883792281150818, 0.03434201702475548, 0.014344112947583199, -0.04728040471673012, -0.019163191318511963, 0.06980633735656738, -0.04532681405544281, 0.07473652809858322, -0.05963314324617386, -0.1167706772685051, -0.016446532681584358, 0.001260366290807724, 0.025455715134739876, 0.039163555949926376, -0.10951041430234909, -0.0868900939822197, -0.017370332032442093, 0.048102688044309616, -0.05066545307636261, -0.06085999682545662, 0.040429458022117615, -0.01371788326650858, -0.08962427824735641, 0.08436951786279678, 0.12050817161798477, -0.03216104954481125, 0.026962105184793472, 0.06901204586029053, -0.3067532181739807, -0.08622031658887863, 0.10067802667617798, -0.05341525003314018, -0.06810720264911652, 0.040177445858716965, -0.0987943634390831, -0.07891645282506943, 0.05400560796260834, -0.012587971985340118, -0.049679022282361984, -0.14834719896316528, -0.04711723327636719, 0.039792586117982864, -0.1862354576587677, -0.04600590839982033, -0.03421703353524208, 0.017876511439681053, -0.039726100862026215, -0.029388459399342537], [-0.030439510941505432, 0.0907205268740654, -0.11260811239480972, 0.06849897652864456, -0.21503262221813202, -0.20164522528648376, 0.12084095180034637, 0.25879842042922974, -0.15823140740394592, 0.27782630920410156, 0.04430733993649483, -0.014410736970603466, -0.03276389464735985, -0.022863347083330154, -0.012075231410562992, -0.02450782246887684, -0.004103857558220625, -0.0006911305827088654, 0.06814996898174286, -0.11238477379083633, 0.01951029896736145, 0.13474878668785095, -0.006112467963248491, 0.08218301832675934, 0.1712762415409088, 0.09318406134843826, -0.28108733892440796, 0.16835980117321014, -0.04373372718691826, 0.16475965082645416, -0.19425790011882782, 0.03201683238148689, -0.015018773265182972, 0.08836913853883743, 0.1001196876168251, -0.24096447229385376, -0.07490688562393188, 0.18826939165592194, 0.0444536991417408, 0.08319111913442612, -0.1983930617570877, -0.12411647289991379, -0.029804708436131477, 0.05900982394814491, -0.15519772469997406, -0.0665852278470993, 0.1081010103225708, -0.1197255402803421, 0.0038346010260283947, 0.11757471412420273, 0.013449808582663536, -0.05974218249320984, -0.06653076410293579, -0.0012977315345779061, 0.01247587613761425, -0.22755514085292816, -0.06803513318300247, -0.014279321767389774, -0.1897246539592743, 0.0421907976269722, -0.04301811754703522, 0.1367042511701584, 0.12575678527355194, 0.03755870461463928], [-0.04777758568525314, 0.16403871774673462, 0.049322810024023056, 0.10604485869407654, 0.057764794677495956, -0.044072821736335754, 0.10485648363828659, 0.13130700588226318, 0.019463373348116875, 0.10027122497558594, -0.012621103785932064, -0.03274916857481003, 0.011966581456363201, 0.004036886617541313, -0.008630536496639252, 0.06761153042316437, -0.03081490658223629, 0.0419466458261013, 0.1366097331047058, 0.04991401359438896, -0.052333030849695206, -0.033725712448358536, -0.00601597735658288, 0.06427768617868423, -0.08100353181362152, -0.1612662822008133, -0.09103642404079437, -0.0339900366961956, 0.04882200434803963, -0.02291647158563137, -0.016762113198637962, 0.031993232667446136, 0.020446693524718285, -0.12783004343509674, -0.01956348493695259, -0.08909662812948227, -0.07422099262475967, -0.03342926502227783, -0.007443773094564676, 0.011415904387831688, 0.06382445991039276, 0.004127508495002985, 0.11047951877117157, -0.043171461671590805, -0.23029009997844696, -0.14584527909755707, 0.10213202983140945, 0.023809051141142845, -0.10801075398921967, 0.05370301380753517, -0.1769704669713974, -0.10724178701639175, 0.028721027076244354, 0.12705223262310028, -0.14838741719722748, -0.0668565109372139, -0.0518307164311409, 0.13043422996997833, -0.11009196937084198, -0.03117784857749939, -0.21073786914348602, -0.036212481558322906, -0.15760156512260437, 0.043519116938114166], [0.062074173241853714, 0.005979747977107763, -0.005082633811980486, 0.010886174626648426, 0.12397755682468414, -0.08110509067773819, -0.02577710710465908, -0.03606380149722099, -0.042870018631219864, -0.004528699442744255, -0.08334948867559433, 0.0277976356446743, 0.07789778709411621, -0.042920298874378204, 0.1067909523844719, 0.03732706606388092, -1.4013494364917278e-08, -0.003265602048486471, 0.0599379763007164, -0.039103612303733826, 0.11406167596578598, -0.05146162584424019, -0.016197247430682182, -0.05963269993662834, -0.10809361189603806, -0.13771268725395203, 0.02530982717871666, 0.04064753279089928, 0.05394505709409714, 0.046537965536117554, -0.05783349648118019, 0.11557872593402863, -0.0019300223793834448, 0.03751080483198166, -0.09627283364534378, 0.04797867313027382, 0.02939530648291111, -0.0090746795758605, -0.033098477870225906, -0.05182643234729767, 0.08573854714632034, 0.04383936896920204, 0.09988514333963394, -0.10414790362119675, -0.17026330530643463, -0.004770193248987198, -0.019047051668167114, -0.04540078714489937, -0.010394005104899406, -0.012175507843494415, -0.0041199601255357265, -0.033911317586898804, 0.12157677859067917, 0.08600039035081863, -0.07957664132118225, -0.08573645353317261, -0.006153384689241648, 0.08496450632810593, -0.16590146720409393, -0.03375917673110962, -0.02047514170408249, -0.09040243178606033, -0.04362570866942406, 0.10666842758655548], [-0.24004194140434265, -0.11832431703805923, 0.14193367958068848, -0.005113096442073584, -0.07403034716844559, 0.2343805581331253, -0.10235028713941574, -0.022671440616250038, 0.049878332763910294, 0.13690634071826935, -0.14667908847332, -0.0396650955080986, 0.002619511913508177, 0.0620642714202404, -0.12270507961511612, -0.04167787730693817, 0.047341518104076385, 0.08609475940465927, -0.011277558282017708, -0.022029725834727287, -0.074256032705307, 0.034027259796857834, 0.05857929587364197, 0.0008708880050107837, -0.13422177731990814, -0.1258203238248825, 0.11737488210201263, -0.07035072892904282, 0.0636165589094162, -0.14467446506023407, -0.1274266391992569, -0.14204847812652588, 0.21596001088619232, 0.16473644971847534, -0.15578830242156982, 0.09576818346977234, -0.11320799589157104, -0.26886269450187683, 0.049501415342092514, -0.002332070143893361, -0.00569559633731842, -0.1530332863330841, -0.005503265652805567, 0.11621323227882385, -0.015507310628890991, 0.10469011962413788, 0.0868927463889122, -0.08467211574316025, -0.13054801523685455, -0.014077859930694103, -0.15681643784046173, -0.10107097029685974, -0.07479571551084518, -0.14753678441047668, -0.06936053186655045, 0.19424037635326385, -0.02329191379249096, -0.06155407801270485, 0.02876240201294422, -0.13950730860233307, 0.07808788865804672, 0.024006778374314308, 0.1153038963675499, -0.04956257715821266], [-0.00015061485464684665, 0.06594807654619217, -0.1474490910768509, -0.0578230656683445, 0.1388217955827713, -0.08493184298276901, -0.021298781037330627, 0.04547720402479172, -0.047064702957868576, -0.03594110161066055, 0.04281314089894295, 0.05739269778132439, -0.03921705111861229, -0.004508706741034985, 0.1542653739452362, 0.011293387971818447, 0.026859743520617485, 0.029445689171552658, -0.06688600033521652, 0.0005312286084517837, 0.11714610457420349, 0.028408635407686234, -0.07327694445848465, 0.11000172793865204, 0.027935035526752472, -0.1980421096086502, 0.04343458265066147, 0.10264916718006134, -0.06823275983333588, 0.05667198821902275, 0.02293439209461212, 0.034392405301332474, 0.058938488364219666, -0.0562053807079792, -0.07027232646942139, -0.03404942527413368, 0.06459193676710129, -0.048084598034620285, -0.075539730489254, -0.02628006413578987, 0.041502416133880615, -0.007500584237277508, 0.08471042662858963, -0.11847902089357376, -0.2889886498451233, 0.019302628934383392, 0.06103765591979027, -0.06709281355142593, 0.030046021565794945, 0.04592079296708107, -0.09122549742460251, -0.08950021862983704, 0.12883153557777405, 0.06905866414308548, -0.1800733059644699, -0.2282140851020813, -0.021400442346930504, -0.020744841545820236, -0.1074269488453865, -0.008322229608893394, -0.04806236922740936, 0.048348937183618546, -0.13121478259563446, 0.025770852342247963], [0.2143194079399109, -0.06373216211795807, -0.062051545828580856, -0.11554636061191559, -0.06015608459711075, -0.06993261724710464, 0.055833086371421814, -0.018535854294896126, -0.006369130220264196, 0.10240079462528229, 0.05718441307544708, 0.04502927139401436, 0.08253470063209534, -0.14391161501407623, 0.08246166259050369, -0.006645780988037586, 0.04668978229165077, 0.010337583720684052, -0.05709980055689812, -0.09718123078346252, 0.06282729655504227, 0.014039483852684498, -0.057789646089076996, 0.021137526258826256, 0.10366761684417725, -0.11715862900018692, 0.056936778128147125, 0.07043520361185074, -0.019439909607172012, 0.1745172142982483, -0.009423956274986267, 0.20174024999141693, -0.048731520771980286, 0.06024850159883499, -0.05632377788424492, -0.01728723756968975, 0.10371837019920349, 0.05020267516374588, -0.030827568843960762, -0.0021578948944807053, -0.039853811264038086, 0.126828134059906, -0.06290780007839203, -0.09490612894296646, -0.3039865791797638, 0.014723989181220531, -0.10536912083625793, -0.03884752094745636, -0.03703312948346138, 0.1319226622581482, 0.035229284316301346, -0.07596082240343094, 0.13130800426006317, 0.11158733069896698, -0.2299097329378128, -0.16650396585464478, 0.0016270480118691921, 0.11528792977333069, -0.10960085690021515, 0.08257704973220825, -0.07151910662651062, 0.009095107205212116, -0.08870276808738708, 0.09139497578144073], [0.26073914766311646, -0.2309832125902176, 0.1050734743475914, -0.460400253534317, -0.24602952599525452, 0.39002344012260437, -0.23395109176635742, -0.15300710499286652, -0.0942443236708641, -0.12979817390441895, -0.016537386924028397, -0.14326559007167816, -0.001127403462305665, 0.0895514041185379, -0.1442600041627884, 0.06307406723499298, -0.054340798407793045, -0.11047666519880295, 0.16331066191196442, -0.02830072119832039, 0.2212933450937271, 0.2172631025314331, 0.1563659906387329, -0.07870888710021973, 0.030685503035783768, -0.14750224351882935, 0.059707313776016235, 0.06625953316688538, -0.017536470666527748, -0.14609187841415405, 0.03249458223581314, 0.09234612435102463, -0.1703817993402481, 0.10686763375997543, -0.14173340797424316, 0.2465507984161377, 0.05913238227367401, -0.056814346462488174, -0.10648474097251892, -0.11065181344747543, -0.09655830264091492, -0.11902865022420883, 0.04118023067712784, 0.14041347801685333, 0.08741068840026855, 0.293950617313385, -0.4317270815372467, 0.11941906809806824, 0.040417857468128204, 0.021929247304797173, 0.020971758291125298, -0.011031338013708591, 0.0796811506152153, 0.13979943096637726, -0.016253553330898285, 0.27850332856178284, 0.0428970642387867, 0.10344146937131882, 0.047974590212106705, -0.11276530474424362, -0.05347137525677681, 0.10659494996070862, 0.0008596840198151767, -0.12478311359882355], [0.30934038758277893, -0.21523484587669373, 0.03170531615614891, -0.2659233808517456, -0.25672462582588196, -0.36472800374031067, -0.3367469906806946, 0.04163088649511337, 0.01705283485352993, -0.21913662552833557, 0.03175068646669388, -0.21517467498779297, 0.0978144034743309, 0.052937522530555725, -0.2929159700870514, -0.11898291856050491, -0.3049030601978302, -0.11924394965171814, -0.03538985922932625, -0.014561768621206284, 0.07642363756895065, -0.043621763586997986, -0.13725093007087708, -0.10801948606967926, -0.0009120894246734679, -0.22058965265750885, -0.034697480499744415, 0.09193740040063858, -0.07044687122106552, 0.078385129570961, 0.15826378762722015, 0.015313259325921535, 0.12058423459529877, -0.059854961931705475, 0.06965488195419312, -0.04534252732992172, -0.1307799518108368, 0.06983083486557007, 0.04308835789561272, -0.07170549780130386, -0.20457430183887482, -0.09740594029426575, -0.13635389506816864, -0.041882507503032684, -0.05580025538802147, 0.07954283058643341, -0.09421660006046295, 0.19262397289276123, -0.07600066810846329, -0.010599859058856964, 0.028633447363972664, -0.26811525225639343, -4.481538780964911e-06, -0.2918104827404022, -0.17161986231803894, -0.016598545014858246, -0.006961266044527292, -0.1701837182044983, 0.07012351602315903, 0.011548089794814587, -0.05711490288376808, -0.006883030757308006, -0.008652257733047009, -0.05046519637107849], [-0.04342666640877724, 0.09546732902526855, 0.019627833738923073, 0.0831904411315918, 0.08478930592536926, -0.0015673130983486772, -0.0361580066382885, 0.04328241944313049, 0.08733809739351273, 0.00038266819319687784, -0.00037382327718660235, 0.09508609771728516, 0.06071189045906067, 0.03739514574408531, 0.07454660534858704, 0.06289078295230865, 0.020562462508678436, -0.019293487071990967, 0.05841532722115517, 0.02527542971074581, 0.073955237865448, -0.017066767439246178, 0.02041678875684738, 0.03240093216300011, -0.08734240382909775, -0.12427797168493271, 0.047629453241825104, -0.005775900557637215, -0.01889824867248535, -0.09333241730928421, 0.037170786410570145, -0.04458707943558693, 0.05116675794124603, -0.03459171950817108, -0.0008890923927538097, 0.019398299977183342, 0.05689345300197601, 0.005498371087014675, -0.09066750854253769, 0.03845652937889099, 0.15534259378910065, 0.05920187756419182, 0.07774314284324646, 0.042819563299417496, -0.22213025391101837, 0.06718920171260834, -0.016104411333799362, -0.016605619341135025, -0.08586254715919495, 0.02587863989174366, -0.18908439576625824, -0.06629518419504166, -0.024190180003643036, 0.14451415836811066, -0.13869352638721466, -0.12233500182628632, 0.012174898758530617, 0.08647406846284866, -0.02114837057888508, 0.06284777820110321, -0.10842310637235641, 0.010875150561332703, -0.12790633738040924, -0.003979302942752838], [-0.06394962966442108, 0.027762724086642265, -0.05202643573284149, 0.21308432519435883, 0.12919044494628906, -0.15379035472869873, 0.14253665506839752, 0.02977462112903595, -0.008203687146306038, -0.02003335952758789, -0.04042847082018852, -0.0314144641160965, -0.022814536467194557, 0.005224206484854221, 0.07994624227285385, -0.028978925198316574, 0.05843730270862579, -0.058199383318424225, 0.10653656721115112, 0.06752149015665054, 0.033587295562028885, -0.013602291233837605, -0.11745873838663101, 0.04511737823486328, -0.13135193288326263, -0.19782207906246185, -0.02181984670460224, 0.07075092941522598, -0.006521616131067276, -0.011323433369398117, 0.022635016590356827, -0.019406257197260857, 0.09174267947673798, 0.040062613785266876, -0.05703029781579971, -0.04110321030020714, -0.009771022945642471, -0.07934292405843735, -0.06326743960380554, 0.08730164170265198, 0.06610474735498428, 0.08704850822687149, 0.13386204838752747, -0.04394835978746414, -0.35646599531173706, -0.11445612460374832, 0.14788255095481873, 0.056765347719192505, -0.09394383430480957, 0.02776935137808323, -0.08899085968732834, -0.2055695652961731, -0.06692463904619217, 0.011412348598241806, -0.265724778175354, -0.14493773877620697, -0.0681590586900711, 0.0879032239317894, -0.19089137017726898, 0.08955437690019608, -0.14519022405147552, 0.06100069731473923, -0.057813677936792374, 0.027327127754688263], [0.16691595315933228, -0.09661555290222168, -0.03467204049229622, -0.1258520632982254, -0.21868139505386353, -0.4512312710285187, -0.2931000292301178, -0.08303748816251755, 0.085972860455513, -0.22529229521751404, 0.06433425843715668, -0.10978338122367859, 0.07267026603221893, 0.010684588924050331, -0.26321759819984436, -0.012037219479680061, -0.2878739535808563, -0.09195715934038162, 0.009611309505999088, -0.07250985503196716, 0.01716640591621399, 0.0034760518465191126, -0.046101875603199005, 0.017662161961197853, 0.0025362034793943167, -0.10418358445167542, 0.02250935137271881, 0.003197351936250925, -0.08222799748182297, -0.07000964134931564, 0.07105625420808792, 0.03453794866800308, 0.004405757412314415, -0.14166370034217834, -0.020243052393198013, -0.20529285073280334, -0.22073478996753693, 0.03184235095977783, 0.06998059153556824, -0.03774619847536087, -0.11858072876930237, 0.010565025731921196, -0.2296835035085678, -0.11821601539850235, -0.24955542385578156, -0.12601692974567413, -0.09712972491979599, 0.08765720576047897, -0.09921085834503174, -0.10319813340902328, -0.07708877325057983, -0.13649336993694305, -0.09312550723552704, -0.19475585222244263, -0.2073066681623459, 0.004851015284657478, -0.07513876259326935, -0.1376122534275055, 0.0351797379553318, -0.015418535098433495, 0.028900450095534325, -0.11596554517745972, 0.0025400633458048105, -0.1113191545009613], [-0.09701978415250778, 0.1494627743959427, 0.05052148550748825, 0.11635787785053253, 0.10373900085687637, -0.11546853184700012, 0.008735253475606441, -0.014138546772301197, 0.10345447063446045, -0.010126043111085892, -0.004887955728918314, -0.00031844794284552336, -0.016381394118070602, -0.031642064452171326, 0.08923456072807312, 0.13307631015777588, 0.11356689035892487, 0.040974054485559464, 0.004101259633898735, 0.14371180534362793, 0.048406992107629776, -0.02420426532626152, -0.0412931852042675, 0.008330315351486206, -0.07941816747188568, -0.17372778058052063, -0.0015241072978824377, 0.04418826103210449, -0.041398610919713974, -0.029893385246396065, 0.07684600353240967, 0.0823846161365509, -0.14367836713790894, -0.09539784491062164, 0.09240127354860306, 0.045231446623802185, 0.021779008209705353, -0.05789761617779732, -0.02358332835137844, 0.004761393181979656, 0.031632136553525925, -0.004836633801460266, 0.09689261019229889, -0.14115580916404724, -0.3725842833518982, 0.011439881287515163, 0.10068719834089279, -0.034724265336990356, 0.05641654133796692, -0.03913995623588562, -0.10878273844718933, -0.1454298496246338, 0.0732942670583725, 0.19438724219799042, -0.21873459219932556, -0.1266251802444458, 0.032281242311000824, 0.09185537695884705, -0.056086838245391846, 0.029457634314894676, -0.07825446873903275, 0.013609843328595161, -0.09043973684310913, 0.06320546567440033], [-0.3209509253501892, -0.24693655967712402, 0.11034929752349854, 0.11758719384670258, -0.08225551247596741, 0.18207432329654694, -0.041021596640348434, -0.09383534640073776, -0.08815598487854004, -0.03884860873222351, -0.12053750455379486, -0.12821714580059052, -0.0769580751657486, -0.18579168617725372, -0.19483177363872528, -0.09018599987030029, 0.04418221116065979, 0.02126847207546234, -0.1902296543121338, -0.13894252479076385, -0.13212260603904724, -0.07688501477241516, 0.07998394966125488, -0.02022401988506317, -0.15276171267032623, -0.022040976211428642, 0.011223919689655304, -0.3156898021697998, -0.1422206610441208, -0.06347833573818207, -0.10224487632513046, -0.10746379941701889, -0.019128266721963882, -0.01096383947879076, 0.02611333318054676, -0.021179581061005592, -0.15544810891151428, -0.3867340385913849, -0.1249258741736412, 0.012513723224401474, -0.02278127707540989, -0.2715636193752289, -0.20138029754161835, -0.03550444543361664, 0.08744484931230545, -0.029330341145396233, 0.22163282334804535, -0.01508552860468626, -0.06471395492553711, -0.041470907628536224, -0.2565300166606903, -0.05187733471393585, 0.029608868062496185, 0.12928368151187897, 0.02706705965101719, 0.16131697595119476, -0.0697026178240776, -0.04885511100292206, -0.059803999960422516, 0.07699337601661682, 0.1341160088777542, -0.15729683637619019, 0.09248583763837814, -0.1974601000547409], [-0.198160782456398, -0.1502736508846283, 0.15917076170444489, -0.01209172047674656, 0.046213746070861816, 0.21290291845798492, 0.04941612109541893, -0.0447453148663044, 0.010582073591649532, 0.08028577268123627, -0.20139120519161224, 0.04263877496123314, 0.08465526252985, -0.009178980253636837, 0.04024818167090416, -0.07538699358701706, 0.03149961680173874, -0.057837579399347305, 0.14336727559566498, 0.01962514966726303, -0.08300552517175674, 0.12866324186325073, 0.06258829683065414, -0.10826746374368668, -0.24919649958610535, -0.11622448265552521, 0.1224193349480629, 0.009705062955617905, -0.049335651099681854, -0.10734649747610092, -0.10876493901014328, -0.05350195989012718, 0.06463564187288284, -0.017878642305731773, -0.18773534893989563, 0.10442200303077698, 0.013407517224550247, -0.23782028257846832, -0.10392465442419052, 0.05529247969388962, -0.0339050218462944, -0.11448747664690018, -0.009058577008545399, -0.05837978795170784, -0.1445685625076294, 0.09488479048013687, 0.0724569633603096, -0.05403188616037369, -0.02262469008564949, -0.03417785465717316, -0.09730491042137146, -0.036828525364398956, 0.02639707550406456, 0.09288989007472992, -0.03767530992627144, 0.09521619230508804, 0.060180723667144775, 0.05148718133568764, -0.11984878778457642, -0.038699354976415634, 0.03455091640353203, -0.13121819496154785, -0.04714440554380417, 0.11164572089910507], [0.16970738768577576, -0.07804982364177704, -0.12899838387966156, -0.11796969920396805, 0.02110440470278263, -0.15124747157096863, 0.041431330144405365, 0.01630559377372265, 0.04572137072682381, 0.11570031195878983, 0.11580659449100494, 0.05032315105199814, 0.05408952012658119, -0.11985565721988678, 0.10704609006643295, -0.025514815002679825, -0.06989623606204987, 0.02204350009560585, -0.05472824349999428, -0.1017826572060585, 0.15244324505329132, 0.05288296565413475, -0.11200327426195145, -0.011103661730885506, 0.03086674027144909, -0.0451618954539299, 0.06122949719429016, 0.06289320439100266, -0.0221518836915493, 0.08242600411176682, 0.057506803423166275, 0.11949852854013443, 0.04921061545610428, -0.09739811718463898, -0.05607077479362488, -0.07358810305595398, 0.06761584430932999, 0.10525418072938919, -0.019660908728837967, -0.018436651676893234, 0.030965128913521767, 0.11962305009365082, -0.0019444464705884457, 0.031435560435056686, -0.3048969805240631, 0.09884985536336899, -0.007853586226701736, -0.021645046770572662, -0.04083416238427162, -0.01600976474583149, 0.09394033253192902, -0.09151753038167953, 0.1060277670621872, 0.007875471375882626, -0.11540422588586807, -0.2821824252605438, -0.08157758414745331, 0.0045721642673015594, -0.19016705453395844, 0.07695735991001129, -0.011272698640823364, 0.023474646732211113, -0.09386904537677765, 0.0562288835644722], [0.0960468128323555, 0.0063646030612289906, -0.055225588381290436, -0.06747441738843918, -0.00019876261649187654, -0.22026985883712769, -0.10177549719810486, 0.05699671804904938, -0.01981250010430813, -0.023218274116516113, -0.01799091137945652, -0.12989187240600586, 0.048894576728343964, -0.04479808360338211, -0.08133304864168167, -0.08025562018156052, -0.06879442185163498, -0.03032303974032402, 0.007797428406774998, -0.007555789314210415, 0.040605708956718445, -0.024825766682624817, -0.030192453414201736, 0.08776333928108215, -0.12984558939933777, -0.2072049379348755, -0.016896530985832214, 0.09534938633441925, -0.030251583084464073, 0.014324952848255634, 0.0753210112452507, -0.0006841548020020127, 0.09370903670787811, -0.14378394186496735, -0.026960665360093117, -0.0621902160346508, -0.018403684720396996, 0.052699584513902664, 0.07796671986579895, 0.04919802024960518, 0.032829079777002335, 0.00047700200229883194, -0.012792572379112244, -0.10401492565870285, -0.2835961878299713, -0.010888851247727871, 0.06002344191074371, 0.04183868691325188, -0.04802264645695686, -0.08674950897693634, -0.06471812725067139, -0.1871468424797058, 0.09784555435180664, -0.09797787666320801, -0.20876319706439972, -0.173516184091568, 0.03716417774558067, 0.06523796170949936, 0.07663621008396149, -0.029485007748007774, -0.11210349202156067, -0.020559750497341156, -0.08251878619194031, 0.003849889151751995], [-0.10760020464658737, -0.0864802673459053, 0.010791614651679993, -0.12251130491495132, 0.03329356759786606, 0.04713461175560951, 0.09055419266223907, -0.06994906812906265, -0.06381785869598389, 0.0327020138502121, -0.10018960386514664, 0.06379620730876923, 0.02525072917342186, -0.013788781128823757, 0.05100119113922119, 0.019086327403783798, -0.01499173603951931, 0.059103723615407944, 0.03775367513298988, -0.02171301655471325, 0.06562653183937073, 0.14011751115322113, 0.06066352128982544, -0.07071759551763535, -0.08254475891590118, -0.14027854800224304, 0.03695048391819, -0.012039555236697197, 0.015743305906653404, 0.07375188171863556, 0.01993037946522236, 0.10992089658975601, 0.06845355778932571, -0.001999575411900878, -0.0658348873257637, 0.07012971490621567, 0.002617927035316825, -0.08562878519296646, -0.04166197031736374, 0.05259912088513374, 0.031394049525260925, 0.004795808345079422, -0.006398322526365519, -0.058743737637996674, -0.014609025791287422, 0.04241197556257248, -0.018074870109558105, -0.01195391546934843, -0.0927717313170433, -0.02839825116097927, -0.07400262355804443, -0.13892599940299988, 0.007017431315034628, 0.10286904871463776, -0.09262266755104065, -0.02065204828977585, 0.010594096966087818, 0.025793833658099174, -0.08644979447126389, -0.05053084343671799, 0.02185114659368992, 0.028599238023161888, 0.0027947290800511837, 0.054005373269319534], [0.07850112020969391, 0.11523135751485825, -0.019739501178264618, -0.0046017467975616455, 0.12538698315620422, -0.056125152856111526, 0.03224027901887894, 0.07715457677841187, 0.1400035321712494, 0.040599722415208817, -0.00021639533224515617, -0.0024572527036070824, -0.03764273226261139, 0.04666505381464958, -0.09838376939296722, 0.05608515813946724, -0.04213331639766693, 0.0018891305662691593, 0.08304896950721741, 0.07693411409854889, 0.08378083258867264, 0.03984933719038963, -0.13047072291374207, -0.03605716675519943, -0.12217079102993011, -0.2295200228691101, -0.013732020743191242, 0.13526393473148346, -0.011839846149086952, 0.04861857742071152, -0.002538559027016163, 0.10856814682483673, -0.009704649448394775, -0.03041449747979641, -0.008250337094068527, -0.12456952780485153, 0.06160054728388786, -0.009153952822089195, -0.04080639407038689, -0.06452514976263046, 0.128980815410614, 0.09679576754570007, 0.08873322606086731, -0.12386837601661682, -0.38451477885246277, -0.059751130640506744, 0.05187681317329407, -0.043531227856874466, 0.019550129771232605, -0.06304848939180374, -0.15900905430316925, -0.1709602028131485, 0.10313118249177933, 0.0927891880273819, -0.12217101454734802, -0.09594031423330307, -0.07379952073097229, 0.07453695684671402, 0.009908085688948631, -0.01279926486313343, -0.19434627890586853, -0.15668067336082458, -0.12598565220832825, 0.1567525863647461], [-0.17366109788417816, -0.05907449498772621, -0.0051757111214101315, 0.2509201765060425, -0.10116074234247208, 0.0685419887304306, 0.1068919375538826, 0.10386095196008682, -0.10132870823144913, 0.196291983127594, -0.033580537885427475, -0.03696154057979584, -0.21052159368991852, -0.15970304608345032, -0.021436678245663643, -0.3229422867298126, 0.07712193578481674, -0.11609690636396408, -0.19031326472759247, -0.19061440229415894, -0.21750037372112274, 0.042294103652238846, -0.09001617133617401, 0.16711853444576263, 0.08456969261169434, 0.06971753388643265, -0.14677448570728302, -0.076905257999897, -0.04579082503914833, -0.0032884979154914618, -0.2471579760313034, -0.17191360890865326, 0.0008321886998601258, -0.09096983820199966, 0.059854526072740555, -0.19544172286987305, -0.1776982694864273, 0.031119173392653465, 0.06918765604496002, -0.07314074039459229, -0.25602999329566956, -0.12174326926469803, -0.19961823523044586, 0.08258577436208725, -0.0640021562576294, -0.08201554417610168, 0.16307702660560608, -0.04706326127052307, -0.04688999056816101, -0.08495944738388062, -0.056799210608005524, -0.0342341884970665, -0.053471602499485016, 0.1119908019900322, -0.053921088576316833, -0.13211679458618164, 0.02819325216114521, -0.14254672825336456, 0.00697660818696022, 0.016222845762968063, -0.06534925848245621, -0.08690911531448364, 0.15104863047599792, -0.2936433255672455], [0.3484600782394409, -0.23316656053066254, -0.05555390194058418, -0.3183495104312897, -0.24250032007694244, -0.2975565195083618, -0.24149461090564728, 0.07529853284358978, 0.06709826737642288, -0.14500544965267181, 0.07749118655920029, -0.1136760488152504, 0.10886438935995102, 0.01980268768966198, -0.12024471908807755, 0.06343309581279755, -0.15296560525894165, -0.09027191996574402, -0.002189776161685586, -0.025537505745887756, 0.06067316606640816, 0.017765777185559273, 0.017494797706604004, 0.09002569317817688, 0.061381980776786804, -0.1809762716293335, -0.04682263359427452, 0.1273685246706009, -0.010460698045790195, 0.13867256045341492, 0.11100848019123077, 0.12898318469524384, -0.03147485852241516, -0.11787807196378708, -0.05534633621573448, -0.019835548475384712, -0.09027998894453049, 0.034934937953948975, 0.07708343863487244, -0.02100384421646595, -0.19416233897209167, 0.040018949657678604, -0.03379252925515175, 0.08247274905443192, -0.265178382396698, 0.09066897630691528, -0.2079528421163559, 0.0996478796005249, 0.01804596185684204, 0.019538938999176025, 0.16736069321632385, -0.2551899552345276, 0.17856082320213318, -0.17485898733139038, -0.05147162824869156, -0.18258363008499146, -0.05090061202645302, -0.058765605092048645, 0.06706247478723526, 0.07606315612792969, 0.06721662729978561, 0.06438539177179337, -0.15761777758598328, -0.04457119107246399], [-0.15780813992023468, -0.11352340131998062, 0.04867252707481384, -0.0402810163795948, -0.0014977515675127506, 0.1943168044090271, 0.03706558793783188, -0.051335591822862625, 0.05016469210386276, 0.045375969260931015, -0.017509642988443375, -0.08536820113658905, 0.015424338169395924, 0.003930548671633005, 0.04705230891704559, -0.011764909140765667, 0.036177024245262146, 0.059004731476306915, 0.06705272942781448, -0.017762789502739906, 0.11163853108882904, 0.16184782981872559, 0.03603385388851166, -0.14604663848876953, -0.19772130250930786, -0.10677575320005417, -0.027331003919243813, -0.1157093271613121, -0.002151045249775052, 0.00017967718304134905, 0.01215451955795288, -0.025674276053905487, 0.1865053027868271, -0.01987900584936142, -0.1370154172182083, 0.18272501230239868, 0.00344599736854434, -0.32026004791259766, -0.13558852672576904, 0.09061809629201889, -0.015734050422906876, -0.023723384365439415, 0.0926927775144577, 0.06812393665313721, -0.03365883231163025, 0.18130868673324585, -0.048380717635154724, 0.046057917177677155, 0.03724971041083336, -0.03409844636917114, -0.21619093418121338, -0.13284946978092194, 0.07216700911521912, 0.21986031532287598, -0.07728877663612366, -0.019999971613287926, -0.04345864802598953, 0.10105951130390167, -0.12981252372264862, -0.07695259153842926, -0.0023766574449837208, -0.0786554217338562, -0.04412958398461342, 0.03830861672759056], [-0.23997659981250763, 0.0069534266367554665, 0.12450072169303894, 0.1247941330075264, -0.02635997347533703, 0.010188998654484749, -0.04860788956284523, 0.16475500166416168, -0.13904273509979248, 0.2014198899269104, -0.12756437063217163, -0.10638617724180222, -0.09048222750425339, -0.006241204217076302, -0.1368618905544281, -0.2656952738761902, 0.030899634584784508, -0.007396288216114044, -0.023177098482847214, -0.04425385966897011, -0.02063937485218048, 0.016929661855101585, 0.032645732164382935, 0.05815450847148895, -0.017509065568447113, 0.023994388058781624, -0.1390785574913025, -0.11209546774625778, 0.07010291516780853, -0.027444925159215927, -0.106470987200737, -0.16757376492023468, 0.08401438593864441, 0.1030745878815651, 0.13650375604629517, -0.1622723937034607, -0.1707162708044052, 0.09439905732870102, 0.061652008444070816, 0.03877333924174309, -0.1004633978009224, -0.04063427448272705, -0.0587412565946579, 0.0011706991354003549, -0.14024055004119873, 0.02659544348716736, 0.07382285594940186, -0.17085909843444824, -0.04458007588982582, 0.026840096339583397, -0.1847160905599594, -0.24614982306957245, -0.13838441669940948, -0.06034364178776741, 0.01643470861017704, 0.03496936708688736, 0.01540370099246502, 0.03867024555802345, -0.05868756026029587, 0.05520934984087944, -0.006035598460584879, -0.013990421779453754, 0.046127863228321075, -0.19140151143074036], [0.12085757404565811, 0.019864175468683243, -0.07059548795223236, -0.028719790279865265, -0.03647491708397865, -0.2599051892757416, -0.0037958428729325533, 0.023691948503255844, 0.046392086893320084, 0.06808707863092422, -0.0033070920035243034, 0.042860519140958786, 0.07215907424688339, -0.06803932785987854, 0.09958673268556595, -0.050166137516498566, -0.07205525785684586, 0.0021161313634365797, 0.04637179896235466, 0.0008236005669459701, 0.09856662154197693, -0.017629913985729218, 0.02078789658844471, 0.018652571365237236, -0.06037764996290207, -0.08437978476285934, -0.06638402491807938, 0.14341691136360168, -0.01708456128835678, 0.019718892872333527, -0.038384515792131424, 0.11523960530757904, 0.07976728677749634, -0.04841860383749008, -0.06906545162200928, -0.1320200115442276, 0.04984133690595627, 0.0752878412604332, -0.00488303555175662, -0.028495661914348602, 0.009681722149252892, 0.03281307965517044, -0.061394140124320984, -0.05356012284755707, -0.3308125436306, 0.04333750903606415, -0.043920136988162994, 0.07874482870101929, -0.021903879940509796, 0.04118633270263672, 0.03935234993696213, -0.18454115092754364, 0.04613780975341797, 0.06167073920369148, -0.25196537375450134, -0.28929200768470764, 0.05522732064127922, -0.04791703075170517, -0.16418956220149994, 0.08559347689151764, -0.03174338862299919, -0.046925436705350876, -0.21118953824043274, -0.011899196542799473], [-0.17149893939495087, 0.21710406243801117, 0.20240628719329834, 0.1954563558101654, 0.03537995368242264, -0.08147868514060974, 0.13080431520938873, 0.04820021614432335, 0.03730286657810211, 0.10396827757358551, 0.07209507375955582, -0.03977540135383606, 0.031942062079906464, 0.052227042615413666, 0.06644666194915771, 0.05571199953556061, 0.18737579882144928, 0.08266277611255646, 0.14979971945285797, 0.08543486148118973, -0.12970754504203796, 0.02634662203490734, -0.13517770171165466, -0.06335059553384781, -0.10496438294649124, -0.07051665335893631, -0.04253732040524483, -0.010444597341120243, -0.14674320816993713, -0.08213818818330765, 0.19241058826446533, -0.1386823207139969, -0.2395813763141632, -0.0408615879714489, 0.14587946236133575, -0.05975755304098129, 0.03568514063954353, 0.006810307037085295, 0.1477586030960083, -0.01444739755243063, 0.010578326880931854, 0.11195877939462662, -0.005162329412996769, 0.04777182638645172, -0.36043810844421387, -0.19754940271377563, 0.10138280689716339, -0.11144057661294937, 0.08932662010192871, -0.0673583373427391, -0.2887725830078125, -0.0902358889579773, 0.02788371965289116, 0.2020978331565857, -0.04273005574941635, -0.15917226672172546, 0.0520036406815052, 0.22034026682376862, -0.046504657715559006, -0.05790039151906967, -0.29684630036354065, -0.01857042871415615, -0.024039480835199356, 0.1592150777578354], [-0.08348870277404785, -0.08848882466554642, 0.10028959810733795, 0.04252040758728981, 0.11304944008588791, 0.08087039738893509, -0.0010778061114251614, 0.06906425207853317, 0.08784086257219315, 0.010548293590545654, -0.05531539022922516, -0.01088801771402359, -0.07543408870697021, -0.1486029475927353, 0.05307973176240921, 0.09069675952196121, 0.10265316069126129, 0.051493849605321884, 0.12686787545681, -0.02196570858359337, -0.011554715223610401, 0.029592040926218033, -0.02933327667415142, 0.012454126961529255, -0.1410115659236908, -0.03284308314323425, 0.10751308500766754, 0.022123273462057114, 0.01640937477350235, 0.01681763306260109, -0.13121679425239563, -0.022830834612250328, 0.05823612958192825, 0.07133646309375763, -0.18243308365345, 0.02925364300608635, -0.07016974687576294, -0.11130181699991226, -0.05362715944647789, -0.03320253640413284, 0.031190749257802963, 0.027525456622242928, 0.023115623742341995, -0.03800070285797119, -0.10781953483819962, 0.008196517825126648, 0.12619781494140625, -0.0565161369740963, -0.06265901029109955, -0.07611281424760818, -0.1301291584968567, 6.256420601857826e-05, 0.055956967175006866, -0.02588079497218132, -0.07170967757701874, 0.0115503566339612, -0.07954206317663193, -0.06922810524702072, -0.06233693286776543, -0.049039725214242935, -0.007266752887517214, -0.07662258297204971, -0.10299397259950638, 0.12300056964159012], [-0.17882293462753296, -0.12115160375833511, 0.17951129376888275, -0.0847674161195755, 0.028860483318567276, 0.26950523257255554, -0.07783257961273193, -0.030065689235925674, 0.035923898220062256, 0.02845636010169983, -0.24244379997253418, -0.021336106583476067, 0.09360650181770325, -0.0070741428062319756, -0.026383427903056145, -0.047312717884778976, -0.05165814608335495, 0.04851241782307625, 0.13025741279125214, -0.005522993393242359, 0.028164023533463478, 0.12840954959392548, 0.032692912966012955, -0.06979335099458694, -0.27178898453712463, -0.10306747257709503, 0.10053718835115433, -0.037412408739328384, -0.010621323250234127, -0.19439542293548584, -0.11002549529075623, -0.030345316976308823, 0.2419765442609787, 0.17471133172512054, -0.28631290793418884, 0.1443859040737152, 0.001785249449312687, -0.3647833466529846, -0.07721760123968124, 0.08037017285823822, 0.001028958591632545, -0.001552423695102334, 0.04172581434249878, 0.0167394932359457, 0.024538610130548477, 0.005842042621225119, 0.08780993521213531, 0.041779227554798126, -0.07360904663801193, -0.0909261554479599, -0.2731432616710663, -0.025815768167376518, 0.003052733838558197, -0.04292988404631615, -0.09154406934976578, 0.055974990129470825, 0.035100508481264114, 0.04305005073547363, -0.015103899873793125, -0.1506679207086563, 0.0014408257557079196, -0.09016547352075577, 0.03569973260164261, 0.10195287317037582], [-0.2761135995388031, 0.08875523507595062, 0.16290068626403809, 0.16692472994327545, 0.05565856024622917, 0.07413636893033981, 0.12202969938516617, 0.13614031672477722, -0.05091936141252518, -0.03321131691336632, 0.037833262234926224, -0.03287781402468681, 0.040407802909612656, -0.015030384063720703, 0.15166425704956055, 0.0086967833340168, 0.2153516560792923, -0.05814192071557045, 0.165218323469162, 0.16203200817108154, -0.06190330535173416, 0.069053515791893, -0.13270550966262817, -0.0241021066904068, -0.05665544793009758, 0.016975313425064087, 0.050665732473134995, -0.042984914034605026, -0.055186524987220764, -0.15567925572395325, 0.08611935377120972, 0.020517094060778618, -0.39162930846214294, 0.05081598088145256, 0.08410743623971939, 0.09539339691400528, 0.19216693937778473, 0.09843575954437256, 0.03553037345409393, 0.040090326219797134, 0.016540739685297012, -0.0006511026294901967, 0.0012848287587985396, 0.035956479609012604, -0.18418550491333008, -0.0077615403570234776, -0.016983065754175186, -0.1669294238090515, 0.15223757922649384, 0.015136919915676117, -0.21624305844306946, -0.07202870398759842, 0.0747479572892189, 0.3087445795536041, -0.039822254329919815, -0.14344236254692078, -0.07430098205804825, 0.17156778275966644, -0.024119744077324867, -0.08383238315582275, -0.1347493678331375, 0.07445323467254639, -0.08262860774993896, 0.12896645069122314], [0.11496426910161972, -0.09046097099781036, -0.1967855542898178, -0.16102445125579834, 0.009653769433498383, -0.16005052626132965, 0.0721709206700325, 0.09372181445360184, -0.09407483041286469, 0.07437343150377274, 0.04561068117618561, -0.011943299323320389, 0.06046060845255852, 0.048550400882959366, 0.06783576309680939, -0.13386745750904083, -0.013123253360390663, 0.02448299713432789, -0.009145588614046574, -0.06342294067144394, 0.04025021195411682, 0.038667913526296616, -0.0032465350814163685, 0.024400612339377403, 0.09160838276147842, -0.07403729856014252, -0.05896126851439476, 0.07518254220485687, 0.025666387751698494, 0.13773758709430695, 0.04959607496857643, 0.05596135929226875, -0.02476297877728939, -0.0029605682939291, 0.13647522032260895, 0.06120217591524124, 0.05891009047627449, 0.11916355043649673, -0.06870081275701523, 0.06355945020914078, -0.02476663328707218, 0.045184213668107986, -0.06518101692199707, -0.03761663660407066, -0.30101463198661804, -0.01963495835661888, -0.18065643310546875, -0.05228845775127411, 0.08343296498060226, 0.028985697776079178, -0.016011308878660202, -0.13448698818683624, 0.07513818889856339, -0.045899808406829834, -0.19133535027503967, -0.15684862434864044, -0.07028570771217346, 0.053498104214668274, -0.19530826807022095, 0.11181095987558365, 0.05345376953482628, 0.09269928932189941, -0.07468681037425995, -0.02974897250533104]], [[-0.31578078866004944, -0.03709667548537254, 0.12226240336894989, 0.21319729089736938, -0.16622783243656158, -0.24760675430297852, 0.1457693725824356, -0.021923890337347984, -0.003622045973315835, 0.013020418584346771, 0.053875554352998734, 0.11357958614826202, -0.019530663266777992, -0.09003693610429764, 0.05249806120991707, -0.15892502665519714, 0.16593152284622192, 0.06251834332942963, 0.015020739287137985, 0.11480197310447693, 0.05806354060769081, -0.09991595894098282, 0.004930631723254919, 0.10705206543207169, 0.20005446672439575, 0.12705528736114502, -0.222136989235878, 0.004497055895626545, -0.042783841490745544, 0.1657727211713791, 0.10930554568767548, -0.1588573455810547, -0.054507069289684296, 0.09860417246818542, 0.16763120889663696, -0.1062239408493042, 0.16189461946487427, 0.07964128255844116, -0.13664226233959198, -0.044523078948259354, -0.14155013859272003, -0.22041557729244232, 0.007881920784711838, 0.10260990262031555, -0.08579052984714508, -0.051234498620033264, -0.0370858870446682, -0.08585149794816971, 0.19270429015159607, 0.20762266218662262, -0.004142068326473236, -0.03818431869149208, -0.004931892734020948, -0.04367014393210411, 0.11789636313915253, -0.09860807657241821, -0.0405227392911911, -0.19858641922473907, -0.1331036239862442, 0.02078535035252571, 0.17060311138629913, 0.04240381717681885, 0.07448573410511017, 0.02115657739341259], [0.10852587223052979, -0.10405517369508743, -0.15949757397174835, -0.11332318186759949, -0.025606857612729073, -0.03268159553408623, 0.0691799744963646, 0.018270641565322876, -0.04226312413811684, 0.10631320625543594, -0.04209231585264206, 0.06946264207363129, -0.06645730137825012, -0.048834919929504395, 0.08680377155542374, -0.1772587150335312, -0.0564047209918499, -0.04511557146906853, -0.07757575064897537, 0.04478715360164642, 0.011578247882425785, 0.10721299797296524, 0.07177092880010605, 0.012482906691730022, -0.0009173676953651011, 0.03246141970157623, 0.005825621075928211, 0.04999545216560364, 0.004368288442492485, 0.08266142755746841, -0.08693812042474747, 0.02174832671880722, -0.04737325757741928, 0.08529264479875565, 0.015670664608478546, -0.10455501079559326, 0.01776030659675598, 0.06807605922222137, -0.029750119894742966, 0.0796651765704155, 0.13462980091571808, -0.010654832236468792, -0.09586818516254425, -0.0035228985361754894, -0.16923481225967407, 0.10457990318536758, -0.06858591735363007, -0.04671623185276985, 0.07125664502382278, 0.08800870925188065, -0.05080629140138626, -0.19818858802318573, 0.020352335646748543, -0.0371035672724247, -0.003775905817747116, -0.12240341305732727, 0.009629904292523861, -0.010638119652867317, -0.1378030776977539, 0.074587382376194, -0.07506063580513, -0.03166276216506958, 0.001887794816866517, -0.1297157257795334], [0.1642332375049591, 0.14093051850795746, 0.16068129241466522, 0.2867475748062134, -0.00522454222664237, -0.41847628355026245, 0.18101225793361664, -0.08536131680011749, 0.05994680896401405, 0.14705148339271545, -0.015805955976247787, -0.030825095251202583, -0.1649238020181656, -0.08959130197763443, 0.11148564517498016, -0.06539595872163773, 0.07513970881700516, -0.05494307726621628, 0.11551173776388168, -0.058516088873147964, -0.012926323339343071, -0.044754114001989365, -0.11693903058767319, 0.029275063425302505, -0.1175079345703125, -0.33586955070495605, -0.18544232845306396, 0.08582725375890732, -0.13416609168052673, 0.005517595447599888, -0.05156439170241356, -0.09489771723747253, -0.006777201779186726, -0.23668734729290009, -0.16165578365325928, -0.1852588653564453, -0.27785524725914, -0.3123764097690582, 0.1539209932088852, 0.12196104973554611, 0.10032515227794647, -0.04228837043046951, 0.01948489435017109, 0.15686121582984924, -0.1512472927570343, -0.23331141471862793, 0.1711178869009018, 0.1533648669719696, -0.1602623015642166, -0.1267160028219223, 0.02327306568622589, -0.188443124294281, -0.3784550726413727, -0.10937817394733429, -0.04893728345632553, -0.16453029215335846, -0.09167607128620148, 0.113086998462677, -0.11159157752990723, 0.11320614814758301, -0.047139864414930344, -0.04311947897076607, -0.2726250886917114, -0.05452582240104675], [-0.019573183730244637, -0.05382797494530678, 0.008550967089831829, -0.03354310616850853, -0.012339712120592594, -0.15302184224128723, 0.15469865500926971, 0.044055867940187454, -0.03327730670571327, 0.09511658549308777, 0.04648463800549507, 0.10815771669149399, -0.1081494465470314, 0.03506478667259216, 0.12137380242347717, -0.15530145168304443, -0.02761836349964142, 0.09197568893432617, -0.0702679455280304, -0.08232801407575607, 0.04889610409736633, 0.08102492988109589, 0.03220833092927933, 0.05630835145711899, 0.09222161769866943, 0.07195103913545609, 0.02624312974512577, 0.16690891981124878, -0.005663170479238033, 0.03724445775151253, -0.07620538771152496, -0.07016955316066742, 0.09586143493652344, 0.013245702721178532, 0.06013626605272293, -0.07998694479465485, 0.06511285901069641, 0.029082823544740677, -0.07175984233617783, 0.13597716391086578, 0.01647111028432846, -0.05484047532081604, -0.08517645299434662, -0.03734489157795906, -0.10244302451610565, -0.04889347404241562, 0.007278159260749817, -0.05798913165926933, 0.007301302161067724, -0.02867770940065384, -0.07374731451272964, -0.1161692664027214, -0.1162618100643158, -0.12882660329341888, 0.004150514490902424, -0.1622079461812973, -0.032712798565626144, -0.08530614525079727, -0.22017981112003326, 0.03249332681298256, 0.060505107045173645, -0.05102342367172241, -0.01610422320663929, -0.1523926556110382], [-0.26359009742736816, 0.02039211243391037, 0.03291817754507065, 0.16985823214054108, -0.0966164693236351, -0.20783394575119019, 0.11999915540218353, -0.12241771072149277, -0.1073150783777237, 0.1027335450053215, 0.03191234916448593, -0.04632068797945976, -0.04964101314544678, -0.004442420322448015, 0.08124034851789474, -0.1203884407877922, 0.024497799575328827, -0.05591549351811409, -0.06580187380313873, 0.03077572025358677, -0.058872368186712265, -0.019945288076996803, 0.04785863310098648, 0.05388401076197624, 0.24456076323986053, 0.1003061980009079, -0.1626308411359787, 0.11178477108478546, -0.03446413576602936, 0.12171166390180588, 0.06330380588769913, -0.0767122432589531, 0.02916441671550274, -0.016570016741752625, 0.05692373588681221, -0.08529569953680038, 0.0017047874862328172, 0.18823397159576416, -0.10412678867578506, -0.08373617380857468, -0.11822466552257538, -0.11613107472658157, -0.14254620671272278, 0.07533758133649826, 0.0357062965631485, -0.04879369959235191, 0.04446541517972946, 0.013379937969148159, 0.1738910675048828, 0.11073198169469833, 0.10168080776929855, 0.023416731506586075, -0.06768389791250229, -0.13965968787670135, 0.056598253548145294, -0.09610807150602341, 0.003143406705930829, -0.07788769900798798, 0.00482859555631876, 0.03287365287542343, 0.09773679822683334, 0.11534061282873154, 0.04207155108451843, -0.1143307238817215], [-0.028073733672499657, -0.037203505635261536, -0.017496146261692047, 0.0968298614025116, 0.05230291187763214, -0.1261781007051468, 0.11384739726781845, 0.056905150413513184, -0.051252562552690506, 0.17239004373550415, -0.054253701120615005, 0.018619466572999954, -0.04836275056004524, 0.0067567662335932255, 0.026394091546535492, -0.053435567766427994, 0.03840853273868561, -0.05624721199274063, -0.005612269509583712, -0.009771552868187428, -0.014028777368366718, -0.07414021342992783, -0.028834978118538857, 0.11746279895305634, 0.09899815917015076, -0.05148591473698616, -0.058852419257164, 0.0721774697303772, -0.056064385920763016, 0.13009311258792877, -0.13592559099197388, -0.027589552104473114, 0.10538323223590851, 0.03412560746073723, 0.025653928518295288, -0.03910423442721367, 0.024019313976168633, 0.0981876477599144, -0.10127776861190796, -0.04275253415107727, -0.013940502889454365, 0.0965331569314003, 0.04651258885860443, 0.025766734033823013, -0.34057608246803284, -0.06780480593442917, -0.015594587661325932, -0.018776142969727516, -0.04710817709565163, 0.09775331616401672, -0.05969713255763054, -0.16837510466575623, 0.019737912341952324, -0.03169524669647217, -0.13964563608169556, -0.12020689994096756, -0.07022471725940704, 0.01244485192000866, -0.19757618010044098, 0.12496538460254669, -0.032326459884643555, 0.07776346802711487, -0.053346358239650726, -0.046921197324991226], [0.041379209607839584, -0.008489621803164482, -0.08726432174444199, -0.1297437697649002, -0.01735415868461132, -0.13356995582580566, 0.02055937983095646, -0.05308713763952255, 0.040483586490154266, 0.1548948884010315, -0.07484714686870575, 0.07549676299095154, -0.014213270507752895, 0.009914129041135311, -0.03199637308716774, -0.03600066900253296, -0.04405326396226883, -0.011988876387476921, -0.03322465345263481, -0.08803437650203705, 0.029694266617298126, 0.032880332320928574, -0.00935856532305479, 0.02005613036453724, 0.07402314990758896, -0.06576377898454666, -0.016994880512356758, 0.1221761703491211, -0.062233760952949524, 0.093234583735466, -0.04873059317469597, -0.011658606119453907, -0.06206850707530975, 0.0637560486793518, -0.006679911632090807, -0.024819396436214447, 0.07841590791940689, 0.03263029083609581, -0.06479184329509735, 0.01871672086417675, 0.08970287442207336, -0.03193139284849167, 0.04492611065506935, -0.0068656448274850845, -0.22424322366714478, -0.03397882357239723, -0.008401746861636639, 0.04283696040511131, 0.061320431530475616, 0.08793538063764572, -0.04596247524023056, -0.0708220899105072, -0.04626182094216347, 0.028636325150728226, -0.06468194723129272, -0.10624493658542633, -0.05379059165716171, -0.029820427298545837, -0.07203211635351181, -0.053843844681978226, 0.04797269403934479, -0.06847288459539413, -0.07858352363109589, -0.06260615587234497], [-0.24600064754486084, -0.10784443467855453, 0.051244646310806274, -0.09871283918619156, -0.05702344328165054, 0.08802071213722229, 0.12266417592763901, -0.07398673892021179, -0.07287292182445526, -0.16608737409114838, -0.13146886229515076, -0.0903245359659195, -0.03254229202866554, 0.04997815564274788, -0.01328892633318901, -0.2039351612329483, 0.13824345171451569, 0.06419534236192703, -0.05875254422426224, -0.022438524290919304, 0.04623142257332802, 0.012932713143527508, 0.0411900132894516, -0.09318224340677261, -0.045624081045389175, 0.057491179555654526, 0.11411364376544952, -0.11981599777936935, -0.0692383348941803, 0.007334998808801174, 0.15459653735160828, 0.041491687297821045, 0.0242371316999197, 0.08492234349250793, 0.006165051832795143, 0.0930819883942604, 0.152207151055336, -0.21122023463249207, -0.008046815171837807, 0.033587824553251266, -0.0942113846540451, -0.151906356215477, 0.11202045530080795, -0.06035538762807846, -0.09656795859336853, 0.08222164958715439, 0.07539045065641403, 0.0323469415307045, 0.023215772584080696, 0.0505463182926178, -0.20839665830135345, -0.24028682708740234, -0.0105312904343009, -0.19696688652038574, 0.10823216289281845, 0.09341434389352798, 0.013525684364140034, -0.01832788623869419, -0.17468143999576569, 0.10646875202655792, 0.15518933534622192, -0.01628122664988041, 0.09978558123111725, -0.10241067409515381], [0.13454189896583557, -0.001787618501111865, -0.053858980536460876, 0.020010627806186676, 0.02765759453177452, -0.17577910423278809, -0.046463582664728165, 0.013146071694791317, -0.035943496972322464, 0.1405264437198639, 0.03673070669174194, -0.0067590209655463696, 0.12028364092111588, -0.03528764471411705, 0.04209265857934952, -0.05299096554517746, -0.15337777137756348, 0.049454156309366226, -0.052525218576192856, -0.1195603609085083, 0.10912951827049255, -0.06831628829240799, -0.00802548322826624, 0.02435176633298397, 0.003998136147856712, 0.028375569730997086, -0.07923932373523712, 0.18866370618343353, 0.04845202714204788, 0.017669901251792908, -0.08553794026374817, 0.08631736040115356, 0.08305630832910538, 0.10522694140672684, -0.04832347482442856, -0.04104255139827728, 0.06128339096903801, 0.05544724687933922, -0.05426589399576187, 0.05713723599910736, 0.06642509996891022, 0.05320330709218979, -0.10592925548553467, -0.03491077944636345, -0.19128820300102234, -0.01708063669502735, 0.041951779276132584, 0.08532112091779709, -0.046719424426555634, -0.012269693426787853, 0.10144588351249695, -0.18219713866710663, 0.05852122977375984, -0.15853537619113922, -0.05167445167899132, -0.177214115858078, -0.028003403916954994, -0.0905916765332222, -0.12640368938446045, 0.015292073599994183, 0.04625212773680687, 0.0987192839384079, -0.08360221236944199, -0.1338243931531906], [0.21654202044010162, 0.0101770656183362, -0.16846710443496704, -0.14168745279312134, 0.008240610361099243, -0.18919314444065094, -0.1633298248052597, 0.044951245188713074, -0.09399586915969849, 0.12656161189079285, -0.0363549180328846, -0.019515059888362885, 0.08202692866325378, -0.1320672482252121, -0.050551172345876694, -0.22997163236141205, -0.1497618556022644, -0.06068525090813637, -0.0222906656563282, -0.10293518751859665, 0.04978204891085625, -0.0020979682449251413, 0.03881845995783806, -0.10000017285346985, 0.1007121279835701, -0.08040731400251389, -0.02233881875872612, 0.07513389736413956, -0.08631017804145813, 0.10175357013940811, -0.06271640211343765, 0.05544077232480049, 0.09169745445251465, -0.08833225816488266, 0.03286255523562431, -0.2095903605222702, -0.00276105641387403, 0.005412290804088116, 0.007094954140484333, 0.08199664950370789, -0.02995919995009899, -0.01635568216443062, -0.03394615650177002, 0.0671977549791336, -0.1571231633424759, -0.12611636519432068, -0.08776262402534485, 0.134572833776474, 0.022413991391658783, 0.1026456207036972, 0.020758014172315598, -0.12536942958831787, -0.02281245030462742, -0.08300154656171799, -0.008794891647994518, -0.2362639605998993, 0.04135342314839363, -0.021631967276334763, -0.06842079013586044, -0.005445359740406275, 0.033799219876527786, -0.002471283311024308, -0.11351539194583893, -0.200246661901474], [-0.07440853118896484, -0.1341545432806015, 0.040845245122909546, -0.39432066679000854, -0.1649005115032196, 0.367068886756897, -0.17480254173278809, -0.13291950523853302, -0.19118517637252808, -0.17385314404964447, -0.11895496398210526, -0.1993536502122879, 0.2837364971637726, -0.014758767560124397, 0.01769065298140049, -0.15279804170131683, 0.036241017282009125, 0.06817552447319031, -0.028387565165758133, -0.3238566219806671, 0.05206865817308426, 0.05603152886033058, -0.0006923249457031488, 0.006046929396688938, -0.1408247947692871, -0.3269188702106476, 0.26334789395332336, -0.017857767641544342, 0.18222466111183167, -0.09403936564922333, 0.09061043709516525, 0.35243651270866394, -0.10312453657388687, -0.03463652729988098, -0.16793152689933777, 0.24609722197055817, -0.045750781893730164, -0.13783952593803406, -0.05753498896956444, -0.053453028202056885, -0.1539803147315979, -0.17423495650291443, -0.11315932124853134, -0.12575040757656097, 0.4174500107765198, 0.24927261471748352, -0.20036672055721283, 0.14671394228935242, -0.16911008954048157, -0.15165409445762634, -0.052775222808122635, 0.03509749472141266, 0.35174503922462463, -0.03748701140284538, 0.06245346739888191, 0.30166178941726685, -0.017717402428388596, 0.10479433089494705, -0.029714128002524376, -0.034913018345832825, 0.004643898457288742, 0.14224065840244293, 0.11729798465967178, -0.2144421637058258], [0.23222599923610687, 0.050840169191360474, 0.1358049511909485, 0.0529235415160656, -0.07866459339857101, -0.2758629024028778, -0.2794496715068817, -0.03864851966500282, 0.05453338846564293, -0.041917476803064346, -0.11045106500387192, -0.13848069310188293, 0.05984161049127579, -0.18228615820407867, -0.07640842348337173, 0.005291813053190708, 0.1115214005112648, -0.17746149003505707, 0.1692015826702118, -0.0610223226249218, 0.04918929189443588, -0.08720111846923828, -0.05160161107778549, -0.2711392939090729, -0.11954019218683243, -0.36225053668022156, -0.08413305133581161, 0.16764919459819794, -0.08068908005952835, -0.01664983294904232, -0.12209779024124146, 0.009789620526134968, -0.05848639830946922, -0.13737989962100983, -0.16430999338626862, 0.006573070306330919, -0.15241646766662598, -0.2077837437391281, 0.10744837671518326, 0.00034584541572257876, 0.10326775908470154, -0.08254096657037735, -0.1592794805765152, 0.04476228356361389, 0.11476682871580124, -0.22757956385612488, 0.005193969234824181, 0.2576066851615906, -0.2561664879322052, -0.045047271996736526, 0.09461633861064911, -0.08526922762393951, -0.34720343351364136, -0.1067182719707489, -0.1363218128681183, 0.09783443808555603, -0.02843686193227768, 0.0007755873375572264, -0.04497285187244415, 0.06509288400411606, -0.095598965883255, 0.004886430222541094, -0.11935862898826599, -0.11092347651720047], [0.05999535322189331, 0.001725731766782701, -0.10186492651700974, 0.012121571227908134, 0.06455817818641663, -0.13754023611545563, 0.05082550272345543, -0.062299467623233795, -0.05273062735795975, 0.14760763943195343, -0.02693844959139824, -0.06883995980024338, -0.01080925390124321, -0.044426705688238144, -0.01120230183005333, -0.0538269467651844, -0.029659124091267586, 0.009017503820359707, -0.0025576625484973192, -0.028825940564274788, -0.014528119936585426, 0.08223913609981537, -0.05122740566730499, -0.009289814159274101, 0.028372837230563164, -0.07850445061922073, 0.06643527001142502, 0.06490878015756607, 0.05069560185074806, 0.1039058268070221, 0.006149860564619303, 0.08221980184316635, -0.0023026191629469395, 0.05435352027416229, -0.01928574964404106, -0.014435295946896076, 0.060819294303655624, 0.013780883513391018, -0.12313710153102875, -0.03272848203778267, 0.02924182638525963, 0.033387742936611176, -0.04432468116283417, -0.042830295860767365, -0.2382374107837677, 0.07950946688652039, -0.051527053117752075, 0.04053013026714325, -0.05824068933725357, -0.005868562962859869, 0.04167015105485916, -0.10082051903009415, 0.11195692420005798, -0.07005608081817627, -0.07252006977796555, -0.02722078561782837, 7.111462764441967e-05, -0.0049711475148797035, -0.23343190550804138, 0.13103048503398895, 0.03626007214188576, 0.14556944370269775, -0.0625937283039093, -0.11432681977748871], [0.07852443307638168, -0.00017512234626337886, 0.029025405645370483, 0.02721545659005642, 0.005094659514725208, -0.27858835458755493, 0.06871281564235687, -0.042841363698244095, -0.004727695602923632, 0.09485629945993423, -0.047724440693855286, -0.006295195315033197, -0.09014619886875153, -0.11583064496517181, 0.0432991161942482, -0.19868601858615875, 0.035169512033462524, 0.05399763211607933, -0.12887153029441833, 0.003861289005726576, 0.000535243540070951, 0.02201586216688156, 0.019356856122612953, 0.038590092211961746, 0.09023982286453247, 0.049402568489313126, -0.1214764267206192, 0.13620945811271667, 0.07992815226316452, 0.03380177170038223, -0.03510734438896179, -0.09335856884717941, 0.09908941388130188, 0.04239584133028984, 0.012630810961127281, 0.029435377568006516, 0.08585065603256226, 0.03219310939311981, -0.04079705849289894, 0.11073613911867142, 0.07382448017597198, -0.07581312209367752, 0.0001474105956731364, 0.0609758235514164, -0.28972217440605164, 0.07109690457582474, 0.023997709155082703, -0.021293973550200462, -0.04265259951353073, 0.05901756137609482, 0.014347348362207413, -0.13991841673851013, 0.011757848784327507, -0.1584470123052597, -0.023718299344182014, -0.22318720817565918, -0.0776791125535965, 0.010069557465612888, -0.2015058994293213, 0.15925994515419006, 0.08415182679891586, 0.03760943189263344, -0.10429033637046814, -0.21985259652137756], [0.11751114577054977, 0.12956063449382782, 0.1791720986366272, 0.08469359576702118, -0.00039387241122312844, -0.3452839255332947, -0.05579392611980438, -0.010575526393949986, 0.0943688154220581, 0.01854625903069973, 0.015436683781445026, -0.10568884760141373, 0.025162816047668457, -0.11209311336278915, -0.05258860066533089, -0.027293888852000237, 0.05147256329655647, -0.17811141908168793, -0.01638331077992916, -0.1167837530374527, -0.08159329742193222, -0.0841633677482605, -0.07288442552089691, -0.16033147275447845, -0.08825144916772842, -0.2862541973590851, -0.2062220424413681, 0.17171241343021393, -0.13598397374153137, 0.013723728246986866, -0.13973397016525269, -0.1293763369321823, -0.060426175594329834, -0.2485601007938385, -0.18597956001758575, -0.0024237330071628094, -0.19084623456001282, -0.22522825002670288, 0.03866573050618172, 0.04443563148379326, -0.019656166434288025, -0.03149513155221939, -0.16396066546440125, -0.022708266973495483, 0.04600413888692856, -0.3052721619606018, 0.18458423018455505, 0.1499219536781311, -0.2329217791557312, 0.03073587827384472, -0.0597476027905941, -0.018144892528653145, -0.3973020911216736, -0.07391761988401413, -0.15280112624168396, 0.04518624767661095, -0.06791401654481888, 0.038364097476005554, 0.02533750981092453, 0.14961446821689606, -0.006966487504541874, -0.03772297501564026, -0.16980145871639252, -0.06851939111948013], [-0.009841609746217728, 0.006050596944987774, -0.016265347599983215, 0.15865662693977356, 0.1259492188692093, -0.1439143717288971, -0.008810424245893955, 0.009432127699255943, -0.0023320612963289022, 0.1648676097393036, -0.05531047657132149, 0.0847795233130455, -0.037477802485227585, -0.05312338471412659, 0.04032159596681595, 0.03071475401520729, 0.06325054168701172, -0.14198318123817444, -0.04498188570141792, -0.08157782256603241, 0.0916844978928566, -0.030939050018787384, -0.02539719082415104, 0.12928757071495056, -0.04914415627717972, -0.028406331315636635, 0.031776390969753265, 0.018080634996294975, -0.004545426461845636, 0.10848786681890488, -0.10056603699922562, 0.09461002051830292, -0.11070235073566437, -0.10628560185432434, -0.07721347361803055, -0.12750700116157532, -0.056529588997364044, 0.11606677621603012, -0.014849934726953506, -0.060169853270053864, 0.04758795350790024, 0.025656022131443024, -0.052184075117111206, -0.0032913503237068653, -0.22718623280525208, 0.052907899022102356, 0.08100873976945877, 0.12568898499011993, -0.143087238073349, 0.06910429894924164, -0.09665128588676453, -0.07175223529338837, -0.0008760578348301351, -0.1362001895904541, -0.09185638278722763, -0.22187191247940063, 0.0700516328215599, -0.056418389081954956, -0.12169745564460754, 0.06786048412322998, 0.033001504838466644, 0.0502345934510231, -0.11706116795539856, -0.009604794904589653], [-0.13850852847099304, 0.08950750529766083, -0.017743144184350967, -0.2644529640674591, -0.05478877201676369, -0.09954492002725601, 0.15267255902290344, -0.20319116115570068, -0.054757263511419296, -0.24205859005451202, 0.02415548451244831, 0.029034312814474106, -0.37217167019844055, -0.046572037041187286, -0.0511237196624279, -0.12923520803451538, -0.05808986723423004, 0.04432528465986252, -0.0911988615989685, 0.0024376006331294775, -0.10199836641550064, -0.028408443555235863, 0.04856552556157112, 0.08838494122028351, 0.0035894885659217834, 0.04039729759097099, -0.1041996031999588, -0.1324472874403, -0.06410405784845352, 0.06222279742360115, 0.012693448923528194, -0.023915112018585205, 0.008606740273535252, 0.0486333966255188, 0.2167099118232727, -0.025663502514362335, 0.24253250658512115, -0.0514398030936718, -0.23321756720542908, -0.0680481493473053, -0.1772652268409729, -0.18139705061912537, 0.018777241930365562, 0.03494998440146446, -0.09921421110630035, 0.05074364319443703, -0.07517113536596298, -0.0917944684624672, -0.07645110040903091, 0.15593425929546356, -0.05827811732888222, -0.057680461555719376, 0.0018014837987720966, -0.04183846712112427, 0.18883956968784332, 0.04533674567937851, -0.028112467378377914, -0.03594783693552017, -0.042800042778253555, 0.006710739806294441, 0.01429806463420391, -0.1628091186285019, 0.1220061257481575, -0.03482535108923912], [-0.13074125349521637, -0.16685689985752106, -0.07432769984006882, -0.14453501999378204, -0.015010600909590721, -0.0067236414179205894, 0.0225532203912735, -0.023328883573412895, -0.03662538900971413, 0.03976227715611458, -0.1503431797027588, 0.05323396250605583, 0.043673958629369736, 0.01363284420222044, 0.08966697007417679, -0.2308429479598999, -0.050008442252874374, 0.06586676836013794, -0.041128404438495636, -0.16376975178718567, 0.08367034792900085, 0.03740500286221504, 0.07195235788822174, -0.08159086108207703, 0.031590525060892105, 0.03929458186030388, -0.015338988974690437, 0.07633408904075623, 0.031796250492334366, 0.06128261610865593, 0.0613270029425621, 0.019925810396671295, 0.0309646837413311, 0.15055914223194122, 0.011058226227760315, -0.027829350903630257, 0.12617774307727814, -0.02512999251484871, -0.0831773653626442, 0.06072037294507027, -0.000371858652215451, -0.15531982481479645, 0.017976535484194756, 0.09453137964010239, -0.0040544671937823296, 0.07411811500787735, -0.08385712653398514, -0.08881063759326935, -0.02331210859119892, 0.09684877097606659, -0.054608967155218124, -0.18227320909500122, 0.12238838523626328, -0.15451160073280334, -0.04071592539548874, -0.14636297523975372, -0.04849143326282501, 0.043650466948747635, -0.13055147230625153, -0.12092547118663788, 0.026151670143008232, -0.08370332419872284, 0.06488323956727982, -0.1409481018781662], [0.10199669748544693, -0.07690223306417465, -0.09662359952926636, -0.049950458109378815, 0.048739828169345856, -0.24718686938285828, -0.13710163533687592, -0.022278936579823494, -0.04138079658150673, 0.1029001772403717, -0.0639108344912529, -0.06826422363519669, 0.035443518310785294, -0.13036192953586578, -0.13009069859981537, -0.152242511510849, -0.14576101303100586, -0.02816159464418888, 0.004485844634473324, 0.013202203437685966, 0.10915107280015945, -0.08076159656047821, -0.058764081448316574, 0.03174914792180061, 0.07795746624469757, -0.0005915755173191428, -0.11272238940000534, 0.18017463386058807, -0.09898775815963745, 0.07593940943479538, -0.010332372970879078, 0.07965916395187378, 0.045552682131528854, -0.07746323943138123, 0.0015167550882324576, -0.15004688501358032, -0.07829362154006958, 0.12698136270046234, 0.04878431186079979, 0.10646134614944458, 0.07204702496528625, -0.009653721004724503, -0.0604490265250206, 0.05515411123633385, -0.1447874754667282, -0.040621187537908554, -0.1415029913187027, 0.17027336359024048, 0.11039186269044876, 0.03848276659846306, -0.012509088031947613, -0.14585737884044647, 0.02809637039899826, -0.06480065733194351, 0.008977754041552544, -0.17553968727588654, 0.058644019067287445, -0.008813872002065182, -0.12360469996929169, 0.015793686732649803, -0.010563802905380726, 0.003995465114712715, -0.00019570028234738857, -0.14989015460014343], [0.14135855436325073, -0.028836678713560104, 0.07167381793260574, 0.13299840688705444, 0.08827358484268188, -0.1864243447780609, -0.06906254589557648, 0.09255531430244446, -0.07180827856063843, 0.022731710225343704, -0.008319254033267498, -0.049572937190532684, 0.05032670497894287, -0.11353211104869843, -0.059647198766469955, 0.020622141659259796, 0.014060957357287407, -0.05607323721051216, 0.011390376836061478, 0.07952059060335159, 0.05166737362742424, 0.056455936282873154, 0.05533380061388016, -0.06621937453746796, -0.07362746447324753, -0.028549283742904663, -0.05559822916984558, 0.003784115891903639, -0.04233044385910034, 0.08339951187372208, -0.004460114520043135, -0.03418797627091408, 0.033938806504011154, -0.09399829804897308, -0.13492953777313232, -0.06439686566591263, -0.09476631879806519, 0.03542147949337959, -0.012794522568583488, 0.034737616777420044, 0.1125696673989296, 0.07963509112596512, -0.014874199405312538, -0.009043319150805473, -0.07934673130512238, -0.09529002755880356, 0.07207994908094406, 0.1784227043390274, -0.041130345314741135, 0.038895852863788605, -0.07100170105695724, -0.16207283735275269, -0.03801415488123894, -0.15857577323913574, -0.006810262333601713, -0.09139816462993622, 0.011229836381971836, -0.0259622223675251, -0.08661524951457977, 0.025883883237838745, -0.026784902438521385, 0.06996443122625351, -0.04996533319354057, -0.11027758568525314], [0.06445928663015366, -0.09743855893611908, -0.10154127329587936, -0.1867729127407074, -0.016209598630666733, -0.09566400945186615, -0.035392794758081436, 0.00910898670554161, -0.013428402133286, 0.00687367282807827, -0.09861872345209122, -0.02710455283522606, 0.11354406923055649, -0.028598502278327942, 0.06472211331129074, -0.20293152332305908, -0.06692865490913391, -0.01707359589636326, 0.10176866501569748, -0.12185138463973999, 0.00021870860655326396, -0.053992368280887604, 0.028780926018953323, 0.03407265990972519, -0.04539560154080391, 0.03048526495695114, 0.09410303831100464, 0.03477470949292183, -0.02573147788643837, 0.10334225744009018, 0.05070590227842331, 0.05002153292298317, 0.06695099920034409, 0.07789285480976105, 0.05677515268325806, 0.03292682394385338, 0.002797377295792103, -0.04651539400219917, -0.03447231277823448, -0.02471146173775196, -0.03976844623684883, -0.13424333930015564, 0.049656230956315994, 0.030687179416418076, -0.07033087313175201, 0.10618279129266739, 0.016940217465162277, 0.008508173748850822, 0.056735552847385406, 0.06878183037042618, -0.053496893495321274, -0.13368043303489685, 0.13278241455554962, -0.1215839684009552, 0.03667333722114563, -0.13222521543502808, 0.007694350555539131, -0.02778032049536705, -0.2129635214805603, 0.04600623995065689, 0.07735436409711838, 0.04409271478652954, -0.0484316311776638, -0.16316576302051544], [0.0709877535700798, -0.011688639409840107, 0.05019296333193779, 0.18194040656089783, -0.016596943140029907, -0.13987235724925995, 0.13181819021701813, 0.056007444858551025, 0.015857810154557228, 0.07350583374500275, -0.12326940894126892, 0.07330650836229324, 0.048322953283786774, -0.15647758543491364, 0.03897944092750549, -0.10635833442211151, 0.10743028670549393, 0.011600449681282043, 0.04768701642751694, -0.06514570116996765, -0.003097395645454526, 0.005994854494929314, -0.0013416276779025793, 0.05183558911085129, -0.0502488873898983, -0.14010527729988098, -0.043581679463386536, 0.08696801215410233, 0.013742631301283836, 0.14704540371894836, -0.13813556730747223, -0.07762046158313751, -0.05357513204216957, 0.029500503093004227, -0.12338296324014664, -0.1441112905740738, -0.03695259615778923, 0.032951921224594116, 0.042545340955257416, 0.09334952384233475, 0.06490065157413483, 0.02006341703236103, 0.03666815161705017, 0.06315840780735016, -0.3288031816482544, -0.08872105926275253, 0.03555488586425781, 0.057031676173210144, -0.06528608500957489, -0.0509888119995594, -0.03709522634744644, -0.12085769325494766, 0.018507376313209534, -0.051936183124780655, -0.02228909730911255, -0.1632637232542038, 0.06287652254104614, 0.051998693495988846, -0.1060367003083229, 0.008881905116140842, -0.0023700115270912647, 0.021275030449032784, -0.17615482211112976, -0.09574627131223679], [-0.08338771015405655, -0.05533396825194359, -0.01459961012005806, -0.1530604064464569, -0.1385997235774994, -0.1561460793018341, 0.13722361624240875, -0.3224077820777893, 0.03391437605023384, 0.1156286746263504, 0.05794931948184967, 0.08924610912799835, -0.3923657536506653, -0.20071426033973694, 0.06960545480251312, 0.029765360057353973, -0.012101586908102036, -0.10913454741239548, -0.1344756782054901, 0.10447806119918823, -0.06727635115385056, -0.10006201267242432, -0.043547239154577255, 0.14851662516593933, 0.09914010018110275, 0.11267151683568954, -0.13746927678585052, -0.10053621977567673, -0.04263468459248543, 0.027749130502343178, -0.11009112000465393, -0.26717308163642883, -0.10762488096952438, -0.03811991587281227, 0.013549740426242352, -0.05450640618801117, 0.09148775041103363, 0.004369018599390984, -0.037495847791433334, -0.26195308566093445, -0.17787370085716248, -0.09316153079271317, -0.026576319709420204, 0.12072806060314178, -0.11015667766332626, -0.11371400952339172, -0.15309347212314606, -0.16373655200004578, 0.16760855913162231, 0.15019828081130981, 0.06154544651508331, -0.014848226681351662, -0.05784176290035248, 0.08321619033813477, -0.07629071921110153, -0.0013237112434580922, -0.10585751384496689, -0.09089504927396774, 0.14760960638523102, -0.08370476961135864, 0.11686322838068008, -0.06534416228532791, 0.013387060724198818, 0.007378723938018084], [0.21075712144374847, 0.0006145070074126124, 0.0857025757431984, -0.11346004903316498, -0.1965656876564026, -0.3173397481441498, -0.29976096749305725, -0.014907756820321083, 0.037200137972831726, -0.025185689330101013, -0.015251302160322666, -0.24712790548801422, 0.2728174328804016, -0.116507388651371, -0.2726379632949829, -0.050727952271699905, -0.06502164155244827, -0.11583885550498962, 0.19289401173591614, -0.08005693554878235, 0.030722545459866524, 0.03117096796631813, -0.13020890951156616, -0.16160015761852264, -0.08252675086259842, -0.3047183156013489, -0.005791406147181988, 0.14937113225460052, -0.08249633759260178, 0.0049319034442305565, 0.0293734110891819, 0.11353549361228943, 0.013584276661276817, -0.06218497082591057, -0.040033869445323944, 0.027350466698408127, -0.17316105961799622, -0.05132678151130676, 0.10181164741516113, 0.03888251632452011, -0.05989525094628334, 0.006573460530489683, -0.1691165566444397, 0.09358907490968704, 0.1482730358839035, -0.1773642897605896, -0.04270622506737709, 0.2796962559223175, 0.02138158492743969, -0.09309667348861694, -0.003134177764877677, -0.11931320279836655, -0.09830587357282639, -0.26175636053085327, 0.042404960840940475, 0.00669928640127182, 0.06878983974456787, 0.0885051041841507, 0.02264830842614174, 0.07659485191106796, 0.037774134427309036, 0.049502212554216385, -0.019209090620279312, -0.22198915481567383], [-0.0537995807826519, -0.022167019546031952, -0.06386703997850418, -0.14792561531066895, -0.06111757829785347, 0.13996976613998413, 0.09779254347085953, -0.014266934245824814, 0.027021190151572227, -0.06302174180746078, -0.11785683035850525, -0.05860886350274086, 0.10043522715568542, -0.06230927258729935, 0.1267816722393036, -0.10639537870883942, -0.0007736703264527023, 0.07265012711286545, -0.05510341748595238, -0.11965208500623703, 0.06916632503271103, 0.09937722980976105, 0.05083169415593147, 0.03285467252135277, -0.08631402999162674, -0.033241018652915955, 0.010473978705704212, -0.0023360969498753548, 0.07001764327287674, -0.04364469647407532, 0.09236796945333481, 0.11472765356302261, 0.02410810999572277, 0.027726775035262108, 0.05126665532588959, 0.11034661531448364, 0.13456633687019348, -0.03383206948637962, -0.15338164567947388, -0.011964362114667892, 0.026107991114258766, 0.013459619134664536, 0.10875460505485535, 0.013108094222843647, 0.08722934871912003, 0.11330360174179077, -0.024433758109807968, -0.025369707494974136, -0.03026232123374939, 0.12293875962495804, -0.09969967603683472, -0.06223759055137634, 0.11958593130111694, -0.03643973171710968, -0.04949185252189636, -0.043609101325273514, 0.07501114904880524, 0.09150385856628418, -0.13453662395477295, -0.12132274359464645, 0.050615713000297546, -0.035422079265117645, 0.026731301099061966, -0.13261257112026215], [-0.4080760180950165, 0.012407748028635979, 0.1574942171573639, 0.03399423882365227, -0.00018895005632657558, -0.17555008828639984, 0.12086813151836395, -0.09716460853815079, -0.03954910486936569, -0.0486505925655365, -0.04445662349462509, 0.07668150961399078, -0.03617643564939499, -0.07097972929477692, 0.0829671174287796, -0.05169554799795151, 0.04118725657463074, 0.050498638302087784, -0.04884832352399826, 0.007491580676287413, -0.009414001367986202, -0.023509949445724487, 0.05731244012713432, 0.005149581003934145, 0.1398918479681015, 0.0303961168974638, -0.07853223383426666, -0.08203554898500443, -0.06968250870704651, 0.13256289064884186, 0.13563229143619537, -0.12116647511720657, -0.008114357478916645, 0.07920437306165695, 0.062304288148880005, 0.04283621534705162, 0.08790179342031479, 0.0037156930193305016, -0.01995980180799961, 0.023251717910170555, -0.064198799431324, -0.10878868401050568, 0.07294537872076035, 0.15969091653823853, -0.19483359158039093, 0.003395806299522519, -0.04783749207854271, -0.2402966320514679, 0.17109784483909607, 0.07231303304433823, -0.07528755813837051, -0.039984919130802155, 0.0027949761133641005, -0.07295581698417664, 0.07229117304086685, -0.05074271187186241, -0.00033323935349471867, -0.2008039653301239, -0.2056972086429596, 0.03618050366640091, 0.21548113226890564, 0.016868779435753822, 0.12345435470342636, -0.07016147673130035], [0.12638838589191437, 0.022652413696050644, -0.06462191790342331, -0.042081307619810104, -0.03891700878739357, -0.26304343342781067, -0.04410997033119202, 0.010171149857342243, -0.06446382403373718, 0.09198123961687088, -0.0010794021654874086, 0.006078188307583332, 0.04454277455806732, -0.10423877835273743, 0.02334843948483467, -0.1255643218755722, -0.13103225827217102, -0.034719791263341904, -0.03449935093522072, -0.02212200127542019, 0.020033325999975204, -0.0668911337852478, -0.0244371946901083, 0.06300242990255356, 0.16869395971298218, 0.03797413036227226, -0.12844562530517578, 0.09474854171276093, -0.09473544359207153, 0.06353393197059631, -0.11063149571418762, -0.024872146546840668, 0.022157516330480576, 0.03762124478816986, 0.05142936110496521, -0.16075365245342255, 0.03911206126213074, 0.09917424619197845, 0.024686289951205254, 0.05529339611530304, 0.05657757446169853, 0.06143766641616821, 0.013793203048408031, 0.043189115822315216, -0.16822300851345062, -0.025440942496061325, 0.013963551260530949, 0.08273682743310928, 0.04040813073515892, 0.017477400600910187, -0.049799852073192596, -0.17334140837192535, -0.053859010338783264, -0.09102439880371094, -0.056825343519449234, -0.18720337748527527, -0.02948445826768875, -0.06629237532615662, -0.06687526404857635, 0.061563100665807724, 0.08423185348510742, 0.06213298439979553, -0.09251803904771805, -0.16964729130268097], [-0.01995663344860077, 0.17268364131450653, 0.07557264715433121, 0.2793309688568115, -0.004296865779906511, -0.06540830433368683, 0.1920877993106842, 0.05371297895908356, -0.015558007173240185, 0.2851259708404541, -0.047833800315856934, 0.13327640295028687, -0.12337148934602737, -0.07015480846166611, 0.27356794476509094, 0.15857765078544617, 0.22802692651748657, -0.18803533911705017, -0.031727537512779236, 0.06499181687831879, -0.036176539957523346, -0.07198867946863174, -0.0011802631197497249, 0.1047864705324173, -0.07807595282793045, -0.11860761046409607, 0.028783928602933884, -0.08900392055511475, 0.02361227013170719, 0.06703373044729233, -0.006380722392350435, -0.032056085765361786, -0.21962431073188782, -0.12408468127250671, -0.131048321723938, -0.13011237978935242, -0.019122213125228882, -0.006727260071784258, -0.09618885815143585, 0.056061215698719025, 0.07091038674116135, 0.1308966428041458, 0.08316028863191605, 0.13784253597259521, -0.36325809359550476, 0.029901547357439995, 0.052963972091674805, -0.10774771869182587, -0.09910482913255692, 0.021997444331645966, -0.1694033145904541, -0.2245265692472458, 0.003098581451922655, 0.015086598694324493, -0.1795361191034317, -0.10235638171434402, -0.04149438813328743, 0.09986205399036407, -0.13972404599189758, 0.12711423635482788, 0.14216986298561096, 0.057634759694337845, -0.1629798859357834, 0.08390311151742935], [-0.0665716603398323, -0.1997794359922409, 0.048597753047943115, -0.1414424329996109, 0.07534442096948624, 0.07964383065700531, 0.10019712150096893, -0.06369078904390335, -0.03301607072353363, -0.0449724979698658, -0.1683672070503235, -0.019820254296064377, 0.09582138061523438, -0.04895029962062836, 0.04310108348727226, -0.10044660419225693, -0.04525318741798401, 0.07812324166297913, -0.056907907128334045, -0.17752313613891602, -0.0011036687064915895, 0.0689404234290123, -0.0033088403288275003, 0.02237563766539097, 0.08533794432878494, 0.09418164938688278, 0.0510946586728096, -0.014463783241808414, -0.04251186549663544, 0.001471070572733879, 0.07281199842691422, 0.03912598267197609, 0.04123254120349884, 0.10707773268222809, 0.020739490166306496, -0.004586596507579088, 0.010563552379608154, -0.10138547420501709, -0.09920871257781982, 0.09458529204130173, -0.04076299071311951, -0.044762033969163895, -0.04937312752008438, 0.07074276357889175, -0.13994763791561127, 0.11696213483810425, 0.018242856487631798, -0.0048500834964215755, 0.0765560045838356, 0.11254124343395233, -0.012892268598079681, -0.08070804923772812, 0.0837884172797203, -0.15544533729553223, 0.031370289623737335, -0.06855347007513046, -0.08292319625616074, -0.08133052289485931, -0.1355617791414261, 0.003380178939551115, -0.0537157878279686, -0.06924226135015488, -0.003421034663915634, -0.06998279690742493], [-0.1215171366930008, -0.1981726437807083, 0.04029566049575806, -0.1002468541264534, -0.021146878600120544, 0.16852308809757233, 0.11454635113477707, -0.06602731347084045, -0.07346218079328537, -0.021971827372908592, -0.09198236465454102, 0.06576178967952728, 0.0454203262925148, -0.09596962481737137, -0.03843650221824646, -0.07809579372406006, 0.08905939012765884, 0.06857571750879288, -0.08655598014593124, -0.2377384603023529, 0.09756481647491455, 0.10154075175523758, 0.08644872903823853, -0.045745573937892914, -0.11188732832670212, 0.009347451850771904, -0.005707384552806616, -0.09046398848295212, -0.0037106277886778116, -0.05755964294075966, -0.0325157456099987, 0.11866071075201035, 0.07076936215162277, 0.0632990300655365, 0.016579685732722282, 0.12704545259475708, -0.019812017679214478, -0.036104317754507065, -0.01456353161484003, 0.07521190494298935, -0.08100549876689911, -0.048640575259923935, 0.007348701823502779, 0.04824742302298546, -0.09176135063171387, 0.08984559029340744, 0.0335562489926815, -0.041338961571455, -0.09320639818906784, 0.04692902788519859, -0.09440138190984726, -0.12855516374111176, 0.09875169396400452, -0.037455301731824875, -0.01617727056145668, -0.07439848780632019, 0.0011240707244724035, -0.1078564003109932, -0.06720492988824844, 0.007662887219339609, 0.03049214370548725, -0.04961305111646652, -0.03558976575732231, -0.07397846132516861], [-0.061241500079631805, 0.14496855437755585, 0.04640882462263107, 0.17913834750652313, 0.122201107442379, 0.09913263469934464, 0.1651708036661148, -0.05990895256400108, -0.018738579005002975, 0.3008812665939331, -0.13371771574020386, 0.08075889945030212, -0.005234017968177795, -0.052462197840213776, 0.22198596596717834, 0.14839984476566315, 0.16675135493278503, -0.04338120296597481, 0.025317035615444183, -0.03531118109822273, -0.013076872564852238, 0.036236438900232315, 0.016033338382840157, 0.1740873157978058, -0.11798739433288574, -0.2731543183326721, 0.11278393864631653, -0.16416451334953308, 0.10158541798591614, 0.055671557784080505, -0.05790994316339493, 0.17959779500961304, -0.2536177337169647, -0.196157306432724, -0.2476305514574051, -0.06979125738143921, -0.041250940412282944, 0.15695926547050476, 0.050549618899822235, -0.0026934032794088125, -0.08093941956758499, 0.0310821570456028, 0.039342086762189865, 0.07115987688302994, -0.21504463255405426, 0.03845539689064026, 0.12242371588945389, -0.1668258160352707, -0.2177247256040573, 0.0006794296787120402, -0.017155444249510765, -0.1257035881280899, 0.232560396194458, 0.06819470226764679, -0.14982254803180695, -0.041326750069856644, 0.02209983766078949, 0.021344926208257675, -0.09088203310966492, 0.06569841504096985, 0.10820985585451126, 0.10180197656154633, -0.11515278369188309, 0.12597106397151947], [0.13125202059745789, -0.01176228653639555, -0.046425506472587585, 0.02711365558207035, -0.053246691823005676, -0.23413057625293732, -0.13241535425186157, 0.03963237255811691, -0.033153679221868515, 0.0845290794968605, 0.00406961003318429, -0.022211989387869835, 0.1361781805753708, -0.07171590626239777, -0.04681430384516716, -0.11939559131860733, -0.18297173082828522, -0.00978450570255518, 0.08796350657939911, -0.05089746415615082, 0.05630333721637726, 0.08551184833049774, 0.06612370908260345, 0.023439591750502586, 0.08496350049972534, -0.03028811886906624, -0.13297133147716522, 0.005655924789607525, -0.02500057965517044, 0.08801738172769547, -0.03071652539074421, 0.1433696448802948, 0.11742476373910904, 0.0582946352660656, 0.05659510940313339, -0.10694658756256104, -0.026499120518565178, 0.07707244902849197, -0.04635900631546974, 0.05098097026348114, 0.11195643991231918, 0.00954075064510107, -0.01504090428352356, 0.03473683074116707, -0.03834930807352066, -0.16855545341968536, -0.0424874871969223, 0.20626400411128998, 0.1345198154449463, 0.0062793861143291, 0.027097119018435478, -0.09548108279705048, 0.0335148386657238, -0.11762654781341553, 0.026374949142336845, -0.16888950765132904, 0.06349721550941467, 0.043961334973573685, -0.05394813418388367, 0.005023706704378128, 0.08334270864725113, 0.0856536403298378, 0.012325086630880833, -0.03976229578256607]], [[0.034791912883520126, 0.09619315713644028, 0.15175271034240723, 0.146315336227417, -0.12052667140960693, 0.05783418193459511, 0.10324634611606598, 0.17857325077056885, 0.16852618753910065, -0.10110357403755188, 0.10471215844154358, 0.03865466266870499, 0.019041966646909714, -0.12647086381912231, 0.18426059186458588, 0.06868339329957962, 0.04991072043776512, -0.012907014228403568, 0.07909698784351349, 0.1635654866695404, -0.06428544968366623, -0.0925176814198494, -0.07041218131780624, -0.03392158821225166, 0.07945822179317474, 0.044841036200523376, 0.07400491833686829, -0.014233930967748165, -0.12531021237373352, 0.04805285483598709, 0.15473400056362152, 0.013973661698400974, -0.03055649995803833, 0.02742975391447544, 0.015341310761868954, -0.027297046035528183, 0.19433632493019104, -0.09124410897493362, -0.05469486117362976, -0.0519789457321167, -0.01902555301785469, 0.19111716747283936, 0.04053304344415665, 0.1217842549085617, -0.23878207802772522, 0.13695333898067474, -0.19642500579357147, -0.11553668975830078, 0.07313760370016098, 0.05027179419994354, 0.21314913034439087, 0.028294047340750694, -0.375912606716156, 0.14686624705791473, -0.05044315382838249, -0.03655164688825607, 0.007441384252160788, 0.1148262470960617, 0.06324648857116699, -0.0710701197385788, -0.04800091311335564, -0.014029502868652344, -0.11410720646381378, 0.05529894679784775], [-0.07675336301326752, -0.12613628804683685, -0.04377619922161102, -0.13418208062648773, -0.014881258830428123, -0.054576799273490906, -0.15971578657627106, 0.10607638955116272, -0.008263356052339077, -0.08194608986377716, 0.11446419358253479, -0.11776764690876007, -0.05444366857409477, 0.08786386251449585, 0.04859048128128052, -0.07287147641181946, -0.06982221454381943, 0.12414517253637314, -0.034193094819784164, 0.1207471564412117, 0.021003855392336845, 0.10241758078336716, -0.03408333286643028, -0.10847273468971252, 0.06689339131116867, -0.033560074865818024, -0.02321966178715229, 0.034892693161964417, 0.00978326890617609, 0.048349108546972275, 0.08061806112527847, -0.04973585158586502, 0.018895402550697327, 0.000671828631311655, 0.03152346983551979, -0.1425926834344864, -0.026500634849071503, 0.004248623736202717, -0.007229073438793421, -0.028339849784970284, 0.06483151018619537, -0.009366897866129875, -0.040948741137981415, -0.06751828640699387, -0.1844557821750641, 0.007325564976781607, -0.05179893970489502, 0.04092458263039589, 0.03507014736533165, 0.1285538673400879, 0.07731931656599045, 0.008815811946988106, -0.15641430020332336, -0.05883994698524475, 0.006975467316806316, -0.21206605434417725, -0.08181796967983246, -0.12136606872081757, -0.0646682158112526, -0.12870538234710693, 0.0014535918598994613, 0.08321826159954071, 0.09326072782278061, -0.11982878297567368], [0.21753869950771332, -0.12184123694896698, 0.12519927322864532, -0.056886058300733566, -0.016918489709496498, -0.09937047958374023, 0.19072210788726807, -0.07639522105455399, -0.060409028083086014, -0.07488156110048294, -0.11814863234758377, 0.29800736904144287, -0.22872216999530792, -0.2408585101366043, 0.19967448711395264, -0.0957382395863533, 0.13810622692108154, 0.020589031279087067, -0.19856511056423187, -0.04327447712421417, 0.006242373492568731, 0.0734114944934845, 0.05383153632283211, 0.12036903947591782, -0.027116872370243073, 0.06831468641757965, -0.3282657563686371, 0.10965816676616669, -0.07487060874700546, 0.25744324922561646, -0.03615620732307434, -0.13969388604164124, -0.0789966955780983, -0.1475679576396942, -0.06282097846269608, -0.04292231425642967, 0.03420984745025635, 0.0711158961057663, 0.09561385214328766, 0.04908871278166771, -0.017891503870487213, -0.012623769231140614, -0.16912159323692322, 0.12483064085245132, 0.23608385026454926, 0.06626620143651962, 0.08303316682577133, 0.17630134522914886, 0.14000031352043152, 0.12785562872886658, 0.14163164794445038, 0.008917942643165588, -0.29940876364707947, -0.15746839344501495, -0.08403248339891434, 0.06890695542097092, 